144 100
roark -0.0005504718 0.00023677247 0.0050903643 0.008989998 -0.009270239 -0.007180144 0.0064976397 0.0090335775 -0.0050636 -0.003799705 0.0073960256 -0.0015694675 -0.0045534614 0.006573116 -0.004821963 -0.001859007 0.0028676544 0.0010084888 -0.008273011 -0.009470074 0.0073257983 0.005080134 0.0067615914 0.00072448165 0.006342046 -0.003442978 -0.0009538575 0.0057354206 -0.0075243195 -0.0039740014 -0.007481729 -0.00093771017 0.009556241 -0.007345182 -0.0023437282 -0.0019148664 0.008066201 -0.005926806 6.177129e-05 -0.004775046 -0.009562794 0.0050022826 -0.00876136 -0.00439792 -1.6914657e-05 -0.00029125257 -0.0076879123 0.009619588 0.0049969503 0.009223708 -0.008155319 0.0044856053 -0.004120716 0.00083305023 0.008498094 -0.0044455356 0.004522965 -0.0067910166 -0.0035412987 0.009442141 -0.0015528424 0.00035104147 -0.0041181603 -0.007671259 -0.0015205736 0.0024996707 -0.00086909893 0.005569174 -0.0027951514 0.0022819757 0.0054487074 0.008365087 -0.0014005288 -0.009210049 0.0044421973 0.00056471815 0.007456462 -0.0008048459 -0.0026899374 -0.008799926 -0.0008787532 0.0028644362 0.0053424523 0.007074779 -0.0057213656 0.0018625355 0.006129396 -0.0047874846 -0.0030657058 0.00679396 0.0016746334 0.00019566699 0.0034975165 0.0002231774 0.009680148 0.005084054 -0.008880521 -0.0070654447 0.00091994135 0.006380767
novel -0.008625268 0.003663314 0.0051989383 0.005745884 0.0074776798 -0.006196001 0.0011072245 0.0060785287 -0.0028424163 -0.006194098 -0.00040831376 -0.008395817 -0.0056165247 0.0071227895 0.0033603387 0.007204853 0.0067883506 0.007527173 -0.0037890384 -0.00058573106 0.0023494156 -0.0045146104 0.008387464 -0.009878372 0.006762282 0.002907365 -0.0049377517 0.004389032 -0.0017533491 0.006703408 0.009975466 -0.004373512 -0.0005815955 -0.0057149394 0.0038186328 0.0027934532 0.006900997 0.0060911365 0.009531693 0.00926693 0.007907967 -0.0069875275 -0.009160569 -0.00034717383 -0.0030784742 0.007875756 0.0059132744 -0.001546187 0.001513655 0.001782484 0.00781754 -0.009520557 -0.00018719067 0.0034666455 -0.0009328213 0.008387313 0.009020676 0.006537264 -0.00072293443 0.0077298773 -0.00853886 0.003223499 -0.004616345 -0.005083781 0.0035874047 0.005385572 0.007783752 -0.0057423213 0.0073987306 0.006638765 -0.003720073 -0.008735921 0.0054572723 0.0065025855 -0.0007597412 -0.0067223157 -0.0070844786 -0.0025004721 0.0051254807 -0.0036921152 -0.009377459 0.0038402556 0.004871932 -0.0064087054 0.0011932374 -0.0020701936 3.819793e-05 -0.009882721 0.00271843 -0.0047387998 0.0011184874 -0.0015505813 0.0022207394 -0.007886089 -0.002694685 0.002676359 0.005358324 -0.0024020653 -0.009506281 0.004511012
rand 8.626969e-05 0.0030770397 -0.0068008024 -0.0013788003 0.0076775146 0.0073242583 -0.0036595764 0.0026680545 -0.008325556 0.0061876466 -0.0046306094 -0.0031841425 0.009305256 0.00088374433 0.0074979803 -0.006084676 0.0051558185 0.009918362 -0.008452022 -0.0051579275 -0.0070579275 -0.0048573185 -0.0037825166 -0.008545239 0.007949568 -0.0048529976 0.008421758 0.005256944 -0.00655715 0.0039457497 0.0054784063 -0.0074341167 -0.00739207 -0.002486254 -0.008637494 -0.001577337 -0.00039424805 0.0032939343 0.0014384362 -0.0008839802 -0.005585461 0.0017247768 -0.0008969106 0.0068046744 0.0039857724 0.004531783 0.0014239581 -0.0027002164 -0.004370775 -0.0010291645 0.0014357748 -0.0026431384 -0.0070649944 -0.007805122 -0.009119815 -0.0059363623 -0.0018419075 -0.004322827 -0.006465529 -0.0037012016 0.0042890934 -0.003727466 0.008384927 0.0015328319 -0.0072459406 0.009443171 0.007647524 0.005505727 -0.0068619577 0.0058315354 0.004004232 0.005190457 0.0042655882 0.001935502 -0.0031459234 0.008352884 0.009610634 0.0037965092 -0.0028466608 -7.521366e-06 0.0012081657 -0.008440916 -0.008234798 -0.00022310966 0.0012302613 -0.005732349 -0.0047154673 -0.007347465 0.008345661 0.000122024714 -0.0044976035 0.005707874 0.009186647 -0.0040998766 0.0079791 0.0053815497 0.0058873096 0.0004988286 0.008212443 -0.007017246
following -0.008254334 0.009290345 -0.00017364902 -0.0019623893 0.004626122 -0.0041388334 0.0027763937 0.006985431 0.0060425582 -0.0075464495 0.0093793385 0.004635528 0.0039623533 -0.0062191375 0.008462227 -0.0021790124 0.008807506 -0.005367837 -0.008135201 0.0068012355 0.0016749791 -0.0021895478 0.009521299 0.009472859 -0.009768197 0.0024987957 0.0061445553 0.0038679284 0.0020056872 0.0004069043 0.00067383534 -0.0038192053 -0.007133104 -0.0021038991 0.003906977 0.008849295 0.009260925 -0.0059883604 -0.009396835 0.009763813 0.0034407894 0.005166956 0.006278859 -0.0028076272 0.0073354244 0.0028061057 0.002850395 -0.00237346 -0.0031099357 -0.0023736577 0.004265687 6.553585e-05 -0.009571491 -0.009658484 -0.0061375336 -0.00010889236 0.0020071762 0.009436183 0.005577192 -0.004262105 0.0002871309 0.0049747746 0.007722598 -0.0011335158 0.004310676 -0.005805812 -0.0007818854 0.008117493 -0.0023994383 -0.0096391635 0.005770504 -0.003906948 -0.0011928676 0.009958835 -0.00220251 -0.0047551496 -0.0053251735 0.0069778324 -0.0057394304 0.0020958958 -0.0052652555 0.006152516 0.0043321946 0.0026275779 -0.00152496 -0.002746805 0.009019728 0.0052349265 -0.0021344612 -0.009466586 -0.0073890663 -0.0010529581 -0.0007623895 -0.0025549177 0.009729491 -0.00043945512 0.005885735 -0.00746381 -0.0024952549 -0.0055389
fountainhead -0.007139015 0.0012410306 -0.0071767163 -0.002244618 0.0037193035 0.005833123 0.0011981821 0.0021027303 -0.0041103913 0.0072253323 -0.0063070417 0.0046472144 -0.008219974 0.0020364665 -0.004977052 -0.004247689 -0.0031089855 0.0056552077 0.0057983994 -0.004974649 0.00077332975 -0.008495779 0.0078098057 0.0092572905 -0.0027423287 0.0008002233 0.0007466507 0.005477884 -0.008606079 0.0005844545 0.006869421 0.0022315932 0.0011246753 -0.009322157 0.008482366 -0.0062641287 -0.0029923748 0.0034937859 -0.00077262876 0.0014112901 0.0017819905 -0.0068288995 -0.009724813 0.009040585 0.0061980532 -0.0069129276 0.0034034825 0.00020606279 0.0047537447 -0.0071199443 0.004026954 0.0043474343 0.0099573685 -0.004473741 -0.0013892651 -0.0073173214 -0.00969783 -0.009080257 -0.0010227561 -0.006503291 0.0048497273 -0.0061640264 0.0025191857 0.0007394409 -0.0033921553 -0.0009792233 0.009979124 0.009145887 -0.0044618296 0.009083025 -0.005641763 0.005930922 -0.0030972194 0.0034317516 0.0030172253 0.006900461 -0.0023738837 0.008775037 0.007589428 -0.009547646 -0.008008211 -0.0076378966 0.0029232574 -0.0027947235 -0.0069295214 -0.008128264 0.008309178 0.0019904876 -0.009328017 -0.0047927164 0.0031367373 -0.004713206 0.005280843 -0.0042334413 0.0026417947 -0.008045687 0.006209886 0.004818888 0.0007871914 0.0030134462
influence -0.008725709 0.002131807 -0.0008581234 -0.009308682 -0.009416303 -0.001450821 0.0044708652 0.0037411326 -0.0065109306 -0.0069109173 -0.004999675 -0.002319456 -0.0072481595 -0.009585784 -0.0027316832 -0.008386462 -0.006049457 -0.0056814863 -0.002350064 -0.0017372703 -0.008949971 -0.0007322369 0.0081679765 0.0076704393 -0.0071983505 -0.0036647585 0.0031000902 -0.009584663 0.0014598445 0.006514383 0.005752067 -0.00875686 -0.004505717 -0.008153576 3.239727e-05 0.009282043 0.0059876046 0.0050689843 0.0050589005 -0.0032512299 0.009564515 -0.007366463 -0.007279225 -0.0022695898 -0.00077180413 -0.0032292923 -0.00060385006 0.007477408 -0.00068059406 -0.001630991 0.0027405699 -0.008379377 0.007871095 0.00854112 -0.009573027 0.0024567277 0.009902076 -0.007664551 -0.0069876276 -0.0077095646 0.008396653 -0.0006778736 0.009154009 -0.008153745 0.0037393242 0.0026430774 0.0007620725 0.0023450477 -0.007496705 -0.009345615 0.0023442747 0.006173451 0.0080100745 0.0057159835 -0.0007349007 0.008314173 -0.009348788 0.0034219462 0.00025093334 0.0038536522 0.007391922 -0.006711406 0.0055640833 -0.009494981 -0.0008318932 -0.008678544 -0.005069051 0.009305236 -0.0018303918 0.0029135891 0.009105615 0.008960279 -0.00818012 -0.0030245853 0.009922468 0.0051146294 -0.0015762103 -0.00869657 0.0029754417 -0.006671087
popular 0.008124002 -0.0044831974 -0.0010401105 0.000991067 -0.00015153598 0.0010743062 0.006172808 6.6243636e-05 -0.0032843812 -0.0015774373 0.005912566 0.0014502874 -0.00074115524 0.009365325 -0.0049036313 -0.0008554386 0.0091785425 0.006742037 0.0015005994 -0.008936445 0.0011717366 -0.002262831 0.009392508 0.0011561216 0.001494393 0.0024039028 -0.0018622021 -0.0050127828 0.00020579547 -0.0020382924 0.006619674 0.008932491 -0.0006532308 0.002942612 -0.006130025 0.001740728 -0.006919226 -0.008686783 -0.0058939327 -0.008974634 0.007319186 -0.0057856976 0.008252832 -0.007249101 0.003447183 0.0096700685 -0.007841809 -0.0099472795 -0.0043225326 -0.0026645826 -0.00027006163 -0.008869202 -0.008604118 0.0028156356 -0.008224329 -0.00902927 -0.0023315374 -0.008611377 -0.0070533515 -0.008347325 -0.00030155896 -0.0045530587 0.0066594793 0.0015500009 -0.0033514183 0.006131455 -0.0059847916 -0.004627665 -0.0072503034 -0.0043273224 -0.0018271612 0.006521247 -0.002727885 0.004884496 0.0069708615 -0.0074892254 0.004570501 0.0061244126 -0.003010028 0.006608295 0.0061071217 -0.0063815885 -0.006827232 0.0025866723 -0.0016598136 -0.0060334057 0.009547366 -0.005130636 -0.006520307 -0.000116328 -0.002626713 0.00046058267 -0.0035067466 -0.00040647833 -0.00064706715 0.000848865 0.008226463 -0.0057571745 -0.0016261757 0.0055900733
turns 0.008167618 -0.004454076 0.008991845 0.008251717 -0.004413157 0.00028144373 0.004289245 -0.0038925444 -0.0055716285 -0.0065217395 -0.00066318223 -0.00031124701 0.0044585923 -0.0024643366 -0.00016307726 0.0024567088 0.004863754 -2.6307967e-05 -0.006345749 -0.009271084 3.916691e-05 0.0066776257 0.0014667643 -0.008981661 -0.007934055 0.0065448307 -0.0037829825 0.0062396177 -0.0066952105 0.0084678475 -0.0065136803 0.0032820918 -0.0010362022 -0.0068024676 -0.0032929154 -0.0011341422 -0.0054645874 -0.001208366 -0.007560422 0.0026492623 0.009092586 -0.0023869646 -0.0009828282 0.0035077797 0.008673601 -0.005919369 -0.0069130347 -0.002927785 0.009142221 0.0008675822 -0.008679566 -0.001464844 0.00947281 -0.0075378544 -0.005373052 0.009331854 -0.008972304 0.0038295938 0.00066288613 0.0066725537 0.008317123 -0.0028367045 -0.0039690495 0.008896789 0.002083285 0.0062552234 -0.009423155 0.009599081 -0.001374304 -0.0060506435 0.0029784597 -0.00044462035 0.004711305 -0.0023061908 -0.0041031223 0.0022687288 0.00834821 -0.00498702 0.00263857 -0.007995886 -0.006772699 -0.00045002394 -0.008795759 0.002803942 0.0015699499 -0.0023123785 0.005013147 0.009748813 0.008479262 -0.0018773973 0.0020774305 -0.003990155 -0.008227602 0.0062888227 -0.001927259 -0.0006636464 -0.0017493486 -0.004545312 0.004064903 -0.0042670574
opinion -0.009572485 0.008907706 0.004185017 0.009228804 0.006656613 0.0028948435 0.009832893 -0.004376873 -0.006813416 0.0042008357 0.0037342273 -0.00569314 0.009700777 -0.003538535 0.009558068 0.0008333714 -0.006338528 -0.00197608 -0.0073733116 -0.0030042003 0.0010571002 0.009498443 0.009367128 -0.0066316305 0.0034699664 0.002280898 -0.002495143 -0.009249634 0.0010173385 -0.008169917 0.006315301 -0.005799095 0.0055547054 0.009805205 -0.00016492908 0.0045434777 -0.0018195456 0.0073621604 0.003943449 -0.009015809 -0.002367749 0.0036239787 -0.00011028034 -0.0012098543 -0.0010405604 -0.0016874399 0.0005725283 0.004161853 -0.004263087 -0.0038350855 -4.998768e-05 0.00024868982 -0.00015972777 -0.004776712 0.0043065143 -0.0021437607 0.0021079932 0.0006844549 0.00598192 -0.0068102595 -0.006820168 -0.0044741845 0.009452428 -0.0015726216 -0.00943505 -0.0005364119 -0.0044353474 0.00601291 -0.00960637 0.0028475667 -0.009269257 0.0012596982 0.0060172006 0.0073700896 -0.007581514 -0.006079013 -0.0068327314 -0.007916855 -0.009534849 -0.0021294826 -0.0008378487 -0.0072218687 0.0067585814 0.0011445029 0.0058021597 0.001482355 0.0008131253 -0.0073721404 -0.0021534536 0.00432697 -0.005049752 0.0011374427 0.002900539 -0.0015257349 0.009966431 0.008360276 0.0024318928 0.0071024825 0.005910859 -0.005563365
individualism -0.0051575266 -0.006671077 -0.0077713137 0.0083113285 -0.00197491 -0.0068807104 -0.004145774 0.0051730396 -0.0028825563 -0.00376624 0.001624554 -0.0028049476 -0.001590797 0.0010834087 -0.002966904 0.008501175 0.003898425 -0.009974784 0.0062640766 -0.006776446 0.0007758045 0.004410097 -0.005099558 -0.0021149558 0.008086886 -0.0042529013 -0.0076420903 0.009253952 -0.0021565144 -0.004724151 0.008582007 0.004277247 0.0043295147 0.009263651 -0.008474184 0.005269461 0.0020425813 0.00418433 0.0016928419 0.004451122 0.0044949558 0.00610367 -0.0032138024 -0.0045710187 -0.0004148928 0.002527957 -0.0032860457 0.0060601686 0.004158716 0.007760719 0.0025695935 0.00810751 -0.0013821078 0.008070646 0.003717085 -0.00804761 -0.0039281966 -0.0024742035 0.0048858467 -0.00084623246 -0.002833834 0.007846176 0.009330457 -0.0016137458 -0.005168343 -0.004696271 -0.004833912 -0.009580805 0.0013484586 -0.0042248764 0.0025178667 0.005625985 -0.0040513673 -0.009605793 0.0015697118 -0.0067073205 0.0024924628 -0.0037741095 0.007061037 0.0006316956 0.003558646 -0.0027251903 -0.0017249819 0.007672977 0.0013963011 -0.005839719 -0.007820612 0.0012347233 0.0064715263 0.0055577545 -0.008951367 0.008606609 0.0040672924 0.0074654315 0.00976997 -0.0072756703 -0.009022756 0.0058308435 0.009400313 0.0035064397
integrity 0.007092549 -0.0015634982 0.007944704 -0.009495632 -0.008021416 -0.0066488804 -0.003986443 0.004999347 -0.0038297141 -0.008332128 0.008414756 -0.0037559918 0.00861445 -0.004889617 0.0039283168 0.0049180565 0.0023930783 -0.0028134817 0.0028437395 -0.008259206 -0.0027646665 -0.002584213 0.0072593247 -0.0034822493 -0.0065984796 0.004337232 -0.00047602342 -0.0036076012 0.006876156 0.0038589821 -0.003893883 0.0007710987 0.00914232 0.007755234 0.0063643437 0.0046783555 0.002385936 -0.0018338761 -0.0063629323 -0.00029911834 -0.0015535181 -0.0005675969 -0.006269355 0.00743779 -0.0065871454 -0.0072404994 -0.0027577253 -0.0015153267 -0.0076361084 0.0006910179 -0.0053228494 -0.0012716366 -0.007363485 0.0019624464 0.0032755465 -8.821045e-06 -0.0054499754 -0.001717767 0.00708197 0.0037387218 -0.008881591 -0.0034107822 0.0023560394 0.0021386298 -0.009461568 0.00457257 -0.008648217 -0.0073872027 0.0034781604 -0.0034678127 0.0035591421 0.0088991895 -0.0035710048 0.009315164 0.001723097 0.009851065 0.0056995642 -0.009145783 -0.00334319 0.006529837 0.0055999784 0.008709695 0.0069189263 0.008045825 -0.009824042 0.0043016085 -0.0050217654 0.0035217567 0.0060700215 0.004386795 0.0075152246 0.0014992487 -0.0012568544 0.00577104 -0.005631015 4.0857285e-05 0.009460349 -0.005491699 0.0038265884 -0.008118699
include 0.009773143 0.00816411 0.0012808307 0.005100813 0.0014166918 -0.006463568 -0.001417656 0.0064598047 -0.0046147536 -0.0039937366 0.00492401 0.0027137068 -0.0018486946 -0.0028753805 0.006012485 -0.0057178442 -0.0032385725 -0.0064887153 -0.0042328713 -0.008597426 -0.004472999 -0.008503674 0.0014058797 -0.008625913 -0.009911819 -0.008204895 -0.0067741536 0.006673883 0.0037814172 0.00035780165 -0.0029531068 -0.0074284174 0.00054119556 0.0004930454 0.00019153107 0.0008621237 0.0007817636 -7.1560156e-05 -0.00800951 -0.005875846 -0.008376156 -0.001317218 0.0018157042 0.0074166507 -0.0019575735 -0.0023208715 0.0094798785 7.783609e-05 -0.0024106144 0.008601393 0.002684898 -0.0053419345 0.006586851 0.0045147934 -0.0070542833 -0.00032270123 0.00083306094 0.005750529 -0.0017219452 -0.0027957303 0.0017487577 0.00084629207 0.001199303 -0.0026342492 -0.0059900405 0.0073236194 0.00758913 0.008299578 -0.008610155 0.0026360247 -0.0035653033 0.009630179 0.0029055157 0.0046372837 0.0023918957 0.0066014007 -0.0057377047 0.0078981705 -0.0024194347 -0.004564037 -0.002059497 0.009739227 -0.0068622935 -0.0021875803 0.0069966116 -5.523888e-05 -0.0062877424 -0.0063885674 0.008944407 0.006424691 0.004776668 -0.003258507 -0.009266593 0.003793428 0.007165969 -0.0056293732 -0.007861598 -0.0029729693 -0.004925496 -0.0023114437
help -0.0019481325 -0.0052737086 0.009451237 -0.009300139 0.0045237914 0.0053805993 -0.0014011784 0.009029811 0.009887075 -0.005489301 -0.006018101 -0.0067586917 -0.007909804 -0.0030430534 -0.005584798 -0.008346042 0.00078023935 0.002998179 0.0064144013 -0.002639959 -0.0044510677 0.0012591437 0.00039296222 0.008106283 0.00018750952 0.0072248364 -0.008268468 0.008426982 -0.0019005509 0.008696137 -0.007609186 0.001787762 0.0010733856 3.4978475e-05 -0.0051155617 -0.009239139 -0.0072609545 -0.007953201 0.0019129126 0.00047242545 -0.0018027475 0.007116727 -0.0024742726 -0.0013486806 -0.008889957 -0.0099225165 0.008934442 -0.005754164 -0.006366936 0.005205017 0.0066685947 -0.0068396744 0.00095941173 -0.0060017062 0.001645189 -0.004279809 -0.003434822 0.0021919676 0.008656872 0.006742189 -0.00967677 -0.005611966 0.007889805 0.0019960473 -0.0042623775 0.00060848455 0.00952726 -0.0010950611 -0.0094338665 0.0016201194 0.0062232097 0.0062889503 0.0041095424 -0.0056527792 -0.00034606963 -6.0969047e-05 0.0045782193 -0.00804266 -0.008029719 0.0002490075 -0.008605303 0.0058359574 -0.00043378136 0.0099841235 -0.0053574694 -0.00047884663 0.007767631 -0.0040678205 -0.0050085685 0.0015883415 0.0026701293 -0.0025512767 0.006454898 -0.0076527325 0.0034065582 0.0005004925 0.008738891 0.0059789424 0.0068142205 0.007826961
classmate -0.009494407 0.009553375 -0.007763776 -0.0026339658 -0.004894553 -0.004979901 -0.008015736 -0.0077663795 -0.0045549194 -0.001278426 -0.0051068575 0.006134434 -0.009525308 -0.005309249 0.0094398605 0.006988836 0.007660169 0.004229496 0.00051198696 -0.0059987325 0.0060171494 0.0026395689 0.0076959524 0.0063962005 0.007947931 0.008646139 -0.009902243 -0.0067591127 0.0013390689 0.006437938 0.0073691574 0.0055213915 0.0076809675 -0.0051309513 0.0065830867 -0.0040999996 -0.009055818 0.009130426 0.0013278811 -0.0027675654 -0.002465895 -0.0042241234 0.004812632 0.004403914 -0.0026470902 -0.0073373825 -0.0035813348 -0.0003331226 0.0060910457 -0.0028334346 -0.00012355008 0.00087679154 -0.007096002 0.0020626676 -0.0014318874 0.0027975016 0.0048436294 -0.0013499289 -0.0027803865 0.0077502993 0.005042211 0.006721104 0.004533772 0.008662735 0.007460523 -0.0010803045 0.008766391 0.004616972 0.0054131774 -0.0013772608 -0.0020485062 -0.0044161677 -0.008507131 0.0030292599 0.008902564 0.008909312 -0.0019375423 0.006082827 0.0037649095 -0.004305582 0.002041028 -0.0054227826 0.0081925895 0.0054369294 0.003173857 0.004102503 0.008661857 0.00727951 -0.00082462985 -0.007078096 0.008388738 0.007239604 0.0017311602 -0.0013389274 -0.005878288 -0.0045238524 0.00865666 -0.003135084 -0.0063362154 0.009875732
peter 0.0076967846 0.009120008 0.0011380484 -0.00831854 0.008434548 -0.003694324 0.0057393163 0.0043979282 0.009679437 -0.009290857 0.009207443 -0.0092851855 -0.0069115115 -0.00910446 -0.005537819 0.0073653157 0.009157102 -0.0033247354 0.0037285348 -0.003636996 0.00787675 0.0058734645 -8.617171e-06 -0.003629143 -0.0072280252 0.004759541 0.0014536615 -0.0026183864 0.007835454 -0.0040461547 -0.00914945 -0.0022587841 0.00013308522 -0.006645072 -0.005489336 -0.008498116 0.009227476 0.0074222866 -0.0002902726 0.00736238 0.007960964 -0.0007880239 0.0066131284 0.0037762094 0.0050821765 0.0072612166 -0.0047438587 -0.0021839917 0.0008660265 0.004236506 0.0033056322 0.005097599 0.004584689 -0.00844225 -0.0031797094 -0.007238365 0.009676553 0.0050092605 0.00017109452 0.0041140257 -0.0076561547 -0.00628354 0.0030799224 0.006525729 0.0039448524 0.006016176 -0.0019754118 -0.003334526 0.00019734926 -0.0031929165 -0.0055133584 -0.0077851084 0.0065389057 -0.0010932471 -0.0018841444 -0.007805756 0.009338336 0.00086996105 0.0017668157 0.0024783497 -0.0073850453 0.0016416778 0.0029679418 -0.00856434 0.0049551097 0.0024345538 0.007492871 0.005048611 -0.0030201802 -0.00716285 0.007096008 0.0018991856 0.0051952917 0.006392366 0.0019155934 -0.006124199 -6.7438614e-06 0.008263386 -0.0060956595 0.009434987
keating -0.007193302 0.0042302725 0.002167105 0.007440331 -0.004856519 -0.0045997887 -0.006082539 0.0033365714 -0.0045073098 0.008506745 -0.0042927167 -0.009117695 -0.0048405593 0.006417974 -0.006353401 -0.0052826353 -0.0073112794 0.006025781 0.003364609 0.0028191064 -0.0031383287 0.006048608 -0.006163283 -0.0019907055 -0.005978211 -0.0010219489 -0.0020354297 0.008471487 7.1434675e-05 -0.008579662 -0.0054223314 -0.006877806 0.002719648 0.009434943 -0.005833714 0.008287208 0.008530016 -0.0070701195 -0.008884063 0.009459391 0.008401119 -0.0047002356 -0.0067268615 0.007844123 0.0037769554 0.0080998065 -0.007597956 -0.009519277 0.001581838 -0.009799424 -0.0048893807 -0.003465001 0.009623552 0.008631681 -0.0028271584 0.0058375574 0.008240083 -0.0022496649 0.009527776 0.007187115 0.002044713 -0.0038281875 -0.0050659673 -0.0030576102 0.007873423 -0.0061792242 -0.0028934553 0.00920627 0.0034239618 0.0060859486 -0.008045327 -0.0007367482 0.00555022 -0.004720781 0.0075149545 0.009309941 -0.00039626865 -0.0020548815 -0.0006189458 -0.0058156047 -0.008386161 -0.0014767748 -0.0025885832 0.0044020405 -0.006884614 0.005424287 -0.0067301975 -0.0078104674 0.008496518 0.008919874 -0.0034482374 0.0035036348 -0.0057884417 -0.008738502 -0.0054876786 0.006766704 0.006435104 0.009431923 0.0070609474 0.0067525604
succeeds 0.0013010956 -0.009812833 0.004593604 -0.00052278815 0.0063404003 0.0017761699 -0.0031236089 0.007773954 0.0015559111 5.652089e-05 -0.004616979 -0.008456501 -0.007774385 0.008669393 -0.008928653 0.009029668 -0.009293679 -0.00028215843 -0.0019100447 -0.008951433 0.0086305365 0.00678287 0.0030143084 0.004837473 0.00011443642 0.00941642 0.0070199585 -0.009854604 -0.004435132 -0.0012875779 0.0030429862 -0.004320921 0.0014615216 -0.00785415 0.0027709552 0.004709569 0.004934947 -0.0031862564 -0.008434244 -0.009227098 -0.0007134821 -0.0073316693 -0.0068224166 0.0061221686 0.0071786125 0.0021179556 -0.007916539 -0.0056929793 0.008049332 0.003926395 -0.0052440353 -0.007400566 0.0007718616 0.0034596366 0.0020794864 0.0030985763 -0.005617751 -0.00988999 -0.0070251254 0.00024853487 0.004618654 0.004530259 0.0018948325 0.005165748 -0.00011792941 0.004117063 -0.009109474 0.0077196206 0.006126399 0.005129131 0.0071986816 0.008451042 0.0007419329 -0.0017136644 0.0005296897 -0.009323278 0.008412526 -0.0063797934 0.0084192045 -0.0042568957 0.0006473646 -0.009152784 -0.00957339 -0.007830444 -0.00774566 0.00037692382 -0.0072206445 -0.004946713 -0.005265217 -0.0042898427 0.0070225243 0.004837966 0.008687486 0.0071064034 -0.0056855544 0.0072489753 -0.009291241 -0.002586702 -0.0077531235 0.0042027687
independence 0.0017886248 0.007037016 0.0029508686 -0.0069808885 0.0077120704 -0.006012871 0.009004239 0.002979058 -0.004029428 -0.004711744 -0.0044220877 -0.0061744032 0.009368783 -0.0026374138 0.0077840663 -0.009694793 0.002093871 -0.0012527459 0.007545128 -0.009066794 0.007441092 -0.005107295 -0.0060078255 -0.0056619495 -0.0033882868 -0.0034146495 -0.0032066994 -0.007503525 0.00069902954 -0.0005871158 -0.0016785798 0.0037592691 -0.0076183137 -0.0032286383 0.005136567 0.008547191 -0.009806196 0.007204593 0.005308269 -0.0038829222 0.008585685 -0.00922061 0.0072467024 0.005365202 0.001306309 -0.0052065714 -0.0042014346 -0.003353669 0.0016226467 0.0015858833 0.007391031 0.009973315 0.008885759 -0.004018372 0.009650803 -0.00062778266 0.0048653902 0.0025428436 -0.0006401758 0.003681063 -0.0053223777 -0.0057461667 -0.007603398 0.0019074692 0.00652345 0.000882801 0.0012627657 0.0031913146 0.008129857 -0.007697178 0.002255417 -0.0074687153 0.0037273727 0.009505666 0.0075425757 0.0064241635 0.008011582 0.0065506734 0.0068542613 0.00867119 -0.0049466207 0.009224261 0.0050373417 -0.0021137055 0.008481184 0.005078941 0.009662726 0.0028443688 0.009881735 0.0012000772 0.009159095 0.0036020994 0.0065822834 -0.0036101718 0.0068090064 0.007264299 -0.0021292567 -0.0018555626 0.0036175274 -0.0070371656
conformity 0.009732787 -0.0097739715 -0.0065064766 0.0027809185 0.0064551295 -0.005394263 0.0027710344 0.009144032 -0.0068332707 -0.006128337 -0.0049922946 -0.0036938868 0.0018419456 0.009697939 0.006458827 0.0003747254 0.0024602867 0.008437409 0.009126195 0.005631607 0.0059451163 -0.0076169255 -0.0038122034 -0.005705148 0.0061896816 -0.0022691584 -0.008789991 0.0076047643 0.008387981 -0.0033339362 0.009130393 -0.00074080925 -0.0036260989 -0.00039001778 0.00019457957 -0.0034895295 0.0028165686 0.005750694 0.0068883565 -0.008907903 -0.0021806674 -0.0054758 0.00751942 0.0065000225 -0.0043582465 0.0023297926 -0.0059717176 0.0002389113 0.009469663 -0.0026127992 -0.005185135 -0.0074005616 -0.002903445 -0.00086959085 0.0035375897 0.009754826 -0.003391961 0.0019100372 0.009667078 0.0015401319 0.0009908654 0.009811445 0.009297264 0.0077058915 -0.006168534 0.009979469 0.0058688642 0.009086515 -0.002004865 0.0033576065 0.006825471 -0.0038842994 0.0066635334 0.0025583135 0.009340197 -0.0030352713 -0.0031208675 0.0062157223 -0.0090901535 -0.0072650076 -0.006504361 -0.0007323288 -0.0023820102 0.0068302094 0.009233204 -0.0009173546 0.0014331939 0.0020333244 -0.0019953786 -0.008038588 0.007458775 -0.004290772 0.0045976457 0.009092007 0.003058581 0.0031534357 0.0040639713 -0.0027060034 0.0038312373 0.00032291544
styles 0.0056314985 0.00550071 0.0018269416 0.005739991 -0.008950962 0.006539706 0.009245703 -0.0041826516 0.0016033916 -0.005251822 0.0010643892 0.0027561511 0.008163626 0.00055663876 0.002566827 0.001301365 0.008399878 -0.0057030623 -0.0062576476 -0.0036402417 -0.0022983563 0.005045007 -0.008112792 -0.0028481162 -0.008189938 0.0051501426 -0.0025669911 -0.009070392 0.00406383 0.00900487 -0.0030267916 -0.005842582 0.0030292587 -0.00043891382 -0.009976724 0.008437346 -0.0073329266 -0.0049336385 -0.0026606952 -0.0054569487 0.0017231987 0.00970934 0.0045675496 0.0080850925 -0.00046400036 0.0006504634 -0.0026771352 -0.008789154 0.0034303027 0.0020941552 -0.009421876 -0.0049752085 -0.00973543 -0.005706384 0.004065037 0.008656748 0.0041146255 0.0023975815 0.008140003 -0.0011126266 -0.0013975475 -0.0087463595 -0.00011465245 -0.0025557848 0.00038156987 0.0072884606 -0.0070318063 -0.0039424202 -0.006679191 -0.0035270804 -0.0033195487 0.00214384 0.0033389893 -0.00496086 -0.004529436 0.0011331252 0.005454524 0.005370269 -0.0029845084 -0.0042608767 -0.005627731 -0.0005380265 0.0019349783 0.0015377183 0.0073439456 -0.0027284075 -5.356717e-05 -0.0055237925 -0.0011599051 -0.0077160997 -0.0009506722 0.0013164515 -0.008586199 0.008755357 -0.009194788 -0.009621169 -0.008499746 0.007302867 0.0054729674 0.009253078
former 0.0025650968 0.000850755 -0.0025308582 0.009356261 0.0027794018 0.004073903 -0.00117258 0.0009267937 0.006622355 -0.00074230065 0.0033473778 -0.0006851846 0.005244201 0.0036483123 0.0025868563 -0.0053184372 -0.0047061015 0.0042974013 -0.005910008 -0.00019782544 -0.0006339789 0.0035023426 -0.008446866 0.008805218 -0.0014389359 -0.005332323 0.004047719 -0.0019390907 -0.0077776317 -0.0045021605 -0.00038674462 -0.008951094 0.00057544746 0.002429099 -0.0032283498 0.0025907268 0.002493213 0.009986326 0.0014301355 0.0020101683 0.0027812854 -0.0020899004 -0.008701505 0.008022734 -0.0019654671 -0.009695565 -0.0065683066 -0.0039451346 0.003945669 0.00504785 0.0060894494 -0.0067726024 0.00068770803 -0.0027660786 -0.0052126376 0.006992139 0.0039529167 -0.0031014744 -0.008291902 -0.005137201 -0.000649202 0.007815188 0.006057397 -0.0084488895 -0.009561044 0.0071352483 -0.0023003647 -0.0036799544 0.005739458 -0.005835038 0.0050887926 -0.00023393567 -0.006865937 -0.00034074418 0.0063809096 0.009293999 0.0022168104 0.0050568758 -0.0049834307 -0.0007999757 -0.005319961 0.0012089572 -0.0018025897 -0.0036264907 -0.0070299343 0.0096603185 0.002984429 -0.0022761242 -0.0041635195 0.0077235363 -0.006460716 0.0031435231 0.00080003735 0.008323993 0.0068515213 -0.002904105 0.0025498506 -0.0016689321 -0.009453102 -0.0026095833
ellsworth 0.0013314426 0.0065404503 0.010002251 0.009077701 -0.008004645 0.0064766984 -0.0057058292 -0.0009560816 0.0004705574 0.006562824 0.0044641285 0.0045770057 0.0094662355 0.00038925782 -0.00603248 -0.006347441 0.006418738 -0.005253834 -0.002845728 0.004051109 -0.0022939534 -0.0060070236 -0.0023264184 0.0012083708 0.0021790466 0.0060857297 -0.0052299127 0.0030757391 0.007231051 0.002192352 0.005398235 -0.0048503107 0.0061630704 -0.007616968 0.0034731934 -0.0093212165 -0.002595481 -0.009072989 -0.0015853397 -0.005373037 -0.0039244997 0.0011361948 0.0028032288 -0.0015126673 -0.00816115 -0.0059212744 0.0008016136 -0.0039566653 -0.009423258 -0.0007633571 0.0066326605 0.005977779 -0.009905889 0.0031129094 -0.005981847 -0.009181275 0.00016636483 -0.00036940124 -0.006988193 -0.0062672365 -0.0024282637 0.0071143718 -0.007534991 0.0076940088 -0.00047932175 0.0010882682 0.009503676 0.0047541787 -0.0035966893 0.0037446918 0.0035172913 0.0063506598 8.207741e-05 -0.004433965 0.0013502481 -0.0054017883 0.0013988387 0.0049390146 0.005148603 0.009161538 -0.007515714 -0.0053952294 0.006451884 0.0013708358 -0.006626146 0.0008851201 0.002691347 -0.0025191775 -0.0049401275 0.0050176545 0.009639027 -0.007353176 -0.00010027952 -0.0025584276 -0.0063481797 -0.00136624 -0.005241991 0.0090557495 -0.0057910853 0.0036907308
design -0.0002365104 0.004218634 0.0021178264 0.009991648 0.0006592859 -0.0054912004 -0.001166744 0.0020914697 -0.0033758432 -0.007859516 -0.00560161 -0.0067610014 0.0063374876 0.003919087 0.008230073 0.0065041217 -0.0061374824 0.0027187096 0.00846733 0.0015844003 0.0030719351 0.0058211894 -0.008846671 0.009114385 0.006820086 0.008494198 -0.008229104 0.00616466 0.0066206604 -0.0013685486 -0.0062879156 0.005321118 -0.0068446537 -0.005339819 0.0034976637 0.0080964 0.008694246 -0.004404581 -0.009187598 0.009601968 0.0063095656 -0.003972945 -0.008451538 -0.0047151195 -0.003948825 -0.003270679 0.00080010184 -0.00029214274 -0.003110752 -0.005985941 0.009416266 -0.0047270306 -0.0072587286 0.0076854746 0.002515878 0.008638142 -0.0044706515 -0.00688202 0.00097336463 -0.001153526 -0.00938912 -0.00158383 0.0030604547 0.006561179 0.006840737 0.003215309 -0.0044293073 -0.0018260872 -0.003963187 0.0057849386 -0.0063723447 0.0021149688 -0.0013231107 -0.005821149 -0.007212739 0.0058492655 -0.008356426 -0.0006815989 0.0028152033 0.0077151847 -0.0072935205 0.0033255161 0.009780087 -0.0069700843 -0.0035507602 0.0051419875 0.00524964 0.001629837 0.0079922555 0.00082386815 0.0018926373 -0.0015971042 -0.008151313 0.0032662742 0.0019797306 -0.008726573 -0.0006665959 6.974903e-05 -7.4473933e-06 0.0087034395
problems -0.0025064296 -0.005907507 0.00749266 -0.00725241 -0.008960044 -0.0017920104 -0.008364034 0.00039716592 0.001942494 -0.0024671252 -0.006453803 -0.00032777493 -0.0011041359 0.0034904403 0.008128541 0.00585351 0.008432157 -0.008972625 0.009440197 -0.0023747159 0.008698706 0.0023909907 0.003577978 -0.009574825 -0.009488119 0.00897837 -0.002899949 0.002814196 0.006416446 -0.0003002587 0.009717476 -0.0010316359 -0.009662603 -0.007059656 -0.0010469906 -0.008669021 0.0074242125 0.003613259 -0.008749491 0.008479285 0.008938709 0.005846252 0.0069079543 -0.009565409 0.00049625547 -0.009219193 -0.0036726855 0.00025977744 -0.00028375228 0.0014696032 0.0032748592 0.0021269335 0.005319958 0.0075139785 -0.0058868877 0.007955791 0.00599107 0.00978949 0.004622273 -0.0033233967 -0.0037494483 -0.00062335946 -0.0016463987 0.009869338 0.0011167441 0.004005558 0.0034305989 -0.00884393 0.0067084082 0.008194061 -0.0016666165 0.0023384802 -0.006476149 -0.0061338586 0.008229264 -0.00304814 0.0067431894 0.0015506425 -0.001986969 0.0030485606 -0.0040173507 -0.001776915 0.0013742179 0.004885221 -0.0014152613 0.00065800844 -0.007930697 0.009499542 -0.008756619 0.0070693633 0.003913942 -0.006994104 -0.0052925316 -0.007935085 -0.0051221563 0.0070770974 0.00964373 0.0021514103 0.0006437164 0.009524824
calls -0.004969026 -0.0012829883 0.0032743162 -0.0064143725 -0.009693617 -0.009269555 0.009027746 0.005381511 -0.0047962563 -0.008340297 0.0012872205 0.0028719555 -0.0012525598 0.0012783901 -0.0043072915 0.004782128 0.001473301 0.008880571 -0.009973928 -0.0052708574 -0.009101065 -0.00034591576 -0.007845979 0.0050122747 -0.0063937735 -0.0059563187 0.0050625294 -0.008169881 0.0014511112 -0.0072426647 0.009869855 0.008632111 0.0017674231 0.0057866257 0.004597297 -0.005988995 0.009755392 -0.009670058 0.008059891 0.002757227 -0.003048151 -0.0035528322 0.00907153 -0.0054383194 0.008189295 -0.006010536 0.008380826 -0.000556151 0.007944024 -0.003160801 0.0059825126 0.008803178 0.002550405 0.0013136448 0.005049495 0.00801014 0.008571967 0.008503768 0.007047779 0.008002516 0.008597465 -2.778199e-05 -0.0010067533 0.0016644098 6.6303583e-06 0.00068540836 -0.008595131 -0.009587072 -0.002317604 0.008930176 -0.0036529535 -0.0069754715 0.0048913574 0.0010655269 0.0018620056 0.0036467295 0.0035170668 0.005726625 0.0012265844 0.0008374055 0.009040752 0.0027831495 -0.0047105188 0.006553349 0.00521928 0.0028661345 -0.0031308287 0.0033462455 0.0063772504 0.0070765954 0.00095356803 -0.0085294675 0.00027059185 0.00037063967 0.0039495 -0.009461451 0.0097074965 -0.0069705565 0.005768481 -0.009440556
toohey 0.009645647 0.0073254695 0.0012714645 -0.0033920775 -0.00043289908 0.00039817797 -0.0063930876 0.005767958 0.002359883 0.0037582028 -0.0072589475 0.0084998105 0.0004897992 -0.0001949766 -0.009061416 0.0040296665 0.0067549953 0.007351173 -0.006415184 -0.0078740055 -0.0055194064 -0.0005871237 -0.0083417045 -0.008258192 -0.0019168177 0.00113678 -0.009522772 -0.0037408362 0.00063578645 0.0068018925 0.0017427795 -0.00063831493 -0.0074700676 -0.006755089 -0.0007083639 0.0074688885 0.005452759 -0.0014754985 0.0011877058 -0.009615907 -0.00136955 -0.004639722 0.0058125565 -0.0023288822 -0.004754657 -0.009476254 -0.0012221381 -0.007200661 -0.001679035 -0.004063168 -0.0023773687 -0.0032466508 -0.008140378 -0.0012492003 0.0016992467 -0.004040408 -0.007637811 -0.0035855188 -0.009060926 -0.00073841255 0.005883467 -0.0029489703 0.003170046 0.0049880235 0.008469581 0.0056174416 0.009518852 -0.009622564 -0.00798248 -0.006750767 -0.007471888 -0.007950996 -0.007772194 -0.0029593224 0.0014316945 -0.0028741946 -0.008823179 0.004995816 0.00089484337 0.0045678327 0.0071917986 0.007657916 -0.00082356273 0.0036764846 -0.0051372554 0.0019117299 0.0045509343 0.009892905 -0.0031609675 0.0028399283 -0.005719954 -0.0022015874 0.008144759 -0.0039009436 -0.0011666942 -0.009272926 -0.0094822 0.008880948 -0.0056974012 0.0050498554
socialist -0.006964783 -0.002452789 -0.00801995 0.007502112 0.006133923 0.005240549 0.008396187 -0.0006830083 -0.009321803 0.009106023 -0.0049264706 0.007835239 0.005538009 -0.001068839 -0.007665215 -0.0014765909 0.0062507917 -0.0069689816 0.0014437184 -0.007959179 0.008721509 -0.0028618008 0.009443467 -0.0057116593 -0.009716519 -0.008633918 -0.004080119 0.004707236 -0.0002500505 0.009216574 0.0031240827 0.003748629 0.002994815 0.00814492 -0.0024046777 0.007414226 -0.009531713 0.00292004 -0.0006784452 0.0004472515 0.0068462887 -0.0028493346 -0.0023629996 -0.000102857455 -0.00049693784 -0.0035724416 0.0062401383 -0.006555483 0.007894455 -9.561343e-05 0.0026187913 0.0032150124 -0.0002773165 0.0017033117 -0.0031420933 0.004757693 0.00024583694 -0.0032830618 -0.00872217 -0.009996342 0.00031586864 -0.0057454878 -0.0011028651 -0.0042074076 -0.008638086 0.001065833 0.0059200493 -0.002206366 -0.0071846526 0.0031534603 -0.00038423037 -0.005513631 -0.001100962 -0.00063970865 -0.00316813 -0.009953902 0.007625852 0.003731682 -0.0025345802 0.0073076203 0.00045332775 0.0071791895 -0.0015610832 0.0075031957 -5.2089188e-05 -0.00607803 -0.004699553 0.009629796 0.0005930851 0.0010349957 0.008467801 -0.0062776823 -0.0017557922 -0.008182461 -0.0066564684 -0.008577067 0.0039356183 0.0027332632 0.005618568 0.002565865
architecture 0.0021033017 0.0057440777 -0.0021026006 0.0031849649 0.008467636 0.00034277013 0.0063182944 -0.006698737 0.0065608327 0.004649977 0.0050695837 -0.009959184 -0.00043481172 0.0032247156 -0.0058228076 -0.0067301807 0.0063478095 -0.0068488307 -0.0051798443 0.008095266 -0.0070162686 0.008556512 0.0006545105 0.0043934537 -0.0030034622 -0.0054219477 -0.008975057 -0.0006178949 -0.0051147356 -0.0030924894 0.008113536 -0.00764876 -0.006296954 -0.005281919 -0.0066351723 -0.008826326 -0.0010999175 0.009445092 0.008039069 -0.005291358 -0.008120953 -0.002280294 -0.00927314 -0.0050626714 -0.005933651 0.0030204072 -0.007595603 0.0012339833 0.0023076667 0.0053178803 -0.002031746 -0.009776035 0.00523143 -0.005901081 0.0049016518 0.0019744092 0.008818904 0.0015290045 -0.0018459405 0.0065189693 -0.007068571 -0.008376201 0.0038005372 -0.0025803638 -0.004194435 -0.0019197632 -0.009851364 0.0002833185 -0.0010905305 -0.0029504702 0.0024980681 0.004717869 0.0063651768 -0.007926198 -0.004944751 -0.008779701 -0.008964135 -0.0037117556 -0.0012942036 -0.0082277795 -0.005375018 -0.0021384826 0.006320073 0.001586836 0.008296901 -0.008313246 -0.0045467415 -0.0007809982 0.008835045 0.0011042521 0.0015764072 0.001312061 0.0029518025 -0.009394113 0.0032811246 0.005488485 0.0053074844 0.0044361297 -0.0080851875 -0.0040536127
critic 0.008344315 -0.00056600815 -0.009424085 0.0047940626 -0.0060332664 0.006645882 0.0054004574 -0.005007039 0.0025607035 0.0053861467 -0.003587701 -0.0015477625 0.009170917 0.009087847 -0.009400023 0.007548095 0.009874753 -0.0028515076 0.00245879 -0.0028260038 0.0086535355 -0.00027566616 0.0056464756 0.009195549 0.0041166553 -0.0071115526 -0.0019427221 0.00097119715 0.0020173355 0.0029443165 0.009455436 0.0043993387 0.009924825 -0.008670719 -0.005769698 0.0019974634 0.0036638735 -0.0009889012 -0.006913496 -0.0032194054 -0.00851513 0.009397509 0.003702756 -0.007878435 0.003196057 0.0041682306 -0.0056504523 -0.0059270915 0.0010455787 0.00896409 -0.009644046 -1.0853928e-05 -0.0068572774 -0.00093053625 0.003050929 -0.005022118 -0.0027699743 0.0006729413 -0.006379302 0.0073072994 0.0043717697 -0.00856385 -0.002133039 0.0031675997 -0.008333186 -0.007063706 -0.008435251 -0.005485765 0.008839335 0.0070861345 0.0028823107 -0.008538926 0.0057543926 0.0046240324 0.00015086812 -0.008838326 -0.001897178 0.0001961904 -0.007776822 0.0024737043 0.00048390595 -0.0070482567 -0.008290321 0.0060489224 -0.008378351 -0.005580072 0.0056081144 -0.0004740859 -0.003024317 -0.0051851044 -0.0011682492 0.005291484 -0.005924486 -0.004980518 -0.0049224673 -0.004740265 -0.007971552 -0.009757905 0.007594033 0.0080068
uses -0.004282288 -0.009327829 -0.0018661609 -0.0037015781 0.00910448 0.002906898 -0.005956176 -0.0033245964 -0.00991033 0.0019262044 -0.00398245 -0.0027279616 0.005173732 0.007605746 0.0043917065 -0.0068466854 0.0066925874 -0.009647817 -0.0069878735 -0.008029207 -0.002259024 0.00048187588 -0.0037550952 0.0018379713 0.009214403 0.0066775293 -0.0010702705 0.009085494 0.0015474694 -0.0019752728 -0.006588076 0.006473656 -0.009060787 -0.0019075036 0.007680329 -0.0025750129 0.001615744 -0.0073501486 0.004976147 0.0073693194 -0.009291132 -0.003287782 0.007879944 0.002932085 1.5814885e-05 0.00034829322 -0.009880211 0.009936019 -0.0019836915 -0.004889269 0.002755165 0.0010101856 -0.0059282896 0.0057980665 -0.0025013073 -0.006176923 0.007237744 0.0064626895 0.008810572 0.0011780646 0.0005085546 -0.007920371 0.0046588024 0.009353872 -0.0006786281 -0.0017545144 -0.0037966028 -0.0004793978 -0.0076520117 0.0056958683 0.0014822409 0.009320862 -0.00641216 -0.0051006833 -0.0062092654 -0.0072730426 0.002742486 0.0049028536 0.0013229672 0.0035363983 -0.009391723 -0.0010606826 -0.007761656 0.0029717134 -0.0027059417 0.008881981 -0.0034202186 0.006843532 0.0041346084 0.0013746212 -1.43808475e-05 0.008196249 0.0023698176 0.008252611 0.0033600056 0.0054267016 0.0051223766 -0.007631552 -0.0057883086 0.001228739
promote 0.00018417636 0.0021520902 0.0010718369 0.007588885 -0.004399268 0.0002868791 0.007034628 0.002286961 0.0042246496 0.0042733247 -0.0012572114 -0.008355312 0.003037809 -0.008862299 -0.0026474218 -0.009427224 -0.00047294758 -0.007874241 0.0074208085 -0.004919859 0.009926317 -0.009024104 -0.0043136016 0.001912817 -0.0030022967 0.0014389477 -0.0036922966 -0.0008995642 -0.0057459995 -0.0098378025 0.0063530034 0.00037991078 0.006516367 -0.0074835354 0.003638321 -0.009892951 0.0076148543 0.0059313667 -0.006104593 0.008200757 -0.0055585895 -0.008573463 0.0015047423 0.0031854317 -0.008088146 -0.008932261 0.009152233 0.0016372063 0.0008852135 0.0024916932 -0.0035053168 0.0017355154 0.0019700455 0.009802823 -0.005599875 0.0022708378 0.0063042804 -0.0066810013 -0.008953897 0.0086710425 0.0068458286 -0.004000053 0.0057558124 0.0007805958 -0.0050174976 -0.0013426763 -0.004879613 0.0061608683 0.0019298226 -0.008311905 -0.00014723159 -0.0026306908 0.006630558 -0.0011560231 0.0077077136 0.00195385 -0.0038485413 0.008174642 0.0029366936 -0.003988525 -0.0056049274 -0.0030727985 -0.0051650843 0.0034594515 -0.009293997 -0.005816692 0.003364683 0.00020373451 0.00602936 -0.0036003937 1.8682036e-05 0.0024888148 0.0054820813 0.0016169911 0.0098465355 0.003727006 -0.007168841 -0.0014195939 -0.008366955 -0.0053342897
political -0.0021941324 -0.009710464 0.009309742 0.0020357056 -0.0011427765 -0.0055289054 -0.008490832 -0.0098748095 0.00893935 -0.0025242078 0.0045921938 -0.0045425603 0.0099456515 0.0036610218 0.0010328125 -0.004053558 0.0012031354 -0.0026553078 0.007350338 0.004453072 0.0009889042 0.0034991442 0.0037147957 -0.006802545 0.008931999 0.0017381324 -0.005804305 0.008654167 -0.0013006959 0.0081729675 -0.0015091989 0.0069825375 0.0027439045 -0.0043717064 -0.0037596927 0.009192374 0.0015997292 -0.0060037845 0.0003575641 -0.001966007 0.0016005277 -0.0077317297 0.007382172 0.0013228577 0.007887423 0.0044476376 -0.0044088154 0.0037435018 -0.00064011966 -0.00984243 0.008234527 0.009652869 0.009664009 -0.0037994357 -0.008443307 0.004836205 -0.007653696 0.0085352855 0.0027455084 0.005622917 0.006113967 0.00046878212 -0.0020865274 0.0007758114 0.009835207 -0.0071248435 -0.001541719 -0.002340161 0.0048492867 0.0064578718 -0.0041344515 0.0036369069 -0.0044623753 0.0032474308 0.008207348 0.003625817 -0.0045757107 -0.0030055586 0.007853613 0.009589889 0.005813668 -0.0032570276 -0.0018478356 -0.006244242 -0.0043046926 0.0033833422 -0.0064733266 -0.0066047055 0.0081300745 0.009496082 0.008159081 0.001514554 -0.008775044 -0.0075895637 0.0015912204 -0.009513156 -0.0074127787 0.002021403 -0.002914493 -0.009157518
social 0.006411741 -0.008946986 -0.0073340023 -0.0017424054 0.0017067097 -0.0010479521 -0.005203505 0.0066011357 0.008768139 -0.007430093 0.009803448 0.0073397895 -0.0074745608 -0.0018943371 0.0042574992 0.0070461244 -0.0036682587 -0.0069751646 0.0047332305 -0.009064897 -0.0058419746 -0.001261874 0.0054761185 -0.0056806533 0.0047780816 -0.00043149377 0.0026519941 0.0064036916 0.0014102305 0.0077062156 -0.00032758553 -0.008267656 0.009186367 -0.004872214 0.004704734 -0.003896775 -0.0073234816 -0.006508712 0.004673813 -0.0006625884 0.0014784347 -0.008940813 -0.0051456653 -0.006042054 0.008420285 -0.008688903 0.00500968 -0.00087813695 0.00020018288 0.008809403 -0.003588887 -0.006940446 0.00076614175 0.007740909 0.009121118 -0.0036904756 0.0027292918 0.004939299 -0.0052982783 0.0068601053 -0.006450756 0.0021187738 0.0045993505 0.0043829777 -0.004671873 0.0026432294 0.0073318337 0.008631161 -0.0095291715 0.0055857217 0.0049673025 -0.0015850503 0.009197651 -0.0041883676 -0.0017225186 -0.0068517267 -0.003775165 0.00025302713 -0.0032779379 -0.005433124 0.006562028 -0.0052935523 -0.006333376 0.007646288 0.009643489 0.0039920085 3.208706e-05 0.0007887956 -0.0009482498 0.0068704025 -0.0062373313 0.0005176747 0.0043010605 -0.0021031746 0.00090464676 0.003720588 0.009727164 0.0021716717 0.009496411 -0.005817214
agenda 0.0047965343 -0.003626953 -0.0042501446 0.0012286482 -0.004120571 -0.005646194 0.0031546145 0.008358324 -0.006561658 -0.009135747 -0.0033361695 0.007493732 -0.009698507 0.00960642 -0.0004184102 0.0022892712 -0.001862054 -0.005774708 0.003104419 0.006171178 -0.007048416 -0.0011529705 0.0015564591 0.004242308 0.007136676 -0.0035418433 0.0072570313 -0.005579525 -0.0022021055 0.009073695 0.0053778873 -0.008489135 -0.0016399735 -0.0088511715 -0.0016566226 0.0056578303 -0.0074132793 0.0055174544 0.006091327 -0.0037803308 -0.009639666 -0.0025337238 -0.0025575545 0.0037767016 0.008932508 0.0019924643 -0.0021253875 0.002951385 -0.0068041496 -0.0012842453 -0.0014883776 0.009609098 -0.0057982933 -0.007046799 0.0023711997 0.0026350864 -0.0071464586 -0.005880087 -0.001200187 -0.0032840797 -0.008981663 -0.004039974 -0.0029549845 0.006503187 0.00096969993 0.0015945184 0.00029878799 -0.0033613755 0.0030891157 0.000721338 0.005981262 -0.00076569855 -0.008888165 0.000871796 0.009958056 -0.005238659 -0.0052238195 -0.0025099458 0.008571687 -0.00084533147 0.009415336 -0.008325298 0.009000623 -0.009707552 0.009186716 0.0018753535 0.0026747766 -0.0058445428 0.008462159 0.0060477927 -0.0054685436 -0.009491654 0.006987469 -0.0055286367 -0.009303214 0.0026142893 -0.004976578 -0.0073623257 0.009738952 -0.0015768235
tries -0.0015112266 -0.0040323846 -0.0043940176 -0.004634586 -0.005585736 -0.005311253 -0.008018168 0.009528685 0.0063997214 -0.003616446 0.0024841363 -0.007650591 0.007526144 0.00830775 0.00079326803 -0.0068388437 -0.0029577238 0.0047365753 -0.0029347478 0.0031691382 0.009409349 0.0043551847 -0.005147327 0.0054619033 -0.0028815144 -0.0063958135 0.007004708 -0.009255093 -0.0011349655 -0.0013900825 -0.008411475 -0.0011049798 0.0055979327 -0.0052728434 -0.0070362724 0.0062093674 -0.003424619 -0.007819155 0.00028919306 -5.0427996e-05 0.0075482465 0.0005618281 0.007886275 -0.009813794 0.0040351255 0.0062162713 0.0010233433 -0.0028409197 0.0010294055 -0.0008365919 -0.008105328 -0.006782774 0.0011992882 -0.00201445 0.009546153 -0.00094801636 0.00611331 0.0020420218 0.008094431 -0.009290292 0.0023954748 -0.0014458497 0.0021619773 -0.00021712236 -0.0066453163 0.009057947 -0.0028337943 0.0019143109 -0.0064509795 0.0037208966 0.009992914 -0.0011942767 0.0065821833 -0.00012160056 0.007938602 0.009655763 -0.00039517065 -0.0016929219 -0.009528896 0.009874131 -0.0025365404 0.0021951103 -0.0017077425 0.008328114 0.00834006 0.0015402312 0.0028879812 0.0064330543 0.002254711 0.0064486233 0.00015292008 -0.002280793 0.005309536 -0.0034158642 -0.002610776 0.008791693 -0.009145355 -0.0034184614 -0.0029281685 0.0056657977
destroy 0.007938086 -0.006445146 0.0057979105 -0.00021159029 -0.009028458 -0.0024626958 -0.00156718 -0.004455464 -0.00080382783 -0.0052578854 0.005948516 0.00928181 -0.001589597 0.003391965 -0.00074009603 -0.0007140997 -0.007014119 0.0014520941 0.0039039748 0.00689089 0.0065396763 0.003542153 0.0046691787 -0.0074460767 -0.0013820603 -0.005783573 0.006788071 0.007823654 -0.004287122 0.001145411 0.0051153908 0.0018033715 0.00079370267 -0.006750564 0.0098265745 -0.007253246 -0.006028899 -0.005662332 -0.0063404283 -0.003495417 -0.009393825 0.0011704682 -0.0037625867 -0.0025460452 0.0057879975 0.0035515013 0.0018164068 -0.0013803581 0.009887333 0.00029125743 0.0050159926 0.009032002 -0.009761308 -0.009153754 0.00993095 0.0027402062 -0.0018843418 0.0047209063 -0.0043312013 -0.0063828584 -0.008258352 0.0072113806 -0.0024398756 -0.007544626 -0.005914969 0.0061763725 -0.0024666742 -0.006129761 -0.0016312596 -0.0014653424 -0.0032511447 -0.0020767844 0.0041186744 0.0014379483 -0.0034643072 0.0027007181 0.0052168337 -0.009181727 -0.0075699007 0.0062936884 -0.008945984 0.0005356891 -0.00900752 0.008381785 -0.0043055858 -0.006622092 -0.0013693834 -0.0011084614 0.007553959 0.009118257 -0.00033545494 0.002702847 0.0047533633 0.00014160169 -0.0057620555 -0.000580624 0.002187697 0.008298902 -0.0035876532 -0.0098433895
career 0.0053813737 0.009815845 -0.00705475 -0.0005780095 -0.0050565046 0.0064202943 0.00966667 -0.00031798377 0.0051387106 0.0065262243 0.004408094 -0.008039106 0.003103417 -0.001478114 -0.0021592188 0.0053933826 -0.0013242582 0.009920428 -0.0006387525 0.00025399728 -0.0022918035 -0.008513943 -0.009804644 0.0049463725 -0.0066169687 0.0029685663 0.0027701622 -0.0070062466 -0.0031404935 -0.0058086775 -0.008561523 3.830433e-05 0.009787488 -0.006676888 -0.004368215 0.008333379 0.009301199 0.00981363 -0.009891299 0.0050438405 -0.0066387304 0.006877294 0.006133824 -0.0033790334 0.006886016 -0.007867668 0.0045433207 0.004576386 0.005930546 0.0058785584 -0.00266231 0.0038856312 -0.0061069326 -0.006457415 0.0027491334 -0.009467748 -0.00029570694 0.001092133 0.007999393 -0.0069953143 -0.0023249942 -0.004106419 -0.0052250857 -0.00047397622 0.004608873 -0.0049792305 -0.0016420936 0.008660675 -0.0013186921 -0.0035691613 0.007430522 0.0012280134 -0.00033456757 0.0094563905 0.008131379 0.0034151156 0.0033523468 -0.002282849 0.008088158 0.0050614546 -0.005423786 -0.006129301 -0.00060471316 -0.00791422 0.0033599888 -0.00922272 -0.0015347016 0.0033609578 0.003056836 0.003160789 -0.00905397 0.003428006 0.005352679 0.0034659125 0.007802168 0.0016593197 0.0062778615 0.008835236 -0.0009398883 -0.000802804
value 0.0022190337 -0.0075358013 0.005634181 -0.0050062803 -0.0032654016 -0.0018496544 0.008234342 0.0022647486 -0.00092829514 -0.0028624127 -0.0021107602 -0.0013073258 -0.0050806245 -0.004121036 0.00020406539 0.004542116 0.0017897814 0.0068981857 0.0006373094 -0.0032285627 -0.007368296 0.00601079 0.0069717728 -0.0060723047 0.0046781516 0.009491375 -0.0063892426 -0.00288862 -0.009092311 0.0032113974 -0.0034369277 0.0020428621 0.009440066 -0.00835722 -0.009315603 0.0017312035 -0.0080326935 -0.009052389 -0.009344026 -0.00029244766 -0.0010909118 0.0007437407 -0.00133944 0.009037729 0.00879356 -0.0063595674 0.008683897 -0.009020911 -0.0013332133 0.0025404464 -0.00010970776 -0.0037959253 0.00047424744 0.0010002914 -0.0094106 -0.004879703 -0.0077134916 0.0038031188 -0.00088946806 -0.0074709416 0.005635233 0.00024685843 0.0027034893 0.0054335487 -0.0042337454 0.007842966 -0.0078470465 -0.003435576 -0.0073700896 0.00097523525 -0.007392791 0.009062519 0.005544966 -0.0072397357 0.0062021287 0.006606745 -0.00742285 0.0046613496 -0.0077373777 0.009314877 0.0046898085 -0.00021475974 -0.00896212 -0.00089064636 -0.00027190804 0.0009081844 0.008671757 -0.002765479 -0.008664193 -0.008837793 -0.0010392447 0.0013704279 9.947851e-05 -0.0022030172 0.008565847 0.00011917133 0.00642314 0.003982247 -0.007191704 -0.002129835
collectivism -0.00777504 -0.006757712 -0.0031418493 0.006607112 -0.0008223974 0.00886356 -0.00226932 -0.005283037 0.0039047406 0.0021962235 -0.0002712764 -0.0024782668 -0.0059983237 0.0040441216 -0.0075996416 -0.008912187 -0.009171127 0.008373898 0.0039993706 0.007077236 0.009897985 -0.00721691 0.0040395013 0.0028138882 0.00614104 -0.0033905723 0.009337465 -0.005814782 0.0070263604 0.006938438 -0.0003783819 0.0050498946 0.0066521503 0.0015345543 0.0073581194 0.0024210324 -0.0015171962 0.0073926584 0.004684512 -0.0031783532 0.0016592622 -0.00014028314 0.0049616345 -0.0054108803 -0.0041747056 -0.0009369446 0.0038067603 -0.0065872557 0.007845345 -0.003087891 0.00573991 0.002853675 0.006828075 -0.004473575 -0.0032035718 0.0030654408 -0.0027740325 0.0059466558 -0.0059571574 0.0025989122 -0.00071998214 -0.00060887675 0.0025419234 -0.0021841647 -0.0042599915 -0.008544051 0.0025009 0.0053377184 -0.005887481 0.009115326 0.0040293066 -0.0051642526 -0.0013015874 0.0039203507 -0.006986478 0.0020501048 0.0055032936 0.006254009 0.005407953 0.0036601494 -0.0027576853 -0.0060668155 0.008139967 -0.0072863717 -0.0016368793 -0.0032575857 0.006497169 -0.0062737893 0.0034069528 0.0020382756 -0.0040723193 -0.008237554 -0.008026626 0.003508374 -0.009543751 0.005710293 -0.0028984903 -0.009183135 -0.005130721 0.0077382172
opposed -0.0017194428 0.0064110076 -0.009288981 -0.009156624 -0.005186088 0.00093981245 -0.0071666944 -0.009436804 -0.008891428 -0.00047993858 0.007416255 -0.008385325 -0.0053335205 0.0015212126 0.0033268563 -0.008468687 0.0078669945 -0.008214078 0.004737255 0.009418327 0.0056581493 0.006172551 0.008249918 0.0034380225 -0.007139779 0.0057414933 -0.00831469 -0.005729415 0.0059027453 -0.007939534 -0.005861431 -0.0035630702 0.003394677 0.00521856 0.002059666 0.0051131803 -0.0026287124 0.0043627564 -0.0070391605 -0.0016591587 -0.007735816 0.00017450102 0.0047026267 0.00479827 -0.0046570264 0.0017554961 0.0078028273 -0.0055772536 -0.0037838344 -0.0005946454 -0.0047183367 0.008700275 0.0075433184 0.0092221685 0.00936687 -0.008439865 -0.000481675 -0.0075998683 -0.004815808 -0.008834428 0.003421968 0.00010871739 -0.006916553 0.007968493 0.0009546691 0.00030037184 -0.0035561216 -0.0033419922 -0.002649201 0.0076330337 0.002391513 -0.005167458 0.004741296 0.000990783 -0.0027229602 0.0077066547 -0.0039537097 0.007435506 -0.004221971 -0.0073608165 -0.00450831 -0.0038907852 -0.00071635254 -0.0018380473 0.005115951 0.005446734 -0.0017261896 0.0037383249 -0.0020207253 0.00072402565 -0.0013657433 -0.0024660463 -0.004706566 -0.004255868 0.00012892416 0.0016507946 -0.009444727 0.006068349 -0.0016869145 -0.0029822036
standards -0.0048095803 -0.004316507 -0.0047983835 -0.009815081 -0.0007281383 -0.0078510605 -0.0047685225 -0.0073090172 0.009920048 -0.0014083897 -0.0077492055 0.005476755 -0.008087824 -0.0018883436 0.0027502798 -0.007107794 -0.008751722 -0.0066458327 0.0074628307 0.009027528 0.003997703 0.0024186748 0.00414523 -0.0041116574 0.009778339 0.0068561966 0.004111259 0.00892465 -0.008426146 0.0009032107 0.008913482 -0.00094087416 -0.0067119314 -0.0022896824 -0.0028137767 -0.0024664246 -0.0018279739 0.007282935 -0.00030132884 0.0042355857 -0.0037316717 0.008237869 -0.0065192045 -0.0093415575 -0.004115716 -0.007366479 -0.0049204184 0.0005083825 0.0024002476 0.0017434187 0.0050073783 -0.0014280615 0.0023019847 0.00036701927 0.007841903 0.008057272 -0.0019619989 0.0012612818 -0.006042786 -0.0047103786 -0.006963659 2.1337906e-05 -0.0048958487 -0.0040363786 0.001492164 0.0026325183 -0.009096912 0.0017736481 0.005087319 0.0041835955 -0.0029259268 0.009520589 0.009492242 -4.610989e-05 0.0009095802 -0.009280473 -0.004783438 -0.00010944982 0.004006267 0.00012423511 -0.008730868 0.0058609303 -0.007459394 0.0085978815 0.005479581 -0.0067583174 0.0028820431 0.007728997 -0.0060795066 -0.0065572453 0.009256337 0.001841448 0.009742298 -0.009893805 -0.0014525553 0.006929165 -0.0014403415 -0.0017742262 -0.007062455 -0.0056656017
1943 -0.0065269372 0.008926289 -0.001584609 -0.008287259 0.00802294 -0.002970664 -0.0013293964 -0.000664805 0.0028270793 -0.0047221063 -0.0002533746 -0.002846935 0.008772752 0.0068843956 0.0010957186 -0.006071066 0.0031372723 0.0011458936 -0.006121899 -0.005753772 -0.0031004453 0.0023803315 -0.008121791 -0.0050030574 0.008103768 -0.0037020487 0.007959154 0.00053575245 -0.0055399225 -0.0049749874 -0.00020531984 0.004592016 -0.0060798544 -0.0055114105 -0.0068183397 0.0067561306 -0.0024039592 0.004005549 -0.001626034 -0.00741999 -0.0012704374 0.0004025628 0.0035927356 -0.0086789895 -0.0068018828 -0.0065631666 0.0029908647 -0.0037378632 0.0010167258 0.004156739 0.0045202975 0.0023742358 -0.0028722535 0.00064593786 -0.0053897914 -0.0063553383 0.008718872 -0.004051546 -0.00931809 0.0037347772 0.008463861 -0.00018657016 0.002274096 -0.003544147 -0.004199392 -0.008609985 -0.007841264 -0.009075044 -0.005977189 0.00850253 0.009436762 -0.00167921 2.1222846e-05 0.007861284 0.0012777296 -0.0051402436 0.0026311914 0.001805495 -0.0037327884 -0.004898371 0.0096362755 0.0076644127 -0.008573848 -0.0055237636 0.0014179753 0.0009120088 -0.008343931 0.009325532 -0.0053761387 0.004600187 0.009234173 0.0010969882 0.004227136 -0.002718434 -0.009672282 0.0006017037 -0.0010783789 -0.009928339 0.007004067 -0.0073854905
author 0.005116134 -0.004416951 -0.009189724 -0.009073215 0.006243574 -0.0052460227 0.0052594035 -0.0015593489 0.009695625 0.0071506924 0.009890818 0.008364381 -0.007863633 -0.009580146 -0.0055733942 -0.00080177526 0.0050104684 0.0036751053 -0.0020246003 0.005033988 -0.003386264 -0.0068140663 0.004703787 -0.009863428 0.0008884791 -0.005016249 0.0075985794 -0.0037128043 0.002814194 -0.0062626544 0.009628574 -0.0055922847 0.003570287 0.0032372319 0.008923733 -0.0055529983 -0.004362973 -0.006225439 0.006145056 -0.0045852954 0.004807258 -0.00089278363 0.0072690006 -0.00603784 -9.5131116e-05 -8.410915e-05 -0.008549074 0.008737701 -0.0021083073 0.006443161 9.2238326e-05 0.0050124824 0.0022148732 0.008847704 -0.008343172 0.008441412 0.008648367 0.0010611222 0.00441722 0.0038438044 0.004065805 -0.0029408988 0.002855949 0.0007739154 0.0048231934 0.008423462 -0.00773694 0.00015750692 -0.0087346565 -0.0015643468 -0.009029843 0.0031674127 -0.0015700428 -0.00070294493 0.006434975 -0.008106428 0.001159451 -0.0024223714 -0.0037313348 -0.007280089 -0.00798503 0.0083011 -0.0074532046 0.004819917 -0.0037948722 -0.0012110466 0.002817722 -0.008591931 -0.005651242 -0.0077473754 -0.009397381 -0.004744098 -0.003150546 0.00048646165 -0.00068894937 -0.007876552 -0.0037741258 -0.0027518189 -0.0063787843 -0.006368685
ayn -0.002610693 -0.007915226 -0.008260688 -0.0075912187 0.003562493 -0.0076010167 -0.0037091544 0.0066449 0.007404762 -0.006409088 0.006799906 -0.00777774 0.00013404588 0.006623913 -0.0028412018 0.009223301 -0.0003235798 0.0046827747 0.006954164 -0.008548116 -0.0060685272 -0.007294757 -0.0011703653 -0.007095173 0.00011429131 -0.008043046 0.00050811406 -0.00038751322 0.0064667477 -0.008885145 -0.0031679217 0.0058977376 0.00923762 -0.0017874087 0.0007745989 -0.0060864114 0.0008268765 -0.008142368 -0.0076411064 0.001378582 -9.000743e-05 0.005561649 -0.00974142 0.0016532377 0.0015752264 -0.005247015 7.143799e-05 0.0060552564 -0.006599284 0.0002930383 0.0038948355 0.0016982474 0.0028591051 0.0081559755 0.006692613 0.0035070428 0.007978258 -0.007668642 0.0075277626 0.0038899698 -0.005895136 -0.0041947444 0.006398801 0.0058054607 -0.009863286 0.0012540771 -0.00038931236 0.0008165175 0.0070780534 -0.0071610888 0.009645726 -0.00945794 0.0062260185 0.009497025 -0.0038190838 -0.009391852 0.0061843484 -0.008966661 -0.0082995705 -0.00082581356 -0.006647603 0.008754489 0.007846786 0.00082973915 0.007999657 0.009842553 0.0051937755 0.004320243 0.0053809215 0.006410382 0.0047385017 0.006393922 -0.007442439 0.008862028 0.008282005 0.00938134 -0.009012179 -0.0034463326 -0.0003422451 0.0041679177
first -0.008219102 0.00017149931 0.0060246047 0.0095637785 -0.00282919 0.0018098014 0.006338058 -0.0019756383 0.0019513837 -0.009338961 0.0007201118 0.004561005 0.0045035793 -0.009735554 -0.005148656 0.0029656368 0.0015914198 -0.004697256 0.005820679 0.0035011359 -0.007818492 0.0098357815 -0.007709589 -0.0030459224 0.009747734 0.0011378347 -0.005547225 0.0011189632 -0.0041006766 -0.006756971 -0.007745673 0.0047534984 -0.009031936 0.0040596887 -0.0055299504 0.0054410542 -0.00435817 -0.0055883685 0.0063522304 -0.008648417 0.0013315603 -0.0021239764 -0.0066913967 -0.0076486915 0.0067626303 -0.004459184 0.004583608 -0.009658763 0.0019035309 -0.001956208 -0.0058971024 -0.0027914713 -0.008655952 -0.0034720262 -0.002579848 -0.002279369 -0.005098303 -0.009189673 0.0053371135 -0.0012998653 0.0061810166 0.0030797895 0.0085624205 -0.0035126877 -0.008895981 0.0013418671 -0.008975811 0.0060453974 0.008433913 0.00051061745 0.0076986044 0.008539019 0.0042088707 0.0054160226 0.009143731 0.0011441747 -0.008255835 -0.008330737 -0.001792763 -0.00062741217 0.008813789 -0.009305382 -0.0026001104 0.009120082 -0.0014500166 -0.009071204 0.00202403 -0.0058416957 -0.0054735206 -0.006346309 0.00013784804 0.007234622 0.004126102 0.008159248 0.008858942 0.0045236 -0.006049828 0.007056108 -0.009525258 -0.0047919187
major 0.007996227 0.007906566 -0.00542507 -0.007980189 0.008088317 -0.003835704 -0.0040554903 0.007217307 0.0054283408 0.0037981612 -0.0012221625 0.008658461 0.008448575 0.0069815917 0.00906716 -0.005784789 0.0009969333 -0.0016279387 0.006334891 0.00975486 0.0051633995 0.0040557072 0.0065396787 0.005867363 0.00011803453 -0.008349379 -0.002173792 0.00907608 -0.0050898367 0.0010036498 0.004885508 -0.0069329096 0.008201527 0.0014645347 0.0024174142 0.008319178 0.0014706966 0.00086893525 -0.009436208 0.009861712 -0.009864617 0.008549249 0.0050404016 -7.07656e-05 -0.007868964 0.009338081 -0.0013820638 0.005343923 -0.0030236782 -0.0049056183 0.00016329777 -0.0080567375 -0.0066444883 -0.00944286 0.005343001 0.00043999267 -0.0009137511 0.0050987415 -0.0019790567 -0.0073666084 0.0028829607 -0.005956941 0.0005075133 0.00947893 -0.0009574563 0.0061581717 0.0044760797 -0.0035304131 -0.005244371 0.008871777 0.0021016116 -0.0004360217 0.0009113023 -0.0049256394 0.0035541786 -0.003105109 0.0042136135 -0.004559357 -0.0008041923 0.0038955773 -0.0071521346 -0.002518156 -0.008741387 0.0015710286 0.0019889118 0.0024119476 0.0010976028 8.946604e-05 0.002221125 -0.00095171784 0.0059386003 -0.0029324272 -0.005077086 -0.005329351 -0.009648408 -0.008118924 0.0021358917 0.003977806 -0.005772799 -0.009673394
literary -0.0061609577 0.004674426 -0.009074901 0.0050747315 0.006363937 0.00610559 -0.007623977 0.0028504953 -0.0054454096 0.009037862 -0.0043039513 -0.0023622978 0.00521634 -0.00081794854 0.00508672 -0.004228241 0.0049805385 -0.009792981 0.006073749 -0.0012557532 -0.005614388 -2.6783557e-05 -0.0012228824 -0.00073265686 -0.0017503465 -0.0092836 -0.007804801 -0.0068060663 -0.008641887 -0.0045476593 0.009201056 -0.0018105375 -0.0075914063 -0.005901452 0.0035905233 -0.0027057745 -0.0015493145 -0.004264042 0.0059517906 -0.007837123 -0.007498727 0.0075277146 -0.0069633275 0.0021522595 0.00037720997 0.009665857 0.004234256 0.0020730882 0.0027616334 0.00230606 0.0022005483 -0.0027228903 0.0040905066 0.006111285 0.008931046 -0.0007432435 -0.001219398 0.0064606094 -0.0084724175 -0.00065162353 -0.006658964 0.004786102 -0.008933983 0.0032467484 0.009002277 -0.0020554005 -0.0088184625 -0.008178923 0.0032413772 -0.0053342227 0.0064445585 -0.0011780829 0.007858241 -0.0004940159 -0.0062000887 -0.005697342 0.000765494 -0.0047819363 0.006559621 -0.003527715 -0.005627786 0.0009610697 -0.004877206 -0.0082093235 -0.0052633584 -0.0018588789 0.00045036784 0.0036349078 0.0068783327 0.006730737 0.005874257 0.00033971082 -0.005820047 0.008996913 -0.00064041023 0.004711111 -0.0014258419 0.0057890876 0.005293611 -0.007294018
success -0.0027453676 0.00010908883 0.0020301454 -0.009301924 0.004854074 0.0033565674 -0.00016902469 -0.0034753578 -0.0075987275 0.0075899702 -0.008598379 -0.0073880055 0.004451628 -0.008506026 -0.0032900942 -0.0020867812 -0.0018959903 -0.006832394 0.00429299 0.000994869 0.0036592807 -0.0013264203 0.0069401693 -0.009541737 0.005853876 -0.005134396 0.001703795 -0.0069406703 -0.002487625 -0.006434843 -0.0033378599 0.009719956 0.0026941386 0.0016052655 -0.0060874787 0.005589375 -0.008119003 -0.0023048543 -0.0064735366 -0.006388245 0.002286872 -0.00328328 0.0024250473 0.003910589 -0.0062655336 -0.0017410152 -0.0027686479 -0.009798561 -0.009839691 0.0011129904 0.004378963 0.00022055014 -0.00488017 0.0036332128 0.0016799911 -0.009434043 0.007195037 0.00776945 -0.007738993 -0.00076121057 0.0060402076 -0.0027832226 -0.00032349222 -0.004215935 0.0061114766 0.0070091328 0.0020980707 -0.0047035664 -0.0018341541 -0.003983973 -0.0097726965 0.007813459 -0.0006141223 -0.0006041999 0.007095625 -0.009036501 0.006331202 -0.007569165 -0.0053696735 0.0050769225 -0.003500324 -0.003478167 -0.00632213 -0.0039043815 -0.0026747168 -0.0040957257 0.00945987 0.009451339 -0.00038470782 -0.00029033585 -0.005634416 0.007927379 -0.00494037 0.005891476 0.009117483 0.0057484885 -0.00093929603 0.005537905 0.0069433544 -0.0038780936
protagonist 0.0006641747 0.0064894916 0.005867515 -0.00018314016 0.002391124 -0.006524907 -0.009351141 -0.004932972 -0.0053923344 0.0005810329 -0.003966323 -0.00037683896 0.007632049 0.009738798 0.007876931 0.002384032 -0.0027169837 0.0024281596 -0.0026947227 -0.008955567 0.0068990416 -0.008644278 0.0037931437 -0.003962833 -0.0055369926 -0.0010570143 -0.0065625613 0.008581963 -0.006883625 -0.008967009 0.0057705906 0.004462787 0.00474186 0.0024196994 -0.0037299108 -0.005105546 0.0017724572 0.008350707 -0.005654243 -0.0023797133 0.0018558614 0.0067281597 -0.006402264 -0.004526822 -0.0026364778 0.0013428613 0.005364054 0.005552878 -0.0087036975 0.007275025 -0.0025056652 -0.002853331 -0.008855756 -0.005773618 0.009447511 0.003090468 -0.008042301 0.0028046216 -0.007075057 -0.009046376 0.0038677563 0.0020412237 0.0012603499 0.0088481195 0.0062551773 -0.005066277 0.002731798 0.0025501656 0.0023861376 0.008339323 -0.006916438 -0.0022866488 0.0010162615 0.0063723447 -0.00063686335 0.007917624 -0.0046416936 -0.009039651 -0.0070621134 -0.0041455394 0.009577958 -0.005121721 -0.0048576235 0.008178367 -0.00746444 0.0020098663 0.0057221632 -0.0075331517 -0.00026223954 -0.0023715384 0.0055738236 -0.004557425 -0.0065983036 0.009896495 -0.004615485 0.007608648 -0.008452625 0.0070163338 -0.0033900174 -0.0078118425
howard -0.001179495 -0.002369322 -0.0018197033 -0.0011778579 -0.0064926534 -0.0035719625 -0.0031808096 0.0077453014 0.005855992 -0.0009032064 -0.0048157442 0.0052824276 -0.0088521065 0.0016471862 0.0040208683 -0.0019631614 -0.0045334753 -0.008227527 -0.008284031 0.0071190465 0.0036402743 -0.00038195594 0.009714087 -0.008554028 0.00059678766 -0.00047131686 -0.008071791 -0.009113044 0.0071801543 -0.0036413237 -0.007888324 0.007951503 -0.0062373606 -0.0031350807 0.0017637872 -0.0033369823 -0.007962192 -0.003919753 -0.00901374 0.0013949301 -0.0046112863 -1.6224836e-05 0.0027180316 -0.00237506 0.008822732 0.0070565147 -0.0005711186 -0.00062218716 0.0008590997 0.0067459336 0.008952115 -0.0019426931 -0.0015850598 -0.0029668487 0.0004971274 -0.0064717103 -0.0018678402 -0.008649386 0.00065679534 0.0014506833 0.0037263758 -0.0028550709 0.005935068 -0.0070844474 0.009809307 0.00054462545 0.0023018124 0.0043668505 0.0004023936 0.0025925508 0.001602108 -0.009591148 -0.0031267065 -0.0025984226 -0.009235022 0.0034191064 0.0048111468 -0.0020871365 0.0074047446 -0.0012326889 -0.0002835183 0.0058010705 -0.008494847 -0.0068986597 0.007334105 -0.0065746983 0.008482812 0.0053460062 -0.008034956 0.0083979145 0.0063388026 -0.0066993022 -0.008460369 -0.008833202 0.0038570717 0.006345047 -0.0021264208 0.0013378168 -0.00839138 -0.0051173046
intransigent 0.0046949345 -0.009071772 -0.009235493 0.0010038427 -0.0085628955 -0.0069651287 0.004769768 0.0080267945 -0.0073687825 0.008090113 0.009380662 0.0047041452 -0.0044171433 0.0096749915 -0.0077189226 -0.0038992818 0.0019273642 -0.0076284586 -0.009867742 0.0028562248 0.008188578 -0.005104772 -0.0042824447 0.0038909486 0.00069860095 -0.008547531 0.006550203 -0.0031648814 0.0035744943 0.0031467408 0.008889573 0.008738063 0.0073209945 -0.008303332 0.0011984522 -0.0009491528 0.00087417883 0.008930292 0.0047692456 -0.008926797 0.009827801 -0.00088466745 0.0003864267 0.0049501723 -0.0062060333 -0.00040201386 0.0013526999 0.0070598256 0.004281397 -0.0019428672 -0.00846043 -0.0038927044 0.008778918 -0.009480313 0.009829869 -0.00014241555 -0.0011265321 0.009603067 0.009569655 0.008289962 0.008997779 -0.00997271 0.0075143096 -0.00935709 -0.007718642 -0.008817999 0.0021666968 0.007187175 -0.0063176393 -0.0027196475 -0.0023754938 -0.004454922 -0.0012983526 0.004853478 0.003740271 -0.0032524483 -0.003704579 -0.002343132 -0.0032462052 0.0039346893 0.009739782 0.007876145 -0.0075844084 -0.0064378344 -0.009153347 -0.005926433 0.0036586064 -0.0060139843 0.0017067855 0.00888515 0.0033572868 0.0012073366 0.008922673 0.006414452 -0.001412663 -0.0061971373 -0.001047289 0.007266787 0.00748623 -0.0040283906
young 0.009935184 0.002400199 0.005132447 -0.0056702406 0.004390789 0.0002383139 -0.009569248 0.0050872113 -0.009011058 -0.0064834184 0.0027840438 0.009272367 -0.0021226576 0.006989114 0.0050742123 0.004061622 -0.006204595 0.0050728694 -0.008309099 -0.0043265093 0.005457245 -0.008141038 0.005738272 -0.0035047668 3.3317046e-05 -0.007349632 -0.006244173 -0.0033161256 0.008591331 0.005342475 -0.009692505 -0.0065708975 0.0034279532 -0.0085188355 0.0066446485 0.006165266 -0.009301598 0.008653936 0.007841845 -0.0017919998 0.0017953293 -0.005692358 0.006210401 0.0076955575 0.004054565 -0.008865328 0.0049336455 -0.0030573704 -0.0021988773 0.006101369 0.0018432245 0.004609223 -0.0062741637 0.005237666 -0.0035383713 -0.0003766225 0.006224507 0.0040806876 0.0074690375 -0.003905897 0.0035504405 0.0073139574 -0.0032803274 0.0057576806 -0.009411076 0.008846347 0.0037581795 0.0053192037 0.0046297144 0.0045732716 -0.0033149128 -0.0061956733 -0.0022708746 0.0013801162 -0.002931797 -0.008490369 -0.00628683 0.008331482 0.009331401 0.0059563518 -0.0041021877 0.0006987642 -0.008592618 0.006670627 0.00045173042 0.007377356 -0.0053594694 -0.0028431085 0.002864943 0.0034579402 -0.0065274 -0.007356335 0.0020439152 -0.009006108 0.0058060624 0.005475847 -0.003810467 -0.0056469524 -0.008322804 -0.0018925623
architect 0.0069777826 -0.00020704237 -0.007945813 0.008890029 -0.008547852 0.0055530905 0.006478895 0.0009807871 -0.008699292 0.0061683725 -0.007845429 -0.0050238115 0.00962487 -0.0082813585 -0.0076223044 -0.004903016 0.003461806 0.001915482 -0.005559579 -0.003279902 0.0085858945 0.009769 0.009919139 0.0010405815 0.0040374924 0.0013660538 0.0016721803 0.004834696 0.0022027122 0.0002952603 -0.0031455823 -0.006526153 0.007987685 -0.0059699756 0.0027815008 -0.00091846683 -0.003647063 -0.004938154 0.0032215745 -0.005861792 -0.0074887397 -0.0026428013 0.004688955 0.0060433764 -0.0014547014 0.007300322 -0.0076006074 -0.0047340305 -0.007858145 -0.006047861 0.007298778 -0.00928399 -0.008652196 -0.009814592 0.009200718 -0.0026632117 0.000997849 -0.006127871 -0.00253676 7.6806005e-05 -0.002498881 -0.0073686927 -0.006191462 0.0025329287 -0.009494817 0.0011491657 -0.0019882624 0.008279437 -0.0004049484 0.0062124594 -0.007091011 -0.0075607426 0.005551024 0.0009389403 -0.005085924 -0.0026602687 0.00877137 -0.009177246 -0.003681434 0.0010022937 -0.00021690344 0.009517985 -0.0019437562 -0.007090541 -0.007682749 -0.009897804 -0.007819726 -0.006032428 -0.005943975 -0.0014095622 -0.00053845166 -0.0047139903 0.0021441348 0.0038671482 0.009035968 -0.0046538548 0.0051316214 0.0072487686 -0.0037525606 -0.0074342545
battles -0.0033539792 -0.0068884 0.006488221 0.009374821 0.008313965 -0.008570538 0.0050646574 0.0051378175 0.0056205713 -0.008354795 1.6229236e-05 -0.0068460163 -0.008942045 0.0025050628 0.0099395085 0.00647238 -0.0070747035 0.0023521935 -0.0039018586 0.009913255 -0.008796689 0.009731948 -0.006518172 -0.0070323227 0.0016368972 -0.0007040902 -0.008512521 -0.0006270116 -0.00037233887 -0.0062897783 0.0057561253 0.0031728167 0.008417392 0.0073792157 -0.0066556213 0.004799116 0.00569788 0.0057815565 0.00521059 -0.004781906 0.0043302965 0.0013246536 6.572026e-05 -0.006464067 0.0015346347 0.0052674124 -0.009229089 0.00861494 0.0030053917 -3.3706154e-05 -0.003365239 0.0003393363 0.0061026514 0.0047885524 -0.005946868 0.007893643 -0.0006342998 -0.008157797 0.008861934 0.0050974814 0.0036366542 0.007924908 -0.0075148414 -0.005826788 -0.002014029 -0.0040818555 -0.0015946511 -0.00056954875 -0.0084039215 0.0019160869 0.002550969 -0.00081937126 0.0049116453 0.0014565345 0.0060245367 -0.0022516164 0.008546983 -0.0015697642 0.003059098 -0.0038272478 0.0061198594 0.0031025982 0.00050399895 0.00877931 -0.007854837 0.009721088 0.0008071463 -0.0023538652 -0.0041062874 -0.009103506 -0.0021857934 0.0027053175 0.006600478 0.009080639 -0.008717067 0.00907696 -0.008835472 0.0037250116 0.008034761 -0.0025046302
conventional -0.007859311 -0.008335699 0.0011508669 -0.0007664053 -0.009501626 0.0030828526 0.002268553 0.0044657625 0.0044164173 0.0032160776 -0.009816222 0.0057258075 0.0042574992 -0.0077422843 -0.0021080002 0.0003484074 -0.0006430813 -0.0009571508 -0.0055379523 2.4557809e-05 0.004421172 -0.00067655294 0.00081043685 0.002081139 -0.0039743893 -0.0078781 0.009167811 -0.009801371 -0.0024824971 -0.0012741016 -0.007663674 0.0017711393 0.007952941 -0.0015202038 0.008106364 0.00030772475 -0.0057706 -0.0019731398 -0.00072151393 0.0062473784 0.0071233194 0.0062118876 -0.00599344 -0.0069842073 0.0061000353 0.0024762528 0.005329201 0.00046476445 0.007862251 -0.008887154 0.0098719485 -0.008243362 -0.0017016197 0.006284603 -0.009233408 0.0043273987 -0.006974816 -0.006844058 0.0023000939 0.0017426629 -0.0027795732 0.0078764 -0.007016302 0.00047255217 0.008731343 0.0020296965 -0.0068487413 0.003544589 -0.005036956 0.0005919918 0.00284999 0.0075945864 0.007401478 -0.0048953355 0.009539534 -0.005493998 0.007630798 -0.007984538 -0.007836891 -0.0011224919 -0.008140968 -0.003456046 -0.0005306392 1.0425585e-05 -0.009970196 -0.006502979 -0.0074062464 -0.00038568318 0.0051986254 -8.3296574e-05 0.009978221 -0.0038833937 0.008071233 0.006091811 0.008278814 0.00011386893 -0.00043374184 0.001884174 -0.0099197235 0.009037084
refuses -0.002400388 0.0075243292 0.0020473052 0.0028953257 -0.0012152861 -0.009926705 0.001417853 0.0029290302 -0.009795403 -0.003922478 -0.0023493445 -0.0050834077 0.0039417483 0.0021169393 0.0043377853 -0.006495422 -0.006021041 0.00469965 0.006773105 0.0055037825 0.004803709 -0.007239313 0.008167506 -0.006983064 -0.0076529686 0.008483064 -0.0024662942 -0.009404717 -0.0031009165 0.0059513436 -0.0028890623 0.0049418034 0.000115603034 0.0040468182 0.0011667672 -0.009316233 -0.0036430866 0.008828931 0.001540056 -0.0058931108 0.007030756 0.0074601034 0.0072288956 9.045106e-06 -0.009128189 -0.003491262 0.005108267 -0.0064847213 0.009758935 -0.009772337 -0.00813074 -0.0053492873 0.006037772 -0.007666157 0.008637804 -0.009853577 0.0034986371 0.003294576 4.814771e-05 0.009573243 0.00510775 0.00030171935 0.0048317537 0.00640436 0.0030004033 0.009416931 -0.0013345932 -0.008355131 -0.004503268 -0.0014877459 -0.007279459 -0.0015292715 0.00796534 -0.005047682 0.0051322216 0.0043270728 -0.0006869528 0.0010557682 0.0057077594 -0.0066655963 0.0038981142 0.008933781 -0.0035410838 -0.0075832075 -0.009229316 -0.009002883 0.0038920857 0.0051151034 0.007051991 -0.0014485577 0.0010032548 0.0030773985 -0.009859627 -0.009405133 0.004624707 -0.008380271 -0.0031727403 -0.0043080924 0.0059149973 -0.0034350224
newspaper 0.009974603 0.00054388377 -0.005135072 -0.0036461083 0.0012752513 -0.0054056896 0.0074184155 0.009080163 0.004275988 -0.0073873294 -0.0059364424 1.9012887e-05 -0.0010176024 -0.00550114 0.007952765 0.006227676 -0.0041712737 0.0023765555 0.0051427726 0.0023850473 0.008580491 -0.0012750184 -0.006511512 -0.0008559021 -0.008319114 0.009846239 -0.008639247 -0.0015059161 -0.0028623159 0.0031409748 0.004971484 -0.008240422 -0.004385827 0.00048234838 0.003999378 0.0051437602 -0.0013817229 -0.0006239861 -0.007820718 0.0045389878 -0.0076338616 0.0032781314 -0.003438697 -0.0078137 0.00689202 -0.0004561959 -0.009580388 -0.009379824 0.0005887563 -0.008170853 0.0037377179 0.0034397563 0.0033501198 -0.0055936906 0.007974285 -0.008967002 0.0074622775 -0.00062220835 -0.0014765187 0.003994069 -0.002490155 -0.0043909666 -0.0023943002 -0.00616361 -0.0003604148 -0.0053754146 0.0046270443 -0.00953265 -0.0043725176 -0.009160415 -0.009623547 -0.00074503827 -0.008067977 -0.0057202494 0.0028193286 -0.001455624 0.00310487 0.008273383 -0.009658267 0.006084748 -0.007957665 0.006569521 0.007432191 0.008611965 -0.007969711 0.0033554158 -0.007808851 -0.0012489307 -0.005198475 -0.008519818 0.0049795983 0.0044427766 -0.004048181 -0.0077689216 0.0035872615 -0.0039150068 -0.008845462 -0.004399431 -0.0021532981 0.0087663615
compromise -0.006472619 0.0073318877 0.0061226254 -0.004915071 -0.0017246137 -0.0025459172 0.0031485995 -0.00040854444 -0.0027798938 -0.009071731 0.0064323843 -0.009631956 -0.008665257 0.0013965125 0.0029953544 -1.2230568e-05 0.00035247998 0.002587893 0.0018044974 0.007561467 -0.0034362564 -0.007217765 -0.007878281 0.0078919185 0.0019607572 -0.00582855 0.006384874 0.008433066 0.007930465 -0.006843333 -0.00513202 -0.0020079336 -0.0066035152 0.004722508 0.005648682 -0.005967412 0.007203436 -0.007648328 0.00620956 -0.0046317447 0.0019829255 -0.0032635836 0.0033825738 0.0077125356 -0.0013762441 -0.004981724 -0.008593662 0.003652611 0.0042444607 0.0066892356 -0.004295482 -0.009748674 0.0068287756 -0.0045223944 0.004417888 0.008065128 -0.0039343354 0.0016411076 -0.00358849 -0.006586935 -0.005677356 -0.00011154748 -0.007503185 -0.001999627 -0.0024979247 0.0067193415 0.001376479 0.0058631087 0.0037946145 -0.0035104805 -0.005104461 0.009681751 0.0070984303 -0.009048764 0.005282135 0.008172024 0.009204836 -0.0080649825 -0.0020417215 0.0010585083 0.002912567 -0.0015934708 -0.004740728 0.0064823283 0.0069108577 -0.00038207162 -0.005817617 -0.004363843 -0.0051260283 0.004246736 0.0005517376 -0.0023449126 -0.009071118 -0.0014894146 0.0064662686 0.0063451305 0.0042400714 -0.0028900504 0.009060583 0.0005914692
architectural 0.0011173913 0.0061772075 -0.006595853 0.0065155816 0.009850522 0.0036049346 0.0034786395 0.004263849 -0.0019662066 -0.008145037 0.0014895496 0.0008701477 -0.006825513 0.00197377 0.0054666293 -0.0072066598 0.002489757 0.0077631604 -0.008623455 0.0034933875 -0.008555913 -0.007918764 0.0071106693 -0.007602896 -0.0013457374 -0.007970826 -0.007867958 -0.0071320776 0.0003772914 0.0017649375 -0.007886708 -0.008059785 -0.003148985 -0.0018410649 -0.0061907354 -0.004192148 0.0036212092 0.0030755652 0.0066027856 0.0042383107 -0.0008542881 0.00277019 0.009041492 0.0018993748 0.0018401222 0.0011355045 -0.009340346 0.0053742127 0.0050578085 3.7340527e-05 0.0092125675 -0.0057580005 0.0032678728 -0.0078023137 -0.00894972 0.0020259551 0.0047546388 0.006103043 -0.008699638 0.0043922425 0.0024109469 0.0041953046 -0.00065233785 0.005548 0.0072793826 -0.008362338 -0.009906461 0.0070447666 -0.0010025961 -0.009358159 -0.0041103363 0.0012354383 0.008475902 -0.0017108317 -0.00096484623 -0.0073935767 -0.007642468 0.0014537316 -0.0005118993 -0.007743978 0.00087016035 -0.008945195 -0.002541696 0.0042645144 0.0010764028 0.007848665 0.0066270647 -0.0011884762 0.0049804826 0.0061226967 0.0087861335 0.009110067 0.004953611 0.004629539 0.007238687 -0.0015450349 -0.0056261374 0.008847748 0.0012110743 -0.0050630085
establishment -0.0008835371 -0.005235378 0.009116372 0.0033794704 0.0043232157 0.0064608986 0.008195462 -0.004737102 -0.0063489373 -0.0037526614 -0.003710889 -0.009454434 -0.0006346526 -0.008095081 0.009784039 -0.0034223504 -0.0063296403 -0.008105147 -0.0035643538 -0.009552642 0.0007927815 0.005426938 -0.002865736 0.007637082 -0.0018573749 -0.007298975 -0.0031223851 -0.0031640113 -0.0071101333 -0.009696761 -0.0040525286 -0.0015935459 0.0050290986 -0.007630907 -0.0049811774 0.0013873121 -0.0016740377 0.003560115 -0.0018649928 0.0043224692 0.008015699 -0.007907094 0.0037596303 0.005967905 -0.0005671346 0.006772334 -0.005452828 -0.0045563714 -0.007842072 0.009472003 -0.009405614 -0.003270854 -0.0004244448 -0.004835705 0.0094588455 -0.0068116006 -0.008011255 0.0092534255 -0.008300034 0.009726444 -0.0040912377 0.00568409 -0.00040240717 -0.003989564 -0.007511541 -0.0062643015 0.006854893 0.0063328017 0.0001416406 0.006397405 0.0038313991 0.0038622126 0.002707573 -0.009733594 0.009304462 -0.00823677 -0.0029906281 0.0014176226 0.0052203666 -0.009242709 0.0016895249 0.0063966583 -0.008801954 0.009575153 -0.005245471 0.009558288 -0.0065000476 0.006593997 0.009378921 -0.00923571 0.0003242142 -0.007721289 0.008140449 0.009578792 -0.006020055 0.0008576526 -0.0022285113 -0.0077655306 0.00082281604 -0.009910857
unwilling 0.0026145868 -0.007700217 0.005690514 0.007566324 -0.002542743 -0.004024786 -0.009593443 0.0049312874 0.0029070487 0.008735383 0.0032984475 -0.0029103383 0.0035506792 0.008632372 0.009242445 0.0076384726 -0.008558289 -0.0075681224 0.0072615757 -0.0074457605 0.0032541302 0.008024526 -0.003202594 0.006744662 -0.008148507 0.006479383 0.005587697 0.0033302295 -0.008126858 0.009151802 0.008233233 -0.0015612028 0.0041086394 0.0063716033 -0.001740785 0.0054943766 -0.004031301 -0.0012686698 -0.0012049422 -0.0041624308 -0.00070199324 -0.007698169 0.003645234 0.009060634 0.0047854944 0.0063818623 -0.0047528925 0.0048712897 -0.0066811526 -0.0049685943 0.009870712 0.006398585 -0.0049856887 -0.0060766735 0.007223569 0.0027158149 0.0065896316 -0.006750132 -0.000972005 -0.00093430834 -0.00021785215 0.00222874 -0.00674685 0.0043852315 -0.0027516435 0.00834982 -0.0010341997 0.009162258 -0.00084589596 0.0052057025 -0.007601701 -0.00908935 -0.00033000926 -0.002266102 0.009982571 0.0045122732 -0.0055665337 0.007360711 0.0005811252 -0.00955558 0.005716223 -0.0019959689 -0.009434983 0.008715681 0.007246294 0.008558154 0.00037471644 0.0076884883 0.0051938603 -0.0069452184 0.009297824 -0.0035571272 -0.009739412 0.008561909 -0.0052937325 0.008404393 -0.007852594 0.0092686815 -0.0059093507 0.00399338
accept 0.009774764 0.004197283 -0.0021216697 -0.004960038 -0.00970718 0.0041846395 0.0074483114 -0.0047058463 0.005910822 0.006821889 -0.009021687 0.0020843854 -0.0068432405 -0.0043221484 0.00086080644 -0.007038203 -0.0041481783 -0.007515467 -0.007023101 -0.006946838 0.009921069 0.00833258 -0.00018267003 -0.0026347444 0.006253448 0.0013191359 -0.0089923 -0.0070730974 0.0010206307 0.007924346 0.0032005566 0.00984289 0.006574738 0.00028360065 0.008650955 0.009016371 0.008060269 0.0094111515 -0.009382671 0.0035101667 -0.0078073447 -0.0071348706 -0.00843222 0.0031988774 5.0842146e-07 -0.0063468753 0.0055343932 0.007905275 0.004292034 0.007827597 -0.004280423 -0.0064001135 0.0039883438 -0.0029225403 -0.0071730376 0.003676972 -0.003324556 -0.0052014566 0.0026262773 0.0068705147 0.006408846 0.00015183946 0.008655193 0.0029525342 0.0065617273 -0.000897896 0.0021208215 0.006173884 -0.009801022 0.0058380365 0.0012786979 0.006097887 -0.0014268373 -0.002708533 -0.0055529815 -0.0028582874 -0.0025575191 -0.0051541813 0.0009551564 0.007982344 0.0051411837 -0.0076334467 -0.007441064 -0.0028806578 0.003891374 -0.009315935 0.006133686 0.0031195795 -0.0028076712 0.009191989 0.008084131 0.0007201566 0.004844351 -0.00929361 -0.008765487 -0.0029345732 0.009272709 0.0032329834 0.0056203045 -0.00676634
innovation 0.0042334246 0.00038435363 -0.00090413017 -0.0032523167 0.0049883937 -0.009124118 0.0051315683 0.0056954585 -0.0024288853 -0.004220095 -0.0073928544 -0.00639417 -0.0051188488 0.0031569395 -0.00479277 -0.001213175 -0.0089350045 -0.0035200303 -0.0007892364 -0.007955692 0.0032559773 0.009755334 0.0043921284 0.0018444596 -0.0048574978 -0.0011494071 0.002248144 0.0017257568 0.008805786 -0.000945535 0.0069958284 0.005790288 0.0030483552 0.0073094643 -0.004952144 -0.003951738 0.0069806557 0.008617463 0.00316185 -0.004096489 0.0076511404 0.002722557 -0.00023309154 0.008855111 0.00431514 0.0039481404 -2.884835e-05 -0.0089117065 -0.0031135904 0.002439677 -0.00561007 0.00710298 0.007460697 -0.008940961 -0.0053868517 -0.0059668072 -0.0006576722 -0.0017954254 -0.0020475232 -0.0021846928 0.0035736235 0.009621838 -0.0045816824 -0.008284353 0.0037358548 -0.0064580007 0.0066844006 0.0026826821 -0.007874296 -0.0077564036 -0.009257461 0.0023731967 0.0027662208 0.0026001194 0.00019736629 0.0010244445 0.003081507 -0.001568436 -0.00804311 -0.0006378891 0.0037063104 -0.0025727763 -0.0021590334 -0.0022344491 0.0072544822 -0.003037627 0.009457549 -0.003881896 -0.009957036 -0.006555699 -0.0043517044 0.0012534885 0.0051373476 0.0021335904 0.009068086 0.00091365795 0.005633373 0.00015846742 -0.0021131292 0.006221437
embodies 0.0020127418 0.00825865 -0.008289103 -0.008750518 -0.00053300324 -0.0019065196 -0.002340553 -0.00057841477 -0.005079809 -0.0080314465 0.008252616 -0.0033585462 -0.0028417492 -0.0016411829 -0.001228237 -0.009194433 -0.0018041672 -0.0013583407 0.008651438 -0.007973231 -0.0047381343 -0.0018716189 0.0028862995 -0.00602664 -0.0055489577 -0.007967312 0.005525743 -0.008722517 -0.0032542152 0.00029107567 0.0014516686 -0.0099443775 0.008669151 -0.0020636606 0.00034211014 -0.008781114 -0.008167017 0.0037796258 0.00401668 0.0029813573 0.00585096 -0.0069340845 -0.0012478168 -0.0027183804 -0.0013964685 0.0044828746 0.0013634062 -0.0074456013 0.003237975 0.0062598786 -0.006107282 0.0032271184 -0.004308836 0.008824141 0.004131959 0.002038932 -0.0010199683 -0.009105339 0.008649487 -0.0018088908 0.0073731393 0.0037824372 -0.008252439 -0.0006191341 0.0027385894 -0.0025646016 0.00974361 -0.0049832608 -0.0071740486 0.0038023887 -0.00357298 -0.006884513 0.0020429948 0.0052656126 -0.005484349 -0.004386887 -0.007172125 0.0015509401 -0.0047633904 0.00843207 0.00072503026 0.0018702794 -0.003349412 0.007381967 -0.0006676625 -0.008210989 -0.007341747 0.00020649984 0.0077484786 0.0030857977 -0.0053140363 -0.006751041 -0.009841262 0.0039281705 -0.009511391 0.003193575 0.0016670425 -0.000825899 -0.009949088 0.005886273
believed -9.107663e-05 -0.009935482 -0.0075340024 0.008567352 0.001895111 -0.008183934 -0.0008164136 0.0054088836 -0.009319826 -0.006877685 -0.0010228015 -0.009769119 0.0004819194 0.0019461925 0.008541877 0.000979637 0.001301409 0.00487551 -0.0042913454 0.007228235 0.00015981894 -0.0006779391 -0.009696996 0.0005016962 0.0067907493 0.0017595915 -0.008090339 -0.0033337714 -0.006040231 0.0060170484 -0.0064659556 0.0052544987 -0.0052565676 -0.0068259453 -0.007588066 0.0038158565 -0.008800513 -0.0057119946 -0.007060098 -0.0043197675 -0.0040340805 0.0014848189 0.0064858124 -0.0011982634 -0.005484928 0.0015577842 0.005632447 -0.005273035 -0.005337583 0.005169707 0.006265202 -0.007770505 0.008212713 -0.009843567 -0.0074175927 -0.005877621 0.0018161759 5.616876e-05 0.0034650364 0.0070147295 0.004792997 -0.0031996612 -0.0064321244 -0.008251335 -0.00048360135 0.009732639 -0.007672557 0.0036498469 0.0043805228 -0.004336188 -0.006968363 -0.0054414095 -0.00503535 -0.0069974493 0.0059386156 -0.0077701164 -0.0029355027 0.0043793153 0.00017763549 -0.00768575 -0.0046867435 0.0035933577 0.0025395274 -0.0019542396 -0.0007271157 0.0025483135 0.0014243331 -0.0026429447 0.005344324 -0.0076590395 0.006367012 -0.009987992 -0.0022522009 0.006683406 -0.0035997669 0.0065363785 0.005433011 -0.0073984093 -0.00024352154 -0.004496621
ideal -0.008066791 -0.0009006924 0.0064001726 0.008731813 -0.0050310604 -0.0026889383 -0.0060281334 0.0011960841 0.0026718215 -0.009857671 0.0024180445 -0.008832861 0.00039257412 0.004765002 -0.0052568587 0.00025319567 -0.002182472 -0.008699877 -0.0024082672 0.004436602 -0.008562027 -0.0059361956 -0.0005428781 0.008027293 0.0014092423 0.009756672 -0.007674623 0.008978705 -0.0047324263 -0.0063610063 -0.007828101 0.0018437684 -0.0027433485 0.007542412 -0.00052362407 0.0025248686 0.0059646927 -0.008658851 -0.0020638055 -0.0047912737 -0.008660617 0.0034123855 0.0024159632 -0.0024121779 -0.0018972257 -0.0067349086 -0.0032826923 0.001310377 0.007749127 0.0070689013 -0.0036041227 0.003596668 -0.0025705565 -0.004711403 -0.0036266774 -0.0061463984 0.003516028 -0.0077851648 -0.007503599 -0.0044902996 0.007403664 0.0018354596 0.0054742936 0.008214504 -0.006241677 -0.0046144477 0.007698858 0.00495031 0.0046441657 0.009001688 0.008798423 -0.0026731712 0.0010459835 0.005482687 0.008911674 0.0098450165 -0.008257354 -0.005130364 0.0049800356 0.0009475851 0.00016438584 0.0075223143 0.0063888454 -0.0072191064 -0.002614498 -0.00848378 0.0070525524 0.0027533143 -0.0022208884 0.001885252 0.007680289 0.008146759 0.0061814543 0.003168398 0.001568686 0.008147612 0.0013282084 0.00043594502 -0.0095560765 0.0025244972
man -0.008459673 0.006467101 -0.005783847 -0.001746849 0.0009803757 -0.0018863155 -0.009113689 0.0039930856 -0.006581589 -0.008799302 0.0039109224 -0.0007714908 0.006516579 -0.007010678 0.0007878365 -0.0006889035 0.0057382253 -0.009738478 0.0059328354 -0.008990486 -0.0077821882 0.00073691295 -0.0026592584 -0.0038914203 -0.0053062118 0.004107881 -0.009328606 0.0011846252 0.0042041847 -0.000283829 -0.0004939159 0.007163703 -0.009558566 -0.009013299 0.0044366024 0.008726656 -0.007794311 -0.00830633 -0.00064151944 -0.009035875 0.002129036 0.009231778 -0.006116318 -0.0067526344 0.008916425 -0.0007545061 -0.0037474982 -0.0027183287 -0.008756256 -0.00462681 -0.0041582943 0.00024824147 0.00068710104 0.007620092 0.0068292855 -0.0015144781 -0.009980456 0.0025983746 -0.0061181244 0.009112887 0.0038032294 -0.0009997751 0.0066090086 -0.003491238 -0.0036935494 -0.0003310033 0.008422042 0.0059373286 0.0015618681 0.0037747284 -0.002981925 0.009263366 -0.007124103 -0.003240911 -0.0052897325 0.008715749 -0.003126992 -0.0023872824 0.007139451 -0.009706891 -0.0029010854 0.002890991 -0.006271474 0.008763633 0.0011647856 -0.0052270796 0.0049332934 0.007985097 0.00093569915 0.006811309 -0.0068257754 -0.0036241938 0.009940983 0.0056795552 0.0016016491 -0.0034894485 0.004422576 0.0025257266 0.008358017 -1.3177666e-06
struggle 0.008593448 -0.005859387 -0.0076057976 -0.0014109167 0.0029828371 -0.0019976168 0.005899973 -0.008395936 -0.009011341 0.0075695408 0.006343267 -0.0041005886 -0.0040220823 -0.0035532722 -3.9238377e-05 0.009063262 0.0009457445 -0.0020606788 -0.0034188044 -0.0020964216 -0.009193875 0.0068299402 -0.009030227 -0.003099891 -0.0071253944 0.009052153 0.0057961685 -0.0004959642 0.0039109266 -0.0024376418 0.009818817 -0.0036340896 0.0048631416 -0.0038030825 0.009540834 0.009505909 0.006235782 -0.00025177287 -0.0016843722 -0.008666923 0.009336446 -0.008444255 -0.0065525114 0.005575487 -0.0022727414 0.007973476 -0.007880715 0.009200599 0.0022574 -0.00855773 0.003947111 -0.0049603316 0.0063911728 0.006587287 -0.0087616 0.0064708698 0.005262953 0.006483284 -0.0070578842 -0.006552986 -0.00885623 0.00527294 -0.0040211584 0.004797155 0.004797519 0.008088717 0.0022488998 -0.0010720128 0.0014505634 0.0029798176 -0.008777743 -0.005966096 -0.00093771087 0.004884116 -0.00014695473 -0.00966867 -0.00063416245 0.0071509453 0.006323254 0.0034637882 -0.0045956206 -0.0037142432 -0.0020912269 -0.005984118 -0.00860863 -0.000557478 0.0018070493 0.004828931 0.00359685 0.008556499 -0.006754198 0.009289785 -0.003330676 0.00081089186 -0.0042417864 -0.0040446455 -0.0014838119 -0.0075145634 0.008971167 0.004547419
reflects -0.0022656794 0.0019217115 0.007817132 -0.0056159995 0.0038262766 0.0006886217 0.0029144047 -0.0021221638 -0.009884236 0.0058675716 -0.001425095 -0.00833351 0.0007177596 -0.006166356 0.0076811095 -0.006408775 -0.0016490102 -0.0004056307 -0.0042861328 -0.003432274 0.0073483633 0.0018625449 -0.009374693 -0.00028898902 -0.009531709 -0.003165457 0.0049479487 0.0036998137 -0.0057500503 0.0014504059 0.0058166967 -0.0075021577 -0.003373366 -0.002471719 -0.008905055 0.002113869 0.0065099234 0.0024476566 0.0023806256 -0.0008133932 -0.0008057301 -0.006274949 -0.00049766584 0.0065937224 0.0029770047 0.00054876215 0.0078243725 0.0027925225 -0.0074252374 0.007313815 0.009548756 -0.009085626 0.007229222 -0.0075948993 -0.00035823605 0.00461815 -0.0057455557 -0.007953622 -0.0072987676 -0.009883704 -0.006666958 0.009559457 0.0029321264 -0.009060106 0.008502354 0.007214738 0.00786662 0.009611998 -0.008683435 -0.0021939436 0.0020952555 0.0024243619 0.004844924 -0.0077377246 0.0048326706 0.009927333 -0.008971686 0.007898846 0.0031992274 -0.004158996 -0.001536932 -0.008505757 -0.0074998583 0.005526361 -0.0031385904 0.009994203 -0.008006608 -0.007042273 0.006157061 0.007881198 0.0036987124 0.007239935 0.006500025 -0.0057767313 0.0087178135 -0.0063301246 -0.0028746848 -0.005987533 0.006093661 -0.004388784
belief 0.003075769 -0.0015842557 -0.0011963272 -0.0058477926 -0.0057677007 -0.0035825658 0.00031732558 0.0014689422 -0.0033027958 0.0019397069 -0.005669532 0.009986289 -0.0008201671 -0.0069489717 -0.0018582535 0.007936342 -0.001100502 -0.0051538683 -0.008046086 -0.0058696987 -0.0031964493 0.007720239 -0.0072237346 0.0014400983 -7.6265336e-05 0.0039387345 -0.0079444675 0.007950477 -0.0027889276 0.0052995994 -0.0095066335 0.0050889254 -0.008248977 -0.0032517791 -0.0011872792 -0.003642206 -0.00073236943 2.3472308e-05 0.0045096828 -0.0022412944 -0.0040084813 -0.006172981 0.008324328 0.0046128607 0.009101684 0.0054835365 -0.0046111774 0.008278715 -0.0069585918 0.003044355 -0.0033556437 0.00026778935 0.0037600899 -0.0028218054 -0.004420328 -0.0019492912 0.00052037 0.006455059 -0.005855217 0.0046665263 -0.0037091111 -0.007946053 -0.005604844 0.0018558884 0.00878845 0.007873711 0.009176957 0.006889963 -0.0029662393 -0.0024210883 0.00881573 0.006481156 0.006012387 0.006879928 0.0016215014 0.0023945929 -0.008207314 0.00753669 0.0094442675 -0.0070817186 0.0011635136 0.008741148 0.0036550332 0.0069505833 0.0076295948 -0.0019184542 0.00886342 0.005986605 -0.0018971396 6.146431e-05 0.009707735 0.0058213235 -0.006685798 -0.0034905458 -0.0034888983 0.0031212235 0.0011050344 -0.008603022 0.0021710205 0.009618771
superior 0.0023556675 0.0042834114 0.0019629656 0.008117305 0.008883302 0.0031532075 -0.0024312395 0.003609209 -0.0077144783 0.008012992 -0.004008885 0.009917935 -0.009587461 -0.0025614374 0.008889505 -0.0040789046 -0.001960843 0.0050339373 0.009284013 -0.00036752422 -0.006797488 0.009990617 -0.009520508 0.001243413 0.005564071 -0.00783733 -0.005629393 -0.009123092 -7.262665e-05 0.004996629 -0.008220231 -0.00308296 0.008397953 -0.0044591147 0.0031775837 0.0035154433 -0.003576512 -0.005172531 0.008326556 -0.002518118 0.008969102 -0.0024185006 0.003051031 0.005594614 0.00056215643 0.0043999376 -0.0059638172 0.008412281 -0.0016444973 -0.0044154637 0.00510528 0.009919905 -0.0056602247 0.00084048545 0.0043362873 -0.0027489658 0.00064112537 0.0088242665 0.0077224895 -0.006450612 -0.0032057255 0.009221684 -0.0003194057 -0.009562322 -0.00071604433 -0.0068036932 0.0009285855 0.0008185327 -0.0044053253 -0.0045860494 0.008792526 0.0045849094 0.0025801312 0.0018419176 0.008237369 -0.0049996446 0.0061049005 -0.0009899815 -0.0076606018 -0.009700177 -0.0016804138 0.008123466 0.0022007767 -0.008975009 0.0012183505 -0.0036254793 -0.0040566972 0.008128265 0.005825468 0.00035220612 0.0024488482 0.0008951933 -0.0099221775 0.0029922675 0.00718425 0.0039856113 0.0024717494 -0.003552003 0.0023362872 -0.00763517
tabloid 0.004218994 0.0023917172 -0.00040332635 -0.0006040242 0.0026566067 0.0021968482 0.0015019581 0.009153908 0.0035210429 0.0013707676 -0.0029329434 -0.0060820812 -0.009322159 -0.0032555216 0.004368478 0.0075619183 0.0006432251 -0.0047814045 0.003606123 -0.0039105252 -0.0007583628 0.00887799 0.00817769 -0.0004304837 -0.005906352 0.0036876032 0.009793235 0.008672923 -0.0019108118 0.007141776 0.00928766 -0.009562531 0.008896599 1.0507797e-05 -0.005197125 0.0036975679 0.008964017 -0.007244043 0.0068731643 -0.0064364965 -0.0077738385 0.0054943766 -0.0045719403 0.004757705 0.007370825 0.009657994 0.005690971 -0.008870025 0.0032334223 -0.008981782 -0.0003599343 0.009770554 -0.005113618 0.0041003926 -0.00573943 -0.008030547 0.008013157 0.0032574714 0.007369432 0.0029545212 0.0011604198 0.0037289886 -0.008413299 0.006600267 -0.0044883653 0.004616735 -0.005454057 0.0010474791 0.004000575 -0.0024801954 -0.007539671 -0.006024651 -0.009923515 0.009673144 -0.0043604206 -0.001069647 -0.009028631 -0.004563233 -0.0049010864 0.0030095726 0.0056487084 0.0035174955 0.009828073 0.0019205125 0.009871543 0.007577032 0.0027910094 0.0021413923 -0.0075034034 -0.002360255 0.005665273 -0.008137964 0.0022642207 -0.00759245 0.009665075 -0.00011359433 0.00093087053 -0.004782174 0.0061343648 -0.007134491
libertarians -0.0074091847 0.006612804 -0.0033680615 -0.0009132819 0.005361391 0.004558798 0.0062105823 0.0070473896 0.005616954 -0.00893506 0.0051412717 0.009111485 -0.0040138634 0.0010893529 -0.0032762717 -0.0034068264 0.00868902 -0.0002895316 0.003412682 -0.0055471747 0.0057802675 -0.0033532598 -0.0049692034 0.0021847214 0.00972531 -0.0061299764 0.0035690553 -0.0010052256 -0.0071973493 -0.004320237 -0.008223385 0.0055970335 -0.0027373787 -0.0052089626 0.0009940923 0.0045956466 0.009504846 -0.009728057 -0.00028059678 -0.0012288953 -0.0026928494 -0.00052966067 0.008127367 -0.0018747087 0.009340643 0.00036595875 -0.0010731618 0.006907481 0.006948117 0.00045932623 -0.00030560867 0.006329081 -0.0038375123 0.004599542 -7.157832e-05 -0.0060769864 0.006449117 -0.0040285955 0.0022158818 -0.006833932 0.002680438 0.005583049 0.005115026 -0.008071669 -0.0059100254 0.007132829 0.003128163 0.0011042604 -0.006193238 -0.0013760489 -0.009227693 0.001263419 -0.0045561832 0.0007523128 0.0044960766 0.0023821087 -0.007115005 0.0008506692 -0.006721411 -0.0038882038 0.0019052007 0.007984391 -0.0065078516 0.0023437617 0.0081369765 0.009910219 0.0061696214 -0.007385068 0.003870157 0.0088332975 0.0041631414 0.0025338256 -0.0015829841 0.003578378 0.0041667824 0.008829834 -0.0038090607 -0.008750861 0.0065022507 -0.0062162513
conservatives -0.0006013801 0.0014042042 -0.001174228 -0.004046572 0.0008754368 -0.009703195 0.0014144354 -0.0041321116 -0.0058018644 0.0037750711 0.0014537447 0.0036152382 0.0008930231 -0.009505158 0.009982361 -0.0035480459 -0.002197395 0.0071188426 8.3625826e-05 0.0030275162 0.0022687837 0.0023797483 0.006765223 0.00945953 -0.0005516616 -0.003426174 0.004550896 -0.0083562005 0.008452873 0.0024053326 0.006012319 0.0028099676 -0.0013120724 0.0009366003 -0.0048042415 0.009110151 0.0050438903 0.0036069097 -0.005017739 -0.008657324 0.007939235 0.0029457412 -0.004249446 -0.008677666 -0.0039518066 0.0013907187 -0.009208245 5.710063e-05 0.0028111371 -0.009934716 -0.00014477428 -0.0060961875 -0.0035952153 -0.0016178461 -0.009972459 -0.0036046572 -0.007012338 -0.007328778 0.0015846004 0.002361907 0.009285972 0.008875833 -0.0063978033 -0.009205615 0.007875983 0.0054273466 0.0069536474 -0.0029270302 -0.0052548703 -0.0045544906 -0.0083423685 0.0058952197 -0.003429817 0.008621976 -0.005649618 0.009622225 -0.0045009423 0.008671013 -0.005425084 -0.0075118863 0.007667728 -0.009749501 -0.008796313 0.004971683 -0.009774383 0.005289979 0.0036709113 -0.007012962 0.0031700714 0.0014617494 0.00867113 0.002915649 -0.005105171 -0.0023591146 0.006881384 -0.006608225 0.00931309 -0.0032095623 -0.00463511 -0.004370157
initial 0.003078111 -0.009853152 0.0032346454 -0.004475348 0.009680962 -0.0050568935 -0.008000645 0.003536229 0.008957083 0.0027265062 -0.0022704378 0.0034959565 -0.008928174 -0.004127506 -0.004390403 0.0018743817 -0.006320875 -0.0076010036 -0.006539451 0.00526951 0.0027455685 0.008807963 0.0023279043 0.005296515 0.004345719 0.004618653 -0.0049695903 0.0014415063 0.00030111655 0.0052346024 -0.0066071455 -0.0007185807 0.0040287473 -0.0048585227 -0.008523722 0.005588575 -0.0008498589 0.00032579576 -0.006078724 0.008502831 0.00090792053 0.0017390364 -0.0003992086 0.00068505004 0.0057999217 -0.009237045 0.0023354918 -0.005574301 0.009470494 0.004366904 -0.005516022 -0.0012320636 -0.0055375067 0.008522267 0.009084987 0.0023158828 0.009646635 -0.0047221696 0.002811856 -0.005071734 -0.008770139 -0.004158882 -0.0013636639 -0.005657261 -0.00455552 0.0006414697 -0.00011496808 -0.008296102 0.006896094 0.0015860307 -0.009507971 -0.0013948403 -0.007581978 0.0075633563 -0.0010173843 0.007818285 0.0050396314 -0.0040624007 -0.009088992 -0.006201552 0.008872626 -0.0015412897 -0.00032166962 0.00013247195 -0.008266065 0.0042130607 -0.008192073 0.00942908 -0.008105889 0.0078964075 -0.0019704287 -0.0020514387 -0.0022736522 0.00098226 0.0024743453 0.0016315941 -0.00056711934 0.007582236 -0.0064229467 -0.007869902
mouth -0.007190221 0.006319441 -0.0019761957 -0.0047469176 0.0049607577 -0.007869951 0.0029225869 0.009623807 0.0069201947 -0.0030729417 0.0024099164 0.0049368516 0.009606145 -0.0027151513 0.0013311062 -0.004198225 -0.0031774384 0.00086794037 0.0021992223 -0.0053517357 0.0042402893 -0.0051180525 -0.0045890273 -0.008997754 0.0076498482 0.0042974083 -0.0021898877 0.008421596 0.0019618683 -0.009910432 -0.0077527803 -0.004237043 -0.007286808 0.0073983744 0.0050541265 0.0020294746 -0.0006419642 -0.00743237 0.006125587 -0.005191433 -0.0026783464 -0.005847842 -0.0021784618 -0.009327344 0.003281036 -0.0074359807 0.0067503843 -0.0074611953 -0.005874406 7.480075e-05 -0.007952839 0.005350138 -0.0042302767 0.00038628356 0.007813168 0.0031359498 -0.00018309201 0.0076700994 -0.00015218696 0.005620264 0.0059907823 -0.007999234 0.001928536 -0.009460409 -0.0013988347 0.008602147 -0.0024634968 -0.0047790045 0.0027681072 0.0072776508 0.0065775653 -0.00649722 0.007038775 0.0075783036 -0.0053452468 -0.0011915641 -0.0005973158 -0.0094202375 -0.0023946022 0.009783781 -0.0026108634 -0.007656909 -0.0042841956 -0.009516462 0.0019883965 0.006014015 0.000751631 -0.0034644087 0.009487704 -0.009370189 -0.0045533204 -0.009748482 0.009601283 -0.0018536292 -0.0053263376 -0.007891403 0.008214574 -0.002964093 -0.005803847 0.003736319
