79 100
female -0.0005374217 0.00023679064 0.0051023704 0.009011586 -0.009300169 -0.0071252165 0.006459608 0.008980722 -0.0050187795 -0.0037659875 0.0073809777 -0.0015393193 -0.004539308 0.0065603317 -0.0048527108 -0.001810395 0.0028746922 0.0009891165 -0.008285061 -0.0094597675 0.0073120967 0.0050789714 0.0067567755 0.000764056 0.0063488544 -0.0034021481 -0.000953135 0.0057644015 -0.0075225905 -0.0039323457 -0.0075039673 -0.0009331197 0.009550457 -0.007328064 -0.002338047 -0.0019292239 0.008075769 -0.00592957 4.3981287e-05 -0.004762025 -0.009597527 0.005003762 -0.008760129 -0.0043863645 -2.71986e-05 -0.00029587018 -0.0076640514 0.009613211 0.0049837064 0.009231802 -0.008158185 0.0044940766 -0.0041385586 0.0008262488 0.00850486 -0.0044604754 0.0045175743 -0.006790422 -0.003544981 0.009399214 -0.0015762561 0.0003204878 -0.00413565 -0.007679821 -0.0015084615 0.0024721338 -0.0008845731 0.005539786 -0.002752504 0.002266501 0.0054546515 0.00834445 -0.0014448077 -0.009206141 0.0043805493 0.0005734023 0.0074371253 -0.0008108705 -0.002643633 -0.008763201 -0.0008573471 0.002823401 0.005393598 0.007057343 -0.005705694 0.0018617498 0.006091714 -0.004795443 -0.0031030418 0.006799407 0.0016381183 0.00019486138 0.0034737464 0.00022182378 0.00962517 0.0050625247 -0.008920409 -0.0070387805 0.0009059965 0.0063928855
concussion -0.008626158 0.0036752631 0.005191035 0.0057378756 0.007472227 -0.0061719553 0.001102336 0.006043189 -0.002846173 -0.006176481 -0.0004143998 -0.008372191 -0.0056108786 0.007103994 0.0033634899 0.0072319508 0.006796447 0.0075340983 -0.0037908151 -0.00057055446 0.002350976 -0.004502507 0.008391075 -0.00985022 0.006759958 0.0029212565 -0.004940256 0.0043890285 -0.0017477303 0.006716739 0.009971643 -0.0043670773 -0.00058528216 -0.0057075685 0.003854997 0.002791408 0.0068820026 0.006109018 0.009540563 0.009264992 0.007898523 -0.0069926493 -0.009158224 -0.00034725992 -0.0030904114 0.007897167 0.005940991 -0.0015463594 0.0015208487 0.0017820128 0.007824224 -0.009511215 -0.000207827 0.0034703596 -0.00093413977 0.008383908 0.00900557 0.006529731 -0.0007127578 0.0077069714 -0.008533799 0.0032130894 -0.0046393555 -0.005082235 0.0035958549 0.005373411 0.0077819168 -0.005762372 0.0074232975 0.0066335127 -0.003712783 -0.008744415 0.0054468615 0.0065097813 -0.00077516126 -0.006696655 -0.0070898547 -0.0024952907 0.005139957 -0.0036864944 -0.009375972 0.003821952 0.0048786844 -0.006419293 0.0012040624 -0.0020701871 2.9792353e-05 -0.009874102 0.0026945488 -0.0047501437 0.0011008831 -0.0015678058 0.0022031292 -0.007875812 -0.0027150088 0.0026625723 0.005349866 -0.0023880806 -0.009507917 0.004504664
athletes 8.81216e-05 0.003094959 -0.00682223 -0.0013868681 0.0076702726 0.0073332833 -0.00368438 0.00263506 -0.008321905 0.0061952462 -0.0046321587 -0.003172709 0.009297555 0.00087049836 0.007495745 -0.0060644206 0.0051745954 0.009919492 -0.0084558185 -0.005140691 -0.0070605753 -0.004845849 -0.0037741002 -0.0085301325 0.00795361 -0.0048259296 0.008404052 0.005250135 -0.006542499 0.0039621266 0.00547566 -0.0074320016 -0.0073907906 -0.0024814976 -0.008625399 -0.0015733602 -0.00041035275 0.0033097554 0.0014435881 -0.00088909396 -0.005592914 0.0017324009 -0.0008942448 0.0067991824 0.0039749965 0.0045305984 0.0014371191 -0.0027034793 -0.0043586376 -0.0010381618 0.0014409451 -0.00264358 -0.0070744846 -0.00778841 -0.009120438 -0.00593507 -0.0018471557 -0.004331969 -0.006459283 -0.0037197946 0.004292783 -0.0037335646 0.008378513 0.001553452 -0.0072259707 0.009438352 0.0076414794 0.005485471 -0.0068526687 0.00582594 0.004006561 0.0051842853 0.0042600944 0.0019370269 -0.0031622483 0.008367552 0.009607638 0.0037977465 -0.0028354237 -8.8311235e-06 0.0012131163 -0.0084663555 -0.0082215965 -0.0002268859 0.0012396688 -0.0057352693 -0.0047175735 -0.0073373592 0.008328516 0.00012424661 -0.004498871 0.0057143643 0.009180393 -0.0040954514 0.007969652 0.005365169 0.0058750645 0.00051789277 0.008213097 -0.007010657
data -0.008249595 0.0093119 -0.00020635985 -0.0019679342 0.0046077617 -0.004104798 0.0027311938 0.0069399546 0.006056932 -0.00751091 0.009383631 0.0046603284 0.003949027 -0.006247737 0.008469319 -0.0021454012 0.008830729 -0.0053706104 -0.008121004 0.006806945 0.00167489 -0.0021764736 0.009512356 0.009509083 -0.0097812675 0.002513148 0.006135033 0.0038595456 0.0020195653 0.00043317562 0.00068706827 -0.0038311847 -0.0071200845 -0.0021044447 0.0039183567 0.008835811 0.009257336 -0.0059754443 -0.009406464 0.009751246 0.003438793 0.0051592235 0.006284151 -0.002791691 0.007331576 0.0028358104 0.0028607354 -0.0023882196 -0.0031180684 -0.0023672176 0.0042767846 7.154021e-05 -0.009589108 -0.009649811 -0.006137478 -0.00012861344 0.0019993852 0.009423495 0.005581631 -0.0042909607 0.00027808754 0.004981134 0.0076976367 -0.0011386839 0.0043414743 -0.0058088307 -0.0007909976 0.008104615 -0.0023696264 -0.0096599255 0.0057722237 -0.0039292653 -0.0012158263 0.009976915 -0.0022361465 -0.0047448073 -0.0053428817 0.0069901794 -0.005707367 0.0020853549 -0.005265116 0.006112942 0.0043412545 0.0026210505 -0.0014996495 -0.0027345917 0.008997702 0.0052239103 -0.0021547058 -0.009462159 -0.0074136867 -0.0010502209 -0.0008020881 -0.0025524597 0.009685853 -0.00046500913 0.005872407 -0.007440048 -0.002505838 -0.0055453284
players -0.0071497587 0.0012530452 -0.0071927225 -0.0022532523 0.003723568 0.0058083283 0.0011902634 0.0021183265 -0.004115866 0.007207169 -0.0063035004 0.004637598 -0.0082404995 0.0020372288 -0.0049657337 -0.004229187 -0.0031014099 0.0056536687 0.0058030793 -0.005006446 0.0007681347 -0.00848199 0.007816753 0.009261786 -0.0027463478 0.0008103091 0.0007254689 0.0054683527 -0.00860696 0.0005902731 0.006888802 0.0022238859 0.0011494122 -0.009344476 0.008479842 -0.0062496583 -0.002996006 0.003492664 -0.00077517034 0.001400115 0.0017952985 -0.006838583 -0.009725487 0.009048564 0.006220226 -0.0069114463 0.003398269 0.00019726205 0.0047594304 -0.007119441 0.004025196 0.004341985 0.009948059 -0.00445639 -0.0013790891 -0.0073160226 -0.009695464 -0.00908579 -0.0010241624 -0.0064926073 0.004859026 -0.0061580124 0.0025366936 0.0007549854 -0.0033810893 -0.0009691424 0.010000161 0.009153964 -0.00447402 0.009093166 -0.0056454064 0.005924247 -0.0030810586 0.0034327745 0.0030408194 0.0069112126 -0.0023902939 0.008782237 0.0075866617 -0.009576058 -0.008011252 -0.007644079 0.0029057318 -0.0027758766 -0.006929489 -0.008121706 0.008324952 0.00200603 -0.009316227 -0.0047917273 0.0031453057 -0.0046991636 0.0052832495 -0.004225221 0.0026542775 -0.008049455 0.00621485 0.004817886 0.00079208036 0.003018509
says -0.008738063 0.0021278206 -0.0008715553 -0.009325261 -0.009415923 -0.0014202442 0.004427878 0.0037143622 -0.0065019415 -0.0068753725 -0.0050038127 -0.002293889 -0.0072528366 -0.00960755 -0.0027308615 -0.00836283 -0.0060401014 -0.005670462 -0.0023409524 -0.0017243264 -0.008956493 -0.0007260144 0.008148478 0.0076904 -0.007199934 -0.003665917 0.003109174 -0.0095663145 0.001473572 0.0065264334 0.005752198 -0.00876457 -0.004509073 -0.008148633 3.883794e-05 0.009266955 0.0059741754 0.005065871 0.0050632055 -0.0032468955 0.00955662 -0.0073635518 -0.007269124 -0.0022598496 -0.0007704046 -0.003222156 -0.0005930899 0.0074914033 -0.0007010813 -0.0016262861 0.0027530266 -0.008359376 0.00785487 0.008539855 -0.009582327 0.0024445388 0.009905957 -0.0076694116 -0.006962046 -0.0077342754 0.008394223 -0.00067575637 0.009156157 -0.00815842 0.0037412245 0.0026414902 0.0007568196 0.002335949 -0.0074797003 -0.0093545895 0.0023582443 0.00615163 0.007994893 0.005739689 -0.0007670862 0.008311293 -0.009339658 0.0034098583 0.0002593953 0.003846155 0.007384745 -0.0067300396 0.0055766026 -0.009508842 -0.00080572715 -0.0086760055 -0.0050981385 0.009293865 -0.0018492754 0.002921029 0.009082685 0.008947292 -0.008204166 -0.0030124492 0.009903472 0.005108529 -0.0015842036 -0.00869493 0.0029681434 -0.0066792825
schools 0.0081276605 -0.0044468003 -0.0010697244 0.0010022727 -0.00018017102 0.0011428437 0.0061146715 -2.167618e-05 -0.0032552104 -0.001513282 0.005895681 0.0015072932 -0.0007368946 0.009338161 -0.0049089976 -0.0008321778 0.009172739 0.006752853 0.0014973388 -0.008890162 0.0011496135 -0.0022646808 0.009370284 0.001212945 0.0014827083 0.0024085825 -0.0018432809 -0.005014566 0.00022312658 -0.0020132663 0.0066098524 0.008934539 -0.0006541093 0.002965825 -0.006106939 0.0017085116 -0.0069337753 -0.00868363 -0.005897185 -0.008970739 0.0072775115 -0.005770742 0.008276215 -0.00723661 0.0034352331 0.009681838 -0.0077806073 -0.009946697 -0.004316583 -0.002690149 -0.00026625246 -0.00883016 -0.008615802 0.0028025433 -0.008199013 -0.009070786 -0.0023478752 -0.00864009 -0.0070553445 -0.008408525 -0.0003004158 -0.004557284 0.006621369 0.0015340766 -0.0033370105 0.0061094696 -0.0060062227 -0.0046549835 -0.007227144 -0.004323572 -0.0018106996 0.006489595 -0.0027537127 0.004922569 0.0069178226 -0.007455762 0.004562636 0.006127616 -0.0029646528 0.0065968754 0.0061207535 -0.006446472 -0.006776541 0.002548608 -0.0016292372 -0.0060601356 0.009503247 -0.0051221717 -0.0065539726 -0.000114833616 -0.0026904452 0.00045146543 -0.0035292492 -0.0004131606 -0.00070323894 0.0008271418 0.0081941625 -0.005731729 -0.0016505312 0.0055643166
michigan 0.008162512 -0.0044400664 0.008973073 0.008259778 -0.0044206823 0.0002709238 0.0042761965 -0.0038954755 -0.005569627 -0.006528576 -0.0006605594 -0.00031969632 0.0044657616 -0.002458776 -0.00014084601 0.0024793842 0.0048685293 -4.166468e-05 -0.0063317637 -0.009298336 2.6475878e-05 0.006691186 0.0014578173 -0.008981374 -0.00793997 0.0065520303 -0.0038139778 0.0062423614 -0.006682857 0.008470576 -0.0064935093 0.0032860138 -0.0010167324 -0.006809534 -0.0032998573 -0.0011379534 -0.0054711294 -0.0012091019 -0.0075659263 0.0026119961 0.009077383 -0.0023825131 -0.00096847874 0.0035191614 0.0086934995 -0.0059153936 -0.0068984996 -0.0029309022 0.00914894 0.0008601224 -0.008677942 -0.0014358438 0.009475168 -0.0075401417 -0.0053367517 0.009314805 -0.008968733 0.0038162456 0.0006742155 0.0066735605 0.008317747 -0.0028476787 -0.003982071 0.008914987 0.0020792638 0.0062662684 -0.009446567 0.009604791 -0.0013850194 -0.006027599 0.0029963467 -0.00046875371 0.0047450145 -0.0022650333 -0.004111381 0.002266675 0.008347973 -0.0049917167 0.0026529136 -0.0080258865 -0.006777619 -0.0004743232 -0.008798039 0.0028133402 0.0016017257 -0.00230076 0.005017981 0.009761296 0.008479654 -0.0018706336 0.00208322 -0.003997305 -0.0082409 0.006301166 -0.0019324081 -0.0006550174 -0.0017899609 -0.0045266426 0.0040826425 -0.0042773974
injuries -0.00958903 0.008961167 0.004166968 0.009217784 0.006665603 0.0028939685 0.009793483 -0.0044047832 -0.006810484 0.0042129196 0.003733182 -0.005682734 0.0096924845 -0.0035564378 0.009561591 0.00084429444 -0.006332419 -0.0019755526 -0.007376435 -0.003018239 0.0010404083 0.009520643 0.009338188 -0.0065892986 0.0034722884 0.0022947793 -0.002513527 -0.00923222 0.0010261158 -0.008148816 0.006327904 -0.0058112317 0.005559393 0.009806252 -0.00017854801 0.004558048 -0.0018079097 0.007357789 0.003944915 -0.009034778 -0.0023805199 0.0036200427 -9.405768e-05 -0.0011831407 -0.0010274901 -0.0016709154 0.00059808866 0.0041636894 -0.004248821 -0.0038487941 -3.6491732e-05 0.00027230714 -0.00017046103 -0.004772726 0.0043146075 -0.0021703225 0.0021059464 0.00065341656 0.0059810067 -0.006844735 -0.0068073366 -0.0044755205 0.009454713 -0.0015828687 -0.009418486 -0.0005234931 -0.0044178516 0.0060108365 -0.0096169505 0.002875215 -0.009260819 0.0012618836 0.006021735 0.0074009565 -0.00759145 -0.0060230107 -0.006853189 -0.007908261 -0.009514975 -0.0021687883 -0.00084458047 -0.0072615934 0.006761234 0.0011407973 0.005826652 0.0014918732 0.0007994463 -0.0073582493 -0.002160714 0.0043426217 -0.0050523872 0.0011573788 0.002887222 -0.0015279711 0.009966655 0.008343006 0.002413711 0.007121908 0.0059069777 -0.005580143
head -0.005164346 -0.006657643 -0.0077847242 0.0083116265 -0.00197285 -0.0068809576 -0.004160033 0.005165323 -0.0028685294 -0.0037743587 0.0016256343 -0.00279445 -0.0015913101 0.0010834826 -0.0029651574 0.008539646 0.0039188615 -0.009965206 0.0062601953 -0.006784463 0.00076671573 0.0044276863 -0.0051036268 -0.0021179034 0.008096111 -0.0042289053 -0.007665196 0.0092454245 -0.00215212 -0.0047130543 0.008582853 0.0042765257 0.004358467 0.009266098 -0.008465483 0.005283003 0.002038426 0.004189874 0.0016937711 0.004445146 0.004499764 0.00610694 -0.0032019338 -0.004568051 -0.00040062473 0.0025392286 -0.0032711278 0.006052153 0.004165808 0.0077559613 0.0025705665 0.00811611 -0.001397731 0.008094925 0.003722636 -0.008050643 -0.003932781 -0.0024837214 0.0049046273 -0.0008651717 -0.0028196052 0.00783949 0.009340786 -0.0015933603 -0.005155808 -0.004687514 -0.0048354752 -0.009597164 0.0013494798 -0.0042098914 0.002525092 0.0056163166 -0.0040405276 -0.009593835 0.0015667266 -0.0066965586 0.0024908746 -0.0037794597 0.007070484 0.0006092346 0.0035576886 -0.0027488724 -0.0017276654 0.007668342 0.0014112681 -0.0058435397 -0.007821714 0.0012442512 0.0064655696 0.005560224 -0.00895682 0.008608749 0.0040481696 0.007488529 0.009765774 -0.007289346 -0.009055302 0.0058466066 0.009404516 0.0035086751
high 0.007088437 -0.0015684505 0.007943956 -0.009487719 -0.00802385 -0.006659762 -0.00399837 0.005004902 -0.0038175716 -0.008330708 0.008419477 -0.003759273 0.008605417 -0.004884744 0.003926666 0.004933698 0.0023914333 -0.0028178445 0.002848261 -0.008277682 -0.0027672215 -0.0025785563 0.0072439928 -0.0034701235 -0.0066055483 0.004341965 -0.00048615865 -0.0036005909 0.0068819216 0.0038672024 -0.0038887165 0.00077293324 0.009166884 0.007747215 0.006357089 0.004678174 0.0023871209 -0.0018430647 -0.0063738 -0.00031571 -0.001557487 -0.0005778528 -0.006259628 0.0074364515 -0.0065769297 -0.0072399387 -0.0027635745 -0.0015158238 -0.007634778 0.00069669035 -0.005326384 -0.0012715411 -0.007364128 0.0019652268 0.0032829833 -2.0627429e-05 -0.0054416945 -0.0017307742 0.0070911967 0.0037446336 -0.008875586 -0.003416437 0.0023580345 0.0021451074 -0.009470556 0.004579786 -0.008655557 -0.0073792106 0.0034647463 -0.0034579698 0.0035633368 0.008886489 -0.0035547083 0.009330085 0.001725327 0.009844366 0.005703286 -0.009147499 -0.0033351164 0.0065118684 0.005599334 0.008707305 0.006911586 0.00805453 -0.009822751 0.0043096906 -0.0050208555 0.0035168836 0.0060664373 0.004396461 0.0075227907 0.0015008405 -0.0012659951 0.00577849 -0.0056347637 4.360075e-05 0.009449907 -0.0054798606 0.0038231795 -0.008113695
study 0.009770293 0.008165114 0.0012809705 0.0050975773 0.0014081288 -0.0064551616 -0.001428051 0.0064491653 -0.0046173073 -0.0039930656 0.0049244044 0.0027130984 -0.0018479753 -0.0028769446 0.0060107303 -0.0057167388 -0.0032367038 -0.006487825 -0.0042346334 -0.008580995 -0.0044697905 -0.008511231 0.0014037776 -0.008618197 -0.009916656 -0.008201625 -0.006772666 0.006680584 0.0037845564 0.00035616636 -0.002957983 -0.007428322 0.0005334187 0.0004998922 0.00019561767 0.0008525944 0.0007863307 -6.816149e-05 -0.008007054 -0.0058702733 -0.008382912 -0.0013120436 0.0018206357 0.007417128 -0.001963427 -0.0023252917 0.009487155 7.970333e-05 -0.0024045228 0.008604846 0.0026870037 -0.0053439736 0.006588106 0.004510152 -0.007054467 -0.000323174 0.0008344865 0.0057473565 -0.0017176557 -0.00280653 0.0017484308 0.00084717036 0.0011928272 -0.0026342822 -0.0059857843 0.007322984 0.0075873756 0.008296357 -0.008598847 0.0026364254 -0.0035599638 0.009620404 0.0029037667 0.0046411133 0.002385614 0.006608477 -0.005743291 0.007894411 -0.002410922 -0.0045618867 -0.0020609903 0.009733558 -0.006856592 -0.00219172 0.0070009995 -5.5749417e-05 -0.006294968 -0.0063935257 0.008940394 0.0064295745 0.004773593 -0.0032620477 -0.009267621 0.0037868882 0.007160549 -0.0056328895 -0.0078650145 -0.0029727411 -0.0049318983 -0.0023151112
times -0.0019529834 -0.0052441456 0.0094369445 -0.009312856 0.0045110164 0.0053704507 -0.0014183169 0.009011086 0.009877735 -0.005499654 -0.0060127117 -0.006763508 -0.007919956 -0.0030463617 -0.0055790925 -0.008324763 0.0007930766 0.0029927504 0.0064142398 -0.0026574174 -0.004444587 0.0012747664 0.0004038789 0.00812035 0.00017640289 0.007261378 -0.008297496 0.008417533 -0.0018832907 0.008709235 -0.0075926213 0.0017866775 0.0010895353 2.1251499e-05 -0.0051042084 -0.009233529 -0.007268728 -0.007936296 0.0019100661 0.00046003802 -0.0018032558 0.007108725 -0.0024683196 -0.0013327409 -0.008881325 -0.009931361 0.008944922 -0.0057615717 -0.006356616 0.0051939576 0.006676556 -0.006829034 0.0009546638 -0.0059945355 0.001651555 -0.0042894324 -0.0034349205 0.0021742368 0.0086624455 0.006729314 -0.009662355 -0.0056137787 0.007902881 0.0020181786 -0.0042387345 0.00061271014 0.009543248 -0.0010976304 -0.009445006 0.0016201787 0.006223613 0.0062792436 0.004108642 -0.005647641 -0.0003454205 -3.627575e-05 0.004556979 -0.008027606 -0.008018579 0.00023073607 -0.008616939 0.005804838 -0.00042945408 0.009986837 -0.0053433743 -0.0004767711 0.0077768085 -0.004049221 -0.005014177 0.0015922938 0.002674242 -0.0025414426 0.0064497623 -0.007652545 0.003411281 0.00047535097 0.008729296 0.0059873946 0.0068138037 0.007826642
male -0.009499109 0.009560639 -0.0077750515 -0.0026426702 -0.004904598 -0.0049721114 -0.008023273 -0.0077779037 -0.0045565413 -0.001277487 -0.005104796 0.006137362 -0.009519696 -0.005301702 0.00944202 0.0069930423 0.007675927 0.0042343754 0.0005097497 -0.0059879394 0.006022029 0.0026371228 0.00770068 0.006393741 0.007944396 0.008657358 -0.009901397 -0.006755805 0.0013354393 0.0064423275 0.007381104 0.0055185137 0.0076681008 -0.0051339455 0.0065829153 -0.0041046254 -0.0090549905 0.009144456 0.0013292364 -0.002765101 -0.0024752375 -0.0042253872 0.004814361 0.004404052 -0.0026485506 -0.007339895 -0.0035711522 -0.00033812725 0.006099718 -0.00283683 -0.00012233168 0.00087790523 -0.0070973746 0.0020626793 -0.001429605 0.0028026588 0.0048409835 -0.0013528239 -0.0027808263 0.0077433167 0.005047381 0.006715079 0.0045191227 0.008670965 0.0074764006 -0.0010802561 0.008750328 0.0046077794 0.0054343957 -0.0013806231 -0.002043026 -0.00442699 -0.008510901 0.003040701 0.0088912975 0.008918504 -0.0019463588 0.0060897246 0.0037793096 -0.0043016616 0.0020421436 -0.0054403264 0.008201464 0.0054375185 0.0031812384 0.004103106 0.008663181 0.0072728028 -0.0008294578 -0.007072852 0.008386111 0.0072351648 0.0017307011 -0.0013446249 -0.0058916076 -0.0045323614 0.008647274 -0.0031341566 -0.0063365423 0.0098712435
higher 0.007695109 0.009119171 0.0011326865 -0.00831821 0.008421864 -0.003706858 0.005736328 0.0043964987 0.009685178 -0.009299122 0.009208034 -0.009281967 -0.006907702 -0.0090936115 -0.0055407765 0.0073757255 0.009169327 -0.0033246463 0.003726043 -0.0036324796 0.0078818295 0.0058695455 -7.1012363e-07 -0.003631304 -0.00721655 0.0047720307 0.0014398088 -0.002611488 0.00783995 -0.0040450017 -0.009135685 -0.0022529878 0.00013656027 -0.006645296 -0.005488356 -0.008495789 0.009226355 0.0074251457 -0.00029436464 0.0073589575 0.007951455 -0.0007876789 0.0066155414 0.003770461 0.0050800443 0.007250195 -0.0047458983 -0.002185446 0.00087648036 0.0042331633 0.003306596 0.0050984295 0.004579338 -0.008434964 -0.003182147 -0.0072330018 0.009681518 0.0050046067 0.00017417794 0.004117378 -0.0076534958 -0.0062873466 0.0030808565 0.006543847 0.0039502257 0.0060213553 -0.001981409 -0.003341049 0.00020429242 -0.003189574 -0.005515521 -0.0077895327 0.006536595 -0.0010885673 -0.0018784612 -0.0078049116 0.009335916 0.0008712601 0.0017721633 0.0024878005 -0.007384957 0.001633068 0.002975406 -0.008558112 0.004957541 0.0024370411 0.0075016515 0.005045671 -0.0030255667 -0.0071593663 0.0071047046 0.0019040569 0.005198581 0.0063846223 0.001910943 -0.0061293845 -8.46353e-06 0.008270672 -0.0060947817 0.009440859
chance -0.007204368 0.0042505586 0.0021401301 0.0074361945 -0.00487716 -0.004585719 -0.006117954 0.0033099442 -0.004509884 0.008512222 -0.004287754 -0.009112024 -0.004835899 0.006423083 -0.006346395 -0.0052385423 -0.0072760824 0.006020403 0.0033688024 0.002810058 -0.0031353303 0.006052834 -0.006148401 -0.0019785266 -0.005972754 -0.0009819228 -0.002066081 0.008475901 7.118415e-05 -0.008568393 -0.0054021366 -0.006877446 0.0027298622 0.009420488 -0.0058153863 0.008275918 0.008518938 -0.007068332 -0.008885913 0.00944697 0.008373452 -0.0046969554 -0.006720191 0.007859199 0.0037910156 0.008103798 -0.0075756866 -0.00953192 0.001590504 -0.009808208 -0.0048774797 -0.0034580673 0.009597538 0.008642128 -0.0028184422 0.005820554 0.008236435 -0.0022679132 0.009527313 0.007165668 0.0020406614 -0.0038321842 -0.0050713723 -0.003021694 0.007903673 -0.0061701904 -0.0028892527 0.009193351 0.0034383223 0.0060910503 -0.008030127 -0.0007590257 0.005546471 -0.0047081686 0.0075102984 0.009325464 -0.00041832184 -0.0020527665 -0.00059648254 -0.005826072 -0.00840513 -0.0015198295 -0.0025797018 0.0044061583 -0.0068679363 0.0054278886 -0.006718005 -0.0078026876 0.008489675 0.008920819 -0.0034526882 0.0035106577 -0.0057962514 -0.008732725 -0.0055089034 0.006740616 0.0064213197 0.009447723 0.0070599485 0.0067637623
girls 0.0012856727 -0.009784674 0.00457587 -0.00054058054 0.0063537266 0.001745083 -0.0031379245 0.0077958084 0.0015456973 2.5057434e-05 -0.0046036486 -0.008479748 -0.007794164 0.008672509 -0.008897593 0.009061351 -0.009261285 -0.0002887363 -0.0019022844 -0.008987771 0.00863226 0.0068194927 0.0030150216 0.0048304666 0.000111498804 0.009444611 0.0069726496 -0.009862698 -0.0044307057 -0.0012849943 0.003071105 -0.0043343576 0.0014945826 -0.007882058 0.0027538475 0.0047357706 0.0049429024 -0.0031766756 -0.008435236 -0.009243899 -0.0006962766 -0.007338241 -0.006802897 0.0061376053 0.0072158617 0.0021284572 -0.0079217125 -0.005707646 0.008058963 0.0039227554 -0.0052307947 -0.0073858383 0.0007522175 0.0034797352 0.0020908755 0.003084065 -0.005610153 -0.009907206 -0.007012299 0.00023490257 0.0046193185 0.0045412737 0.0019121876 0.0051902146 -9.974275e-05 0.004144313 -0.009089656 0.00771798 0.0061015133 0.0051486567 0.007198236 0.008440768 0.0007726303 -0.0016997326 0.00055897987 -0.009310623 0.008395563 -0.006362512 0.00841758 -0.004299408 0.00063027214 -0.009176559 -0.009591495 -0.007800695 -0.0077278563 0.00039348975 -0.007202059 -0.0049309703 -0.005251911 -0.0042808633 0.0070432895 0.004854661 0.008686441 0.0071156407 -0.0056636343 0.007237774 -0.009303468 -0.0025724708 -0.007741649 0.0042016734
injury 0.0017949014 0.0070526307 0.0029454331 -0.0069832755 0.0077263447 -0.0060121883 0.00899505 0.0029822746 -0.004018943 -0.0047067357 -0.0044119777 -0.0061647967 0.00937299 -0.0026435212 0.007788508 -0.009670454 0.002108097 -0.0012401053 0.0075411624 -0.009087762 0.0074363006 -0.0050843866 -0.006020195 -0.0056539974 -0.0033844227 -0.003399481 -0.003215948 -0.0074970564 0.00070865994 -0.00057403836 -0.0016758329 0.0037487114 -0.0075973715 -0.003239303 0.0051404247 0.008567634 -0.009806378 0.007190968 0.005300641 -0.0038962588 0.008590738 -0.009229086 0.0072524133 0.005377776 0.0013195657 -0.005195469 -0.004191082 -0.003361896 0.0016099409 0.0015843998 0.0073921857 0.009977991 0.008856711 -0.0040038093 0.009653016 -0.0006347357 0.004868811 0.002537373 -0.000620224 0.0036692193 -0.0053121066 -0.0057520927 -0.0075818687 0.0019156226 0.0065252143 0.00090083515 0.0012741163 0.0031867598 0.00810789 -0.007684204 0.0022576568 -0.0074732294 0.0037304424 0.0095143905 0.007538873 0.0064310594 0.008008196 0.0065576406 0.006848296 0.008652261 -0.004954452 0.009208416 0.0050344444 -0.0021124422 0.008488541 0.0050924094 0.009658573 0.0028428275 0.009881435 0.0012038087 0.009147933 0.0035989226 0.0065638507 -0.0035973703 0.0068128156 0.0072456356 -0.0021442194 -0.001854658 0.003620542 -0.0070399367
academic 0.009732872 -0.009779407 -0.0065093325 0.0027769606 0.006428075 -0.005374869 0.002749308 0.009127541 -0.006822123 -0.0061047063 -0.004986806 -0.0036796522 0.0018397386 0.009683365 0.006441035 0.0003964739 0.0024735301 0.008435386 0.009136393 0.0056221713 0.0059475764 -0.007616455 -0.003826797 -0.0056772386 0.006179286 -0.0022580002 -0.008786349 0.0076201363 0.00840039 -0.003324839 0.009118666 -0.0007433711 -0.003617751 -0.00039081761 0.00019188106 -0.003501275 0.0028136913 0.0057265917 0.0068617696 -0.008906047 -0.0021941562 -0.005486875 0.0075210286 0.006510499 -0.004353395 0.002326045 -0.005954522 0.00023433512 0.0094582895 -0.002605536 -0.0051894486 -0.0073889443 -0.0029135735 -0.00086084084 0.0035380672 0.009736836 -0.0033869534 0.0018939128 0.009679505 0.0015277357 0.0009865311 0.009804029 0.009301762 0.007711313 -0.0061726104 0.009992506 0.0058529424 0.009076055 -0.0020014474 0.003354704 0.006837356 -0.003898768 0.0066519924 0.002564685 0.00932073 -0.0030315535 -0.003114186 0.0062209787 -0.009082195 -0.007263424 -0.0065057827 -0.0007533857 -0.0023683538 0.0068207984 0.009239903 -0.00090344757 0.0014165833 0.0020249444 -0.0020110463 -0.008032626 0.007444517 -0.004294713 0.004572992 0.00909016 0.0030469932 0.0031375068 0.004054834 -0.0026998848 0.0038283009 0.00033797757
likelihood 0.005614855 0.0055068475 0.001817608 0.0057511134 -0.0089744115 0.006526016 0.009208646 -0.004197083 0.0015974768 -0.0052547795 0.0010663565 0.0027586066 0.008143399 0.0005543621 0.002580373 0.0013165422 0.008422557 -0.0057130465 -0.0062433714 -0.0036541286 -0.0022878484 0.005059152 -0.008119295 -0.0028282912 -0.0081917215 0.0051696305 -0.002611104 -0.009069031 0.004081117 0.009013912 -0.003015877 -0.005835652 0.0030531236 -0.00045382846 -0.00997909 0.008425717 -0.0073420177 -0.0049337368 -0.0026651833 -0.005466904 0.0017183337 0.009692602 0.0045927255 0.0081086 -0.00045335863 0.0006403406 -0.0026871534 -0.008787022 0.003438818 0.002087734 -0.009418257 -0.004945594 -0.009749851 -0.005710085 0.004086655 0.00864648 0.004127455 0.0023809522 0.008152105 -0.0011017184 -0.0013926412 -0.008733267 -0.00011250766 -0.0025388075 0.00039062803 0.0072996966 -0.0070269075 -0.003934013 -0.0066718874 -0.0035193334 -0.0033240735 0.0021193402 0.0033389889 -0.004952066 -0.0045077913 0.0011479724 0.0054444005 0.00539352 -0.0029658275 -0.0042989934 -0.0056313006 -0.00055742194 0.0019370347 0.0015539725 0.0073641133 -0.0027077668 -4.6314202e-05 -0.0055139097 -0.0011485283 -0.007716177 -0.0009312801 0.0013152198 -0.008598819 0.00876015 -0.009210618 -0.009639873 -0.008518409 0.0073271864 0.0054622493 0.009263041
sexes 0.0025697483 0.0008544929 -0.002543854 0.009363659 0.0027574457 0.0040889652 -0.001189475 0.00090908224 0.0066149957 -0.0007309033 0.0033435873 -0.00067378744 0.005237466 0.0036429733 0.0025872434 -0.005304249 -0.0046971985 0.00430312 -0.005899849 -0.00019217232 -0.00063118845 0.0035053464 -0.008445491 0.008819516 -0.0014456934 -0.0053242003 0.004035286 -0.0019352149 -0.007764127 -0.0044902773 -0.0003790733 -0.0089506125 0.0005835252 0.0024296555 -0.0032292665 0.0025791223 0.0024795067 0.009986931 0.0014308911 0.0020144281 0.0027870762 -0.002084363 -0.008694035 0.0080312425 -0.0019678862 -0.009687161 -0.006559747 -0.0039472776 0.003957341 0.005039258 0.006091168 -0.006766383 0.00068149716 -0.0027676476 -0.005205006 0.006975632 0.003952676 -0.003108534 -0.008276574 -0.005143886 -0.00065338355 0.007820719 0.006050051 -0.008444631 -0.009556767 0.0071401503 -0.0023185364 -0.0036891883 0.005738949 -0.005840153 0.0050919326 -0.00023795548 -0.0068700947 -0.00033678432 0.0063726604 0.009295357 0.0022151028 0.005059176 -0.0049700458 -0.00081086607 -0.005325132 0.0011836514 -0.0017977554 -0.0036239 -0.007013158 0.009655723 0.0029817414 -0.0022780953 -0.0041782283 0.0077195447 -0.0064742942 0.0031302825 0.00078374415 0.0083259 0.006839876 -0.0029161717 0.0025311983 -0.0016592268 -0.00944813 -0.0026076508
emerged 0.0013307336 0.006539603 0.00998151 0.009063221 -0.008017362 0.006486981 -0.0057202764 -0.00097443466 0.00048080785 0.006579172 0.0044691837 0.004605155 0.0094814105 0.00038442755 -0.0060341056 -0.0063284603 0.006435972 -0.0052413284 -0.0028445974 0.0040755984 -0.0022863182 -0.006025321 -0.002320001 0.0012066473 0.0021904497 0.006086943 -0.0052216677 0.0030804472 0.0072427806 0.0021987744 0.0054035443 -0.0048424434 0.006156615 -0.007605239 0.003495334 -0.009322738 -0.002607901 -0.009070095 -0.0015864217 -0.005368686 -0.0039460445 0.0011488915 0.0028047992 -0.001522951 -0.008170345 -0.00591984 0.0008161933 -0.0039455565 -0.009426245 -0.0007784548 0.0066346615 0.005981975 -0.009919032 0.0031189274 -0.0059878123 -0.0091795195 0.0001684521 -0.00036860432 -0.0069711525 -0.0062770224 -0.0024235244 0.0071026324 -0.007542691 0.007704198 -0.00047277048 0.0010936889 0.00948777 0.0047312207 -0.0035708921 0.0037382876 0.0035196636 0.0063357037 6.660087e-05 -0.0044220677 0.001325949 -0.0054112202 0.0014091734 0.0049295514 0.005156909 0.00918054 -0.007512811 -0.0054082754 0.0064716293 0.0013584199 -0.0066094873 0.0008858727 0.0026791343 -0.0025271769 -0.004958898 0.0050039464 0.00962822 -0.0073630502 -0.000114641356 -0.0025649762 -0.0063665067 -0.0013825884 -0.005249232 0.0090605235 -0.0057922266 0.0036875308
difference -0.00024774505 0.0042241686 0.0021024675 0.0099978 0.0006347856 -0.005485313 -0.0011931078 0.002085913 -0.003380167 -0.007858044 -0.0055968487 -0.0067581115 0.006348326 0.003929665 0.008230774 0.006529012 -0.006117194 0.0027090397 0.008479787 0.0015744704 0.003073701 0.005825813 -0.008839761 0.009117565 0.006827476 0.008519206 -0.008254271 0.006175322 0.006630463 -0.0013593924 -0.006278764 0.005326915 -0.0068409457 -0.005339417 0.0035071254 0.0080950605 0.008690004 -0.0044084443 -0.009196569 0.009591685 0.0062906775 -0.0039710714 -0.008455469 -0.00470687 -0.003937779 -0.0032724116 0.0008084185 -0.0002990499 -0.0031079976 -0.005999464 0.009425192 -0.004717413 -0.0072733904 0.007692513 0.0025273003 0.008624116 -0.0044637397 -0.006901144 0.0009899008 -0.0011675399 -0.00939244 -0.0015932107 0.003069058 0.00658027 0.0068466803 0.0032232907 -0.0044336254 -0.0018286736 -0.0039521684 0.005788005 -0.006358968 0.0021005839 -0.00133429 -0.0058071963 -0.0072283843 0.0058562416 -0.008362708 -0.0006816194 0.0028261896 0.0077156904 -0.0073068608 0.0032941669 0.009793451 -0.006961083 -0.0035315596 0.0051427973 0.00525021 0.0016306138 0.007984531 0.00083916134 0.0018880757 -0.0015962176 -0.008166461 0.0032669592 0.0019755315 -0.008736639 -0.00068370235 8.580442e-05 7.0342844e-07 0.008711391
striking -0.0025195202 -0.005903616 0.007478217 -0.0072590145 -0.008965127 -0.0018048076 -0.00837583 0.00039925004 0.0019416957 -0.0024752233 -0.006446467 -0.00032964922 -0.0011030438 0.0035011887 0.00814258 0.0058613922 0.008444419 -0.008975768 0.009450399 -0.0023808845 0.00870312 0.0023987917 0.0035873852 -0.009579824 -0.009488286 0.008989604 -0.002917027 0.0028181046 0.006419449 -0.00030360115 0.009734576 -0.001036038 -0.009656403 -0.0070651527 -0.0010476338 -0.0086661605 0.0074190632 0.0036170057 -0.008754422 0.008468835 0.008933474 0.0058396906 0.0069146208 -0.00955847 0.0005057008 -0.009218387 -0.0036768208 0.0002502292 -0.00028180444 0.0014615366 0.0032783584 0.0021349117 0.005317484 0.0075273025 -0.0058758366 0.007959544 0.005995359 0.009777615 0.0046276813 -0.0033238763 -0.0037423724 -0.00062215445 -0.00164966 0.009878802 0.0011212156 0.004017189 0.003424736 -0.008841129 0.0067115864 0.008202959 -0.0016656326 0.0023292648 -0.00646691 -0.006121944 0.008235959 -0.003042538 0.0067336364 0.0015623801 -0.0019880394 0.0030328848 -0.004032052 -0.0017929346 0.0013681425 0.0049051284 -0.0014057518 0.0006717694 -0.007926785 0.009503827 -0.008754373 0.007065897 0.003920988 -0.0069935033 -0.0052999808 -0.007929676 -0.005126863 0.0070707747 0.00963066 0.0021606956 0.0006408424 0.00952979
years -0.004975461 -0.0012821436 0.0032721786 -0.006412524 -0.009694401 -0.009271597 0.009013498 0.0053806826 -0.0047950353 -0.008333088 0.0012983637 0.0028708817 -0.0012517519 0.0012775199 -0.004311292 0.0047942502 0.0014785988 0.008874116 -0.009966434 -0.0052795084 -0.00909993 -0.00034070827 -0.007857427 0.00502834 -0.0063928543 -0.0059508244 0.005057698 -0.008157747 0.0014551167 -0.0072422805 0.009868987 0.008633702 0.0017783776 0.0057807015 0.004595791 -0.005985492 0.009758197 -0.009681632 0.008048885 0.0027466803 -0.0030526358 -0.0035706088 0.009075396 -0.005433369 0.008194299 -0.006002823 0.008384021 -0.0005535399 0.007940784 -0.0031572916 0.005980232 0.008812189 0.0025433209 0.0013216254 0.005047542 0.00799841 0.0085699 0.008490853 0.0070519 0.0080053825 0.008600802 -2.8667755e-05 -0.0010001257 0.0016732637 3.1989148e-06 0.00069119036 -0.008595467 -0.0095881885 -0.002321903 0.008936406 -0.003646672 -0.006983994 0.004887122 0.001075823 0.0018615389 0.0036517587 0.0035149758 0.005730521 0.0012335831 0.00083262636 0.009041673 0.0027807897 -0.004710685 0.006546228 0.0052157296 0.0028789642 -0.00312973 0.0033415586 0.006373732 0.0070826625 0.00095066096 -0.0085293995 0.00025517508 0.0003767402 0.003944953 -0.009465067 0.009702653 -0.0069689467 0.005763805 -0.009430607
twice 0.009632169 0.0073364032 0.0012565221 -0.0034086923 -0.00044305102 0.00041030013 -0.0064105946 0.0057530454 0.002366712 0.0037707856 -0.00725663 0.0085190525 0.0004944658 -0.0002039935 -0.009057344 0.004057237 0.0067597125 0.0073540714 -0.006425243 -0.007874092 -0.0055257375 -0.0005770373 -0.008333158 -0.0082332445 -0.0019214875 0.0011441411 -0.009517435 -0.0037472555 0.00063788675 0.006807287 0.0017427247 -0.000637415 -0.0074577467 -0.0067525753 -0.0006968885 0.0074817836 0.0054359618 -0.0014795887 0.0011674572 -0.0096193245 -0.0013771325 -0.004625507 0.005808111 -0.0023325817 -0.004747789 -0.00947305 -0.0012034776 -0.007201591 -0.0016749707 -0.004073774 -0.002369419 -0.0032502587 -0.00816224 -0.0012404365 0.0016950677 -0.0040504257 -0.0076369876 -0.0035992071 -0.009042986 -0.00075931946 0.005886221 -0.0029544642 0.0031677969 0.0050002867 0.008471956 0.0056250007 0.009516304 -0.009637309 -0.007985725 -0.006747068 -0.007469395 -0.007962675 -0.007769823 -0.0029344142 0.0014115637 -0.0028667988 -0.008820321 0.00498564 0.0008870798 0.0045599826 0.0071885698 0.007647218 -0.00081665895 0.0036753446 -0.005127712 0.0019175578 0.0045477566 0.009896713 -0.0031856927 0.0028438042 -0.0057217074 -0.0021983166 0.008127191 -0.0038965847 -0.0011792664 -0.009275986 -0.009473927 0.00888663 -0.005696539 0.005052694
soccer -0.006964448 -0.0024572767 -0.008022738 0.0075007305 0.0061314194 0.0052546244 0.008379826 -0.0006917248 -0.009312451 0.009113669 -0.0049271476 0.007844186 0.0055335034 -0.0010766957 -0.007663489 -0.0014558404 0.0062525617 -0.0069648684 0.0014398231 -0.0079574725 0.008718986 -0.0028487227 0.00943505 -0.005710534 -0.009718971 -0.008628658 -0.0040774774 0.004707631 -0.00024381964 0.009221455 0.0031103117 0.0037462015 0.003003699 0.008147638 -0.0024006432 0.007411546 -0.0095354505 0.0029206632 -0.00068177655 0.00044837702 0.0068459283 -0.0028397841 -0.0023572166 -0.000102123595 -0.0004927953 -0.0035736037 0.0062439763 -0.0065587894 0.007893043 -9.361719e-05 0.0026101063 0.0032239435 -0.0002807957 0.0017092046 -0.003140457 0.0047549866 0.00024298306 -0.0032829836 -0.008712627 -0.009998961 0.00031366496 -0.0057467404 -0.0011103875 -0.0042048506 -0.008640363 0.00106313 0.0059094736 -0.0022118783 -0.00717853 0.003156443 -0.00038395496 -0.0055205366 -0.0010973949 -0.00063778047 -0.003180344 -0.009957652 0.0076390523 0.0037239848 -0.0025343874 0.007302028 0.00045366178 0.0071736793 -0.0015526313 0.00749761 -4.4786764e-05 -0.0060750525 -0.004714861 0.00962924 0.0005822608 0.0010298431 0.008452442 -0.0062854625 -0.0017633906 -0.008175603 -0.00667027 -0.008577994 0.003927193 0.002740877 0.005619204 0.002571651
3 0.0021143856 0.0057308725 -0.0021248104 0.0031731897 0.008445521 0.00038098247 0.0062901136 -0.0067358785 0.006569228 0.0046878005 0.0050817183 -0.009923528 -0.00043772205 0.0032113497 -0.005817257 -0.006692965 0.006365339 -0.0068268115 -0.0051747076 0.008114449 -0.007017282 0.008547673 0.0006571649 0.004405584 -0.0030108846 -0.005427834 -0.008955432 -0.0006102272 -0.0051023485 -0.0030749363 0.008118782 -0.0076482873 -0.0063025528 -0.0052714767 -0.0066038044 -0.00883832 -0.0011083928 0.009447616 0.008034376 -0.0052787117 -0.008135102 -0.0022669358 -0.009265336 -0.0050599813 -0.0059425 0.0030281937 -0.007575647 0.0012524569 0.0022867876 0.0053146603 -0.0020198429 -0.009770096 0.005222445 -0.0059059747 0.0048922785 0.0019731135 0.008820547 0.001528716 -0.0018298415 0.006491158 -0.007071699 -0.008385149 0.0037933514 -0.0025718408 -0.004183585 -0.0019190974 -0.009870775 0.0002699936 -0.0010635745 -0.0029663143 0.0025008533 0.0046891505 0.006348672 -0.007909573 -0.0049805418 -0.008788132 -0.008953535 -0.0037229548 -0.0012742495 -0.008220597 -0.0053790407 -0.0021559936 0.0063360846 0.0015736646 0.00831617 -0.008311882 -0.0045695673 -0.0008023035 0.008807305 0.0011077754 0.0015466476 0.0012941507 0.0029199608 -0.009393144 0.0032563426 0.005468613 0.005284318 0.0044429093 -0.0080845235 -0.004059553
likely 0.00833358 -0.0005570444 -0.009451937 0.004778845 -0.0060324757 0.006661291 0.0053771297 -0.005029366 0.002558962 0.0053993394 -0.0035831681 -0.0015423864 0.0091561265 0.009075811 -0.009375268 0.0075847134 0.009887534 -0.0028481516 0.0024526701 -0.0028406333 0.008636601 -0.00024762866 0.005642547 0.009216886 0.0040965783 -0.0071177874 -0.0019444586 0.00095181575 0.0020213812 0.002950228 0.009478047 0.0043869945 0.00995328 -0.008683923 -0.005760705 0.002014631 0.003650257 -0.0009823414 -0.0069140918 -0.0032366007 -0.008515049 0.009408976 0.0037191946 -0.007872927 0.0032154801 0.004187456 -0.0056379945 -0.0059228498 0.0010528977 0.00895893 -0.009643202 -1.8233142e-06 -0.006868876 -0.00091155776 0.0030563306 -0.0050325417 -0.0027747664 0.00066184445 -0.0063640364 0.0072885393 0.0043844623 -0.0085549485 -0.0021422314 0.0031824035 -0.008321879 -0.007064794 -0.008447702 -0.0054960046 0.008819825 0.0071012853 0.0028865484 -0.008558565 0.0057857977 0.0046419767 0.00014474183 -0.0088430755 -0.0018969099 0.00019142318 -0.0077747125 0.0024244399 0.0004749954 -0.0070671635 -0.008299898 0.006062083 -0.008358384 -0.0055760294 0.005589258 -0.0004659165 -0.0030442893 -0.0051855505 -0.0011792054 0.005287861 -0.0059403824 -0.0049568634 -0.004934733 -0.004745133 -0.0079849325 -0.009749188 0.0076008015 0.007991494
around -0.004288449 -0.009323868 -0.0018860626 -0.0037108986 0.00909378 0.00292856 -0.0059827203 -0.0033491198 -0.009911298 0.0019385967 -0.0039896006 -0.002711395 0.005166221 0.007601029 0.00439344 -0.0068170265 0.0067077004 -0.009635172 -0.006981382 -0.008020199 -0.0022607278 0.0004854965 -0.0037740364 0.0018504581 0.009208097 0.0066801775 -0.0010699955 0.00909069 0.0015561563 -0.001971621 -0.0065874364 0.0064714765 -0.009057956 -0.0019105442 0.007687909 -0.0025801118 0.0016068149 -0.007349449 0.0049724025 0.007366779 -0.009306875 -0.0032864904 0.007898625 0.002947507 2.4346693e-05 0.00034352904 -0.009871034 0.009931279 -0.0019965072 -0.0048845937 0.0027445478 0.0010301667 -0.0059377826 0.0057946127 -0.0024929235 -0.00617653 0.007240142 0.0064624725 0.008821573 0.0011704549 0.0005129988 -0.007927607 0.0046578906 0.009371024 -0.0006718872 -0.001752734 -0.0038063128 -0.00048409344 -0.0076260963 0.005697056 0.0014900105 0.009284568 -0.006414755 -0.0050870613 -0.006220192 -0.0072695743 0.002746844 0.004905975 0.0013410944 0.0035275486 -0.009392844 -0.0010739865 -0.0077527473 0.0029613427 -0.0026848398 0.008890644 -0.0034236594 0.0068421694 0.004129023 0.0013654749 -2.9951734e-05 0.008178468 0.0023553139 0.008262083 0.0033349295 0.0054174573 0.005101459 -0.0076266103 -0.005783408 0.0012395667
according 0.00019043869 0.0021490238 0.0010665895 0.007583276 -0.004414395 0.00031164402 0.007009074 0.0022619823 0.004242419 0.0042929747 -0.0012609591 -0.008332843 0.0030424441 -0.00887346 -0.0026556402 -0.009384544 -0.00046341866 -0.007866009 0.00741105 -0.0049082907 0.009914873 -0.009025445 -0.0043185013 0.0019271708 -0.0029998343 0.0014493986 -0.0036834031 -0.00089666597 -0.0057246033 -0.0098239845 0.006343784 0.00038220713 0.006516036 -0.0074745105 0.0036578907 -0.009890965 0.0076158536 0.0059218016 -0.0061171567 0.008209491 -0.005571082 -0.008558994 0.0015017638 0.00318356 -0.008087409 -0.008932024 0.009167065 0.0016443798 0.0008713384 0.0024804345 -0.0035041852 0.0017359246 0.001954984 0.009807357 -0.0056050704 0.0022739705 0.0063132485 -0.0066802423 -0.008929949 0.008661294 0.0068408377 -0.004019214 0.0057536755 0.0007914482 -0.005010489 -0.0013436163 -0.004891544 0.0061404053 0.0019548521 -0.008314006 -0.00014823218 -0.0026508782 0.0066142725 -0.0011448982 0.0076706116 0.001948512 -0.003832218 0.008159203 0.002949619 -0.003978769 -0.00559784 -0.0030888678 -0.0051422925 0.003445182 -0.009276283 -0.005814528 0.0033443836 0.00020224787 0.0060032755 -0.0036044142 3.276109e-07 0.002479149 0.005462373 0.0016196449 0.009823653 0.0037180455 -0.007183153 -0.0014087352 -0.008364011 -0.005327754
survey -0.0021977485 -0.009708043 0.009280907 0.0020279575 -0.0011629899 -0.0055169575 -0.008516484 -0.009892906 0.008937912 -0.002504875 0.0045938976 -0.0045247045 0.009947174 0.0036597128 0.001033133 -0.0040423656 0.0012110858 -0.0026563096 0.007362529 0.004465101 0.0009880199 0.0034886845 0.003717479 -0.006780316 0.008927116 0.0017350131 -0.0057995156 0.00865764 -0.001292284 0.008186717 -0.0014970347 0.0069832793 0.0027390555 -0.0043722983 -0.0037508656 0.009198544 0.0015927104 -0.00600796 0.0003416802 -0.0019678094 0.0015880811 -0.0077252807 0.007383031 0.001322281 0.007885164 0.004455707 -0.004398662 0.0037504393 -0.0006399517 -0.009851567 0.008239173 0.0096536735 0.0096537685 -0.0037931756 -0.008437045 0.004824701 -0.0076550446 0.008526675 0.0027574182 0.0056057726 0.0061196066 0.00046812661 -0.002086834 0.00078148517 0.009839614 -0.007120482 -0.0015458793 -0.0023513106 0.00485838 0.006456452 -0.0041297255 0.0036167465 -0.0044698184 0.0032707688 0.008180426 0.0036318132 -0.0045845113 -0.0030015924 0.007863969 0.009591162 0.005813426 -0.0032783598 -0.0018376418 -0.006248521 -0.0042968686 0.0033798742 -0.0064805304 -0.006607082 0.008123801 0.009508493 0.008147577 0.0015161532 -0.008803972 -0.0075936117 0.0015776644 -0.009527028 -0.0074186455 0.0020247106 -0.0029156194 -0.009156867
analysed 0.006409491 -0.008948709 -0.0073507577 -0.0017536073 0.0017039096 -0.0010491615 -0.005211584 0.0065869032 0.00878178 -0.007420859 0.009808893 0.007365508 -0.0074761286 -0.0019020636 0.0042613246 0.00707153 -0.0036614346 -0.006971418 0.004729846 -0.009054403 -0.005851636 -0.0012745658 0.0054798396 -0.005687659 0.0047867256 -0.00042895743 0.002656346 0.0064054835 0.001417549 0.0077120555 -0.00031720864 -0.008267748 0.009194032 -0.0048665274 0.0047220793 -0.0038979712 -0.0073349643 -0.006514941 0.004679555 -0.000664005 0.0014704606 -0.00893752 -0.005145882 -0.006048419 0.008425535 -0.008696319 0.0050173155 -0.00086178986 0.00019030573 0.008798723 -0.0035838536 -0.006937747 0.0007595376 0.007751222 0.00912464 -0.0036819503 0.0027338096 0.004938689 -0.005289771 0.006860677 -0.0064526955 0.0021087856 0.0045952904 0.0043912875 -0.0046605184 0.0026498965 0.007327342 0.008622973 -0.009520282 0.0055813207 0.004966677 -0.0015955647 0.009192892 -0.004183634 -0.0017300416 -0.0068574063 -0.0037826994 0.00024638133 -0.0032717765 -0.00543815 0.0065642227 -0.005303833 -0.006327996 0.007656017 0.009653504 0.0040048775 3.3845823e-05 0.00079394394 -0.0009538661 0.0068612527 -0.0062472792 0.00051520293 0.004297254 -0.0021062824 0.0008974415 0.0037077738 0.009714034 0.0021756163 0.009501963 -0.0058234236
researchers 0.0047999145 -0.0036301643 -0.004276386 0.0012190025 -0.0041252356 -0.005629811 0.0031375794 0.0083421515 -0.00655694 -0.009114729 -0.003331441 0.007524845 -0.009698334 0.009602107 -0.00040828128 0.0023028466 -0.0018457703 -0.0057652285 0.0031078462 0.0061900276 -0.0070511126 -0.0011696446 0.0015653141 0.0042507667 0.007144512 -0.0035487176 0.0072676535 -0.0055720774 -0.002196048 0.0090857465 0.005388754 -0.008485791 -0.0016495144 -0.008847039 -0.0016417156 0.0056598 -0.007419915 0.0055132722 0.0060885265 -0.003777067 -0.009657508 -0.0025261624 -0.002550842 0.003766304 0.008926149 0.0019996588 -0.0021144613 0.0029694499 -0.0068047657 -0.0012927993 -0.0014851007 0.009609474 -0.0058096265 -0.0070383423 0.0023686886 0.0026279478 -0.007147406 -0.0058814976 -0.0011899093 -0.0033044324 -0.008974705 -0.004044494 -0.0029630503 0.0065065078 0.0009710208 0.0016024077 0.0002824268 -0.003377052 0.0030953528 0.0007182541 0.0059851585 -0.0007778604 -0.008896405 0.0008876973 0.009930337 -0.005247219 -0.0052210004 -0.0025099292 0.008581393 -0.0008423183 0.009418581 -0.0083423965 0.009009832 -0.009709641 0.009202213 0.0018753157 0.0026646769 -0.005854987 0.008444456 0.006044008 -0.0054836213 -0.009497182 0.006968349 -0.00553517 -0.009317946 0.0026020946 -0.0049803536 -0.0073587676 0.009733994 -0.0015901593
found -0.0015110135 -0.0040345048 -0.004398854 -0.0046293857 -0.0055957153 -0.0053018047 -0.008022304 0.009518845 0.006399064 -0.0036066938 0.0024784422 -0.0076424954 0.0075231004 0.008304734 0.00078943017 -0.006832991 -0.002957728 0.0047339676 -0.002939384 0.0031764721 0.009408715 0.004353106 -0.005145481 0.005467093 -0.0028791928 -0.0063939407 0.0070078014 -0.009253933 -0.0011306572 -0.0013853407 -0.008415947 -0.0011023998 0.0055972575 -0.0052676536 -0.007026136 0.0062002684 -0.0034264398 -0.007819558 0.0002933693 -4.9803257e-05 0.0075409054 0.00056930067 0.007882459 -0.009812782 0.0040332675 0.0062181093 0.0010294437 -0.002836411 0.0010266138 -0.00083912135 -0.00810827 -0.0067834733 0.0012001538 -0.0020178747 0.0095494175 -0.00094942807 0.0061186957 0.002046137 0.008099689 -0.009290521 0.0023927283 -0.0014512587 0.0021549987 -0.00021980047 -0.006640632 0.009050455 -0.002843399 0.0019143128 -0.006441698 0.003714218 0.009995804 -0.0011962557 0.006580217 -0.00012432098 0.0079281805 0.009650929 -0.00039128782 -0.0016983438 -0.009521616 0.009874873 -0.0025329662 0.0021891904 -0.0016988873 0.008327348 0.008343778 0.0015368843 0.002885666 0.006434064 0.0022477007 0.006444316 0.00014673948 -0.002285471 0.0053072525 -0.0034152747 -0.0026156115 0.008791728 -0.009154694 -0.003413644 -0.0029241275 0.005668929
us 0.007943057 -0.006451387 0.0057940674 -0.00021793188 -0.009032379 -0.0024427494 -0.0015847569 -0.0044813356 -0.0007942592 -0.0052383994 0.005940318 0.009304394 -0.0015886415 0.0033767468 -0.0007478292 -0.0006995289 -0.0070106857 0.0014574778 0.0039032088 0.006909867 0.0065395134 0.003536486 0.0046626893 -0.007431695 -0.0013863067 -0.0057824566 0.0068009286 0.007826974 -0.0042746062 0.0011540707 0.005110381 0.0018099679 0.0007863996 -0.0067412304 0.009833936 -0.0072605936 -0.006034668 -0.0056657298 -0.006348256 -0.0034913053 -0.009400806 0.0011776347 -0.0037506737 -0.0025507384 0.005785412 0.003549941 0.001821001 -0.0013741276 0.009878525 0.0002860714 0.005015905 0.009038471 -0.009766928 -0.009155958 0.009923185 0.002736698 -0.0018859217 0.0047237757 -0.004315815 -0.0063978992 -0.008257325 0.007210511 -0.0024491402 -0.007543074 -0.0059104795 0.0061757304 -0.0024788706 -0.0061454056 -0.0016180146 -0.0014732387 -0.0032553978 -0.0020892676 0.004105353 0.001447 -0.003489918 0.0026933083 0.0052289874 -0.009190525 -0.007558146 0.0062959865 -0.008938858 0.00052758947 -0.00899371 0.008370384 -0.0042939433 -0.0066210357 -0.0013829845 -0.0011132628 0.007532893 0.009109383 -0.00035020907 0.0026938403 0.0047377897 0.00014247833 -0.0057804594 -0.0005950861 0.0021838357 0.008302218 -0.0035927887 -0.009845392
across 0.0053743785 0.009818998 -0.0070587546 -0.00058632536 -0.0050626174 0.0064300266 0.009661252 -0.0003337856 0.005130466 0.0065317033 0.0044067106 -0.008039244 0.0030913115 -0.0014845233 -0.0021507163 0.0054062298 -0.0013189084 0.009927178 -0.0006446702 0.00025610375 -0.0022918042 -0.008493201 -0.009803094 0.0049551916 -0.0066268845 0.002968293 0.0027658571 -0.007019935 -0.0031424852 -0.0058093662 -0.008555416 3.4671764e-05 0.009805402 -0.006684524 -0.004362174 0.00834048 0.009293187 0.009828186 -0.0098935105 0.0050370228 -0.0066411463 0.0068788147 0.0061412733 -0.003372858 0.0068932977 -0.007865015 0.004552301 0.004577937 0.005934686 0.0058749877 -0.0026609406 0.0038950546 -0.0061058514 -0.006454702 0.0027472673 -0.009469863 -0.00030001884 0.0010800234 0.0080029555 -0.007006542 -0.0023205078 -0.004101631 -0.0052278615 -0.00046613772 0.0046114507 -0.004981822 -0.0016442265 0.008659729 -0.0013292677 -0.003560331 0.007429336 0.0012196372 -0.00032412424 0.009465805 0.00813681 0.003423577 0.0033533997 -0.0022812933 0.008084069 0.0050391695 -0.005428927 -0.006135376 -0.00060634053 -0.007909488 0.003363519 -0.009223078 -0.0015415979 0.0033649171 0.0030429305 0.0031625782 -0.009053256 0.0034267514 0.0053529735 0.003470826 0.007797859 0.001660989 0.0062694224 0.008840212 -0.0009344864 -0.0008063645
teenage 0.002217098 -0.0075220717 0.0056191036 -0.0050040153 -0.0032613145 -0.0018403829 0.008216185 0.0022563145 -0.0009110071 -0.0028477337 -0.0021137486 -0.0012930422 -0.005089223 -0.004125372 0.00019753551 0.0045584883 0.0017985946 0.0069027822 0.0006321462 -0.0032415704 -0.007378026 0.006020883 0.006971571 -0.0060541416 0.004680088 0.0094970595 -0.006388331 -0.0028919117 -0.009097432 0.003229275 -0.0034274496 0.0020364379 0.009455188 -0.008370402 -0.009317174 0.0017290977 -0.008035038 -0.0090668965 -0.0093567185 -0.00029960557 -0.0010954881 0.0007467702 -0.001343146 0.009042707 0.0088007515 -0.0063512167 0.008697856 -0.009031753 -0.0013292683 0.0025393702 -0.00010548245 -0.0038094586 0.00046166984 0.0010143914 -0.009405406 -0.0048912526 -0.0077075576 0.003799781 -0.00088434713 -0.0074867597 0.005637535 0.0002410008 0.0027031705 0.0054346877 -0.0042217555 0.007849782 -0.007852571 -0.0034434854 -0.007385744 0.0009796186 -0.0073873955 0.009063125 0.005554853 -0.0072233863 0.0061835498 0.006607035 -0.0074177175 0.004654733 -0.0077325986 0.009299507 0.0046845614 -0.00023275736 -0.008957402 -0.0008889917 -0.00027960356 0.0009067963 0.008668224 -0.0027703745 -0.008675355 -0.008826254 -0.0010464601 0.0013845151 8.511708e-05 -0.0021952507 0.008559652 0.00011155635 0.006420091 0.0039922274 -0.0071953926 -0.0021280001
counterparts -0.007781572 -0.006754539 -0.003161334 0.0066135805 -0.0008344183 0.008879657 -0.002292831 -0.0052973097 0.003912067 0.0022152683 -0.00027949095 -0.0024574436 -0.006003365 0.0040359716 -0.0076076477 -0.008908007 -0.00915973 0.008381988 0.004003293 0.007083915 0.009885335 -0.00722354 0.0040242192 0.0028178345 0.0061489595 -0.0033915467 0.009324594 -0.005803186 0.0070316037 0.0069433735 -0.0003866608 0.0050585256 0.006648333 0.0015404073 0.007370473 0.0024123 -0.0015193432 0.0073885187 0.004685983 -0.0031773264 0.0016473712 -0.00014018107 0.004961829 -0.0054100063 -0.0041791652 -0.0009359063 0.0038198133 -0.006582387 0.00784515 -0.0030862347 0.0057386504 0.0028658912 0.006824319 -0.0044614836 -0.0031944318 0.0030585614 -0.0027707128 0.00594327 -0.005952881 0.0025961702 -0.0007219114 -0.0006130931 0.0025399458 -0.0021833854 -0.0042537204 -0.008551045 0.0024875093 0.0053275214 -0.005874328 0.009112625 0.0040365052 -0.005179391 -0.0013051069 0.0039275936 -0.0070032766 0.002053144 0.005504614 0.0062553417 0.0054256655 0.003654564 -0.0027581714 -0.00607593 0.00815377 -0.007297401 -0.0016210221 -0.003261817 0.0064908145 -0.00627343 0.0034029111 0.0020509171 -0.004076007 -0.0082431445 -0.008040534 0.003511639 -0.009561629 0.0057082972 -0.0029145507 -0.009169136 -0.005131733 0.007743708
suffer -0.0017324529 0.006416971 -0.009281466 -0.009148085 -0.005198852 0.0009448854 -0.0071752816 -0.009446611 -0.008894834 -0.00047136153 0.0074105253 -0.008385629 -0.0053435094 0.0015207402 0.0033352673 -0.008453643 0.007865925 -0.0082153855 0.004729983 0.009404739 0.005660272 0.006192612 0.008245462 0.0034610373 -0.007145283 0.0057531972 -0.008321993 -0.005735004 0.0059011593 -0.0079262545 -0.005859672 -0.0035646022 0.003409466 0.0052075773 0.0020507835 0.005126244 -0.0026341847 0.004360943 -0.007054297 -0.0016710818 -0.0077403546 0.00016925216 0.0046998756 0.004805105 -0.0046453713 0.0017510862 0.007808077 -0.005580535 -0.00378038 -0.00060055166 -0.0047190436 0.0086908 0.0075345794 0.009225717 0.009366058 -0.008452097 -0.00047747346 -0.0076183937 -0.004811536 -0.008842215 0.0034194186 0.0001115885 -0.0069070146 0.007965257 0.0009543278 0.00029901072 -0.0035564203 -0.0033377388 -0.0026603506 0.0076332157 0.0023923982 -0.0051709036 0.004740777 0.0009978396 -0.0027188244 0.0077200127 -0.003956534 0.007438654 -0.0042258464 -0.0073812813 -0.004497248 -0.0039049431 -0.0007129769 -0.0018316314 0.0051099956 0.0054540825 -0.0017343679 0.0037422266 -0.0020301945 0.00073555106 -0.0013594647 -0.0024516648 -0.0047149453 -0.0042625316 0.00013091922 0.0016544244 -0.009445378 0.0060749333 -0.0016716484 -0.002977532
boys -0.0047958232 -0.004313411 -0.004803041 -0.009802889 -0.000775664 -0.007797229 -0.0048148716 -0.007370476 0.009932643 -0.0013578378 -0.0077552623 0.005515637 -0.008071472 -0.0019097617 0.0027375263 -0.00707719 -0.008732389 -0.006642231 0.0074699293 0.009052125 0.0039904765 0.0024085664 0.0041380255 -0.004069575 0.009757496 0.0068921433 0.00410689 0.008947406 -0.008393998 0.00093626155 0.008896305 -0.00094130903 -0.006734526 -0.0022748872 -0.002788129 -0.0024923047 -0.0018431075 0.0072810054 -0.0003010907 0.004238203 -0.0037473054 0.008229115 -0.006502341 -0.009335095 -0.004133747 -0.0073643466 -0.004882163 0.0004944261 0.0023878221 0.0017380932 0.0050091343 -0.0013962188 0.0022810127 0.00035436204 0.007845774 0.008028112 -0.001972775 0.0012559419 -0.006030568 -0.004758959 -0.006969419 -1.1021997e-06 -0.0049112346 -0.0040433086 0.0015094499 0.0026125791 -0.0091157295 0.0017510426 0.0051252474 0.0041629584 -0.0029097889 0.009482009 0.009451236 -2.6737147e-05 0.0008607986 -0.009246476 -0.00480871 -9.929659e-05 0.004044643 0.00015285783 -0.008727581 0.0058134026 -0.0074186935 0.008556306 0.005514539 -0.00677506 0.0028472056 0.0077198027 -0.0061069718 -0.0065440387 0.009201936 0.0018087049 0.009708371 -0.00990553 -0.0014992036 0.0068986984 -0.0014630915 -0.001754789 -0.0070771105 -0.0056645847
risk -0.0065221214 0.008923476 -0.0015834423 -0.008286491 0.008022772 -0.0029774818 -0.0013328689 -0.0006607168 0.0028247905 -0.0047255554 -0.000249578 -0.0028572194 0.008779213 0.006883524 0.0011076424 -0.006060747 0.0031297645 0.0011277427 -0.0061224746 -0.0057676313 -0.0030946648 0.0024038549 -0.008121821 -0.0049945926 0.008094289 -0.0036892984 0.007947239 0.0005342794 -0.005532399 -0.0049634497 -0.00021215319 0.004590328 -0.0060673454 -0.0055147028 -0.006822282 0.0067613865 -0.0024012818 0.0040179486 -0.001627276 -0.0074283252 -0.0012620718 0.00040323954 0.003591151 -0.008675056 -0.00679416 -0.006557917 0.002991634 -0.00373786 0.0010138768 0.004152954 0.004525617 0.0023733964 -0.002870543 0.00064474874 -0.0053828615 -0.0063588866 0.008718871 -0.004057953 -0.009312536 0.0037302643 0.008456446 -0.00018880621 0.0022708345 -0.0035435813 -0.0041997265 -0.008610003 -0.007851321 -0.009075809 -0.0059904885 0.008496058 0.009435973 -0.0016798895 3.356956e-05 0.007857247 0.0012703306 -0.0051450143 0.0026232721 0.0018088383 -0.0037356822 -0.0049065463 0.009645376 0.007645323 -0.008585126 -0.0055134515 0.001424272 0.0009256834 -0.0083495155 0.009335694 -0.0053724907 0.0046123066 0.009244315 0.0010966508 0.004218431 -0.0027079477 -0.009664381 0.0006016685 -0.001099885 -0.009914649 0.007017218 -0.0073912344
findings 0.0051152944 -0.0043991036 -0.009209451 -0.00905705 0.0062385025 -0.0052500297 0.0052421736 -0.0015657436 0.00968664 0.0071531245 0.009898117 0.008368227 -0.007881825 -0.009585551 -0.0055540213 -0.00079202675 0.005028923 0.0036557494 -0.002011376 0.005023663 -0.0034012313 -0.0067986203 0.0047087735 -0.009855275 0.00088684645 -0.005005305 0.0075595514 -0.0037293772 0.0028189232 -0.0062533775 0.009638439 -0.0055997763 0.0035933931 0.0032173118 0.00892681 -0.0055503747 -0.0043757954 -0.0062245997 0.006152198 -0.004602107 0.004815215 -0.0008966484 0.0072801686 -0.0060265325 -8.365072e-05 -7.742054e-05 -0.008549867 0.008733321 -0.002098453 0.0064390576 9.132307e-05 0.0050332574 0.0022032708 0.0088683395 -0.00831016 0.008425572 0.008657994 0.0010576074 0.0044176634 0.0038388453 0.0040515237 -0.0029330028 0.0028486438 0.00078281143 0.00483838 0.0084236665 -0.0077342554 0.00015457459 -0.008747417 -0.0015680818 -0.009031883 0.0031550913 -0.0015593277 -0.00069766276 0.0064473404 -0.008097936 0.0011399136 -0.0024080628 -0.0037243802 -0.007313544 -0.007986804 0.0082835145 -0.007450453 0.004831012 -0.0037824947 -0.0012074719 0.002822064 -0.0085718995 -0.0056382506 -0.00773186 -0.009396736 -0.0047410945 -0.0031660357 0.0004984754 -0.00069178717 -0.007880108 -0.0037958515 -0.0027314876 -0.0063724574 -0.00637716
university -0.002620752 -0.007910805 -0.008260417 -0.0075948085 0.0035707685 -0.0076152943 -0.0037205317 0.0066538914 0.007405909 -0.0064102625 0.0068062274 -0.0077770622 0.00011597905 0.00661603 -0.0028332486 0.009233603 -0.0003306885 0.004684613 0.0069578374 -0.0085778795 -0.0060775178 -0.0072757103 -0.0011818158 -0.0070839804 0.00010776521 -0.00803487 0.00049531454 -0.0003884235 0.0064661484 -0.0088791335 -0.0031593016 0.005887316 0.009261882 -0.0018078672 0.0007756015 -0.0060847946 0.00082129275 -0.00815335 -0.007634178 0.0013630763 -6.827107e-05 0.005553647 -0.009740749 0.0016585162 0.0016010026 -0.005253448 6.2807e-05 0.0060585714 -0.006590146 0.00028257509 0.003906132 0.0017144629 0.0028526753 0.008170386 0.006700555 0.0035048735 0.007986232 -0.007674713 0.0075419075 0.003896438 -0.005895405 -0.0041879895 0.0064047086 0.0058071893 -0.009861528 0.0012685622 -0.00037557256 0.00082133664 0.0070520737 -0.00715523 0.009632922 -0.009455111 0.0062420927 0.009500692 -0.003803713 -0.00938091 0.006177272 -0.008962647 -0.008304163 -0.0008652191 -0.0066553983 0.008744396 0.007825452 0.00085503893 0.007993509 0.009862902 0.0052044475 0.004329544 0.0053951037 0.006426364 0.004752174 0.006398795 -0.007446434 0.008877099 0.008299176 0.00937584 -0.00901587 -0.0034400471 -0.00033490435 0.0041647265
uk -0.008216875 0.0001661854 0.0060251863 0.009574623 -0.002841725 0.0018215176 0.0063238787 -0.0019967093 0.001955327 -0.009327394 0.00071085995 0.004577351 0.0044953222 -0.009745114 -0.0051468043 0.002971308 0.001590783 -0.0047021382 0.0058200634 0.003508387 -0.007822793 0.009838762 -0.0077163293 -0.0030284969 0.009742585 0.0011454431 -0.0055485833 0.0011267255 -0.0040908526 -0.0067422953 -0.007756287 0.004758597 -0.009029581 0.004060061 -0.005526596 0.005429043 -0.0043652095 -0.005582713 0.006350532 -0.008646606 0.001334479 -0.0021288404 -0.006683574 -0.007652356 0.0067590377 -0.004465823 0.004583451 -0.009660801 0.0019083278 -0.0019548475 -0.0058977306 -0.0027849285 -0.008657283 -0.003476357 -0.0025751435 -0.0022889548 -0.005105359 -0.009195253 0.005345051 -0.0012990917 0.006174253 0.0030754355 0.008551628 -0.0035137676 -0.008894926 0.0013350423 -0.008985414 0.00604506 0.0084401285 0.0005046033 0.007700648 0.008536122 0.0042017237 0.005415337 0.009132542 0.0011479355 -0.008252835 -0.008323495 -0.0017834665 -0.0006292376 0.008821536 -0.009311988 -0.0025955979 0.009116521 -0.0014416161 -0.009073832 0.002016568 -0.005837564 -0.005480524 -0.0063416753 0.0001296334 0.007225128 0.004119092 0.008155071 0.008848974 0.004520592 -0.0060518216 0.007069982 -0.009527971 -0.0047914633
led 0.007994723 0.00790588 -0.005422799 -0.007978403 0.008076021 -0.0038281686 -0.0040663704 0.007195724 0.0054240124 0.0038095464 -0.0012230066 0.008662945 0.008450073 0.0069767935 0.0090728905 -0.0057675997 0.0009945878 -0.0016352679 0.006342419 0.009759537 0.0051669413 0.0040657227 0.0065270457 0.005879691 9.787588e-05 -0.008340374 -0.0021750857 0.00907343 -0.0050790287 0.0010071733 0.0048816344 -0.006925225 0.008204769 0.0014679919 0.0024277284 0.008311136 0.0014577176 0.0008875992 -0.0094228415 0.009855314 -0.009859182 0.008544827 0.0050544506 -5.372328e-05 -0.007865181 0.009337062 -0.0013809229 0.005349854 -0.0030310028 -0.004908872 0.0001638764 -0.008024526 -0.006640087 -0.009450665 0.0053613577 0.00043227253 -0.0009076912 0.0050992467 -0.0019653214 -0.0073721386 0.0028736135 -0.005964421 0.00049496227 0.009481348 -0.0009607932 0.0061449665 0.0044684284 -0.003527522 -0.005231756 0.008860089 0.0021018442 -0.000460048 0.0009038671 -0.0049177725 0.0035468466 -0.0030986979 0.004208851 -0.0045537795 -0.00079423 0.0038881565 -0.0071466323 -0.0025200662 -0.0087291775 0.0015682365 0.002014 0.0024191723 0.0010864872 9.920748e-05 0.0022233764 -0.0009446788 0.005931305 -0.002952836 -0.0050849253 -0.0053169993 -0.009664025 -0.008112423 0.0021135325 0.00398429 -0.005771658 -0.009681183
little -0.0061557726 0.004667861 -0.009077032 0.0050794133 0.006352975 0.006118776 -0.007634117 0.0028342844 -0.005455568 0.009046116 -0.0043126224 -0.0023491576 0.0052172956 -0.00082114013 0.00509439 -0.0042201467 0.0049825576 -0.009795106 0.00607956 -0.0012425283 -0.005607458 -2.0735359e-05 -0.0012210256 -0.0007226321 -0.001759175 -0.009275098 -0.007805602 -0.006800138 -0.008628775 -0.004536513 0.009192486 -0.001813512 -0.0075956034 -0.005897952 0.003608218 -0.0027174342 -0.0015615555 -0.0042537414 0.0059632035 -0.007835498 -0.007501061 0.0075250072 -0.006962489 0.0021589904 0.00037277341 0.009668032 0.0042410525 0.002067789 0.0027589554 0.0023020252 0.0022002063 -0.002719896 0.004091225 0.0061026006 0.00894088 -0.00074792246 -0.0012235512 0.0064657945 -0.008465134 -0.000657595 -0.006674489 0.0047855526 -0.008946881 0.003252919 0.00900559 -0.0020657075 -0.008828584 -0.008179063 0.003245523 -0.005345151 0.006448933 -0.0011895674 0.007855011 -0.0005012843 -0.006214615 -0.0057004034 0.0007680449 -0.0047777086 0.0065609813 -0.0035228443 -0.005628985 0.00095070957 -0.0048703225 -0.008211924 -0.005246658 -0.0018617915 0.00043756358 0.0036389325 0.006870937 0.006731263 0.0058628386 0.0003207206 -0.0058210287 0.0090000285 -0.00065234443 0.004710234 -0.0014234188 0.0057996195 0.005305653 -0.007299909
research -0.002742629 0.00010893107 0.0020345568 -0.009289685 0.0048391484 0.0033721186 -0.00017393113 -0.0034973335 -0.0076046633 0.007596054 -0.008603186 -0.0073841955 0.0044516562 -0.0085114315 -0.0032841468 -0.0020905565 -0.0019027805 -0.006835291 0.0042965245 0.0009988617 0.00365659 -0.0013283277 0.006935022 -0.009533587 0.005846217 -0.0051314426 0.0017032814 -0.006941061 -0.0024812245 -0.006428847 -0.0033509922 0.009729529 0.0026897169 0.001605339 -0.0060838317 0.0055729724 -0.008128617 -0.0022934747 -0.0064684106 -0.006382258 0.0022970247 -0.003286712 0.002430079 0.0039164377 -0.006270015 -0.0017449046 -0.0027624941 -0.009796312 -0.009838595 0.0011100078 0.0043808725 0.00023248911 -0.0048719957 0.0036277843 0.0016886258 -0.0094416095 0.0071884394 0.0077731516 -0.0077315615 -0.0007644868 0.0060313107 -0.0027804638 -0.00033712148 -0.0042198393 0.006114628 0.0069955564 0.002086246 -0.0046995566 -0.0018301129 -0.0039987876 -0.009766939 0.007810991 -0.000612216 -0.0006040621 0.0070846104 -0.009036224 0.0063263727 -0.007565441 -0.005358207 0.005075593 -0.0034946203 -0.003486991 -0.006308091 -0.003909895 -0.0026605867 -0.0040949797 0.0094539905 0.009454417 -0.000381577 -0.00028439044 -0.0056418204 0.007917586 -0.004944544 0.005890429 0.009112954 0.0057546687 -0.0009481502 0.005540857 0.006945007 -0.003880787
large 0.0006612106 0.0064886007 0.00585975 -0.00016934486 0.0023800442 -0.0065418133 -0.009375601 -0.00493071 -0.005394429 0.0005753089 -0.003958827 -0.00039413958 0.0076283533 0.009747442 0.0078955665 0.0024038597 -0.002712743 0.0024082237 -0.0026683947 -0.008979323 0.0069002253 -0.008623106 0.0037829895 -0.003961359 -0.005552755 -0.0010359415 -0.0065948544 0.00858107 -0.0068747285 -0.008969122 0.005785689 0.004456197 0.004763693 0.002415256 -0.0037352638 -0.005099593 0.001772129 0.008346687 -0.0056625586 -0.0023985466 0.0018600925 0.006711149 -0.00639434 -0.0045118635 -0.0026214053 0.0013408422 0.0053568687 0.005547805 -0.008707659 0.0072732465 -0.002497649 -0.0028336833 -0.008858709 -0.005757997 0.009471882 0.00308937 -0.008032717 0.0027955247 -0.007067001 -0.009051761 0.0038621132 0.0020515774 0.0012625628 0.008864632 0.006266186 -0.0050585186 0.0027286762 0.002557471 0.0023811043 0.008345766 -0.0069159544 -0.0023105992 0.0010340974 0.00637471 -0.00062272506 0.00792261 -0.004663189 -0.009023538 -0.007054741 -0.004168096 0.009570342 -0.00513958 -0.0048676194 0.008195376 -0.0074502644 0.0020291596 0.0057203663 -0.0075145625 -0.00024207658 -0.002358803 0.005586415 -0.004549942 -0.0066173514 0.009913984 -0.0046162372 0.0076054777 -0.008476685 0.007038047 -0.0033830232 -0.0078061204
volume -0.00117069 -0.0023662618 -0.0018218175 -0.0011693115 -0.0065177013 -0.0035533055 -0.0032047015 0.007723341 0.0058626514 -0.0008933044 -0.004810883 0.0052791545 -0.008843153 0.0016540458 0.004016762 -0.0019436667 -0.004523889 -0.008240696 -0.008278847 0.0071188346 0.0036427437 -0.00037462692 0.009711908 -0.008536418 0.0005789325 -0.0004371067 -0.008082411 -0.00910446 0.007191421 -0.0036378207 -0.007891669 0.007947631 -0.006240339 -0.0031234266 0.0017722577 -0.0033407814 -0.007964638 -0.0039228084 -0.009023273 0.0013941957 -0.0046206783 -2.5534693e-05 0.0027272396 -0.002364572 0.008821666 0.0070513664 -0.00055893994 -0.0006479177 0.00085117994 0.006754966 0.008943211 -0.001925483 -0.0015973736 -0.0029653253 0.0005166909 -0.0064761206 -0.0018679132 -0.008650572 0.0006565706 0.0014367035 0.0037267779 -0.0028630157 0.0059246714 -0.0070722564 0.009826455 0.0005300292 0.0022980175 0.004360161 0.00042020442 0.002603156 0.0016072332 -0.009625359 -0.0031465846 -0.0026004438 -0.0092508 0.0034342709 0.004791588 -0.0020763262 0.007421255 -0.0012221305 -0.0002851533 0.0057782996 -0.008484847 -0.0069036363 0.0073464066 -0.006576051 0.008468783 0.0053560087 -0.008040296 0.008399489 0.00631789 -0.006718031 -0.008467979 -0.008825654 0.003825851 0.0063327984 -0.0021392293 0.0013514824 -0.008401176 -0.0051122853
sports 0.0047006533 -0.009063473 -0.009244285 0.0010162281 -0.008588481 -0.0069574127 0.0047535044 0.008020143 -0.0073688 0.008095203 0.0093833525 0.004698686 -0.0044081896 0.009685759 -0.00770481 -0.0038786319 0.0019346329 -0.007644129 -0.009863612 0.002840328 0.008189735 -0.0050962474 -0.004292409 0.0039131814 0.00068661827 -0.008530671 0.006532603 -0.0031571204 0.0035848445 0.0031516103 0.008894409 0.008740558 0.0073379097 -0.008300073 0.0012013747 -0.00095010235 0.0008757398 0.00892901 0.004763846 -0.008939464 0.009817438 -0.00089968403 0.00041027236 0.0049662483 -0.0062019276 -0.00040401824 0.0013667409 0.0070493883 0.0042814575 -0.0019408431 -0.008469525 -0.0038709124 0.008774894 -0.00949113 0.009869604 -0.00015521092 -0.0011261976 0.009601454 0.009578812 0.008281033 0.009001806 -0.009981622 0.007512905 -0.009349907 -0.007717347 -0.00882329 0.0021570057 0.0071954285 -0.006323374 -0.002699164 -0.00235805 -0.004489905 -0.0012939167 0.004858216 0.0037355227 -0.003245075 -0.0037241767 -0.002326818 -0.003233728 0.0039298674 0.009740083 0.007846063 -0.0075760237 -0.006428598 -0.009125227 -0.0059159584 0.0036442885 -0.0060055135 0.0017100045 0.008884805 0.003351495 0.0011938064 0.008918014 0.006426718 -0.0014341853 -0.006211412 -0.0010695298 0.007283081 0.007490892 -0.0040287077
collected 0.009939876 0.002404156 0.005116615 -0.0056669815 0.0043871715 0.0002390253 -0.009591764 0.0050830888 -0.009010846 -0.0064814086 0.0027959077 0.009274539 -0.0021206357 0.0069887694 0.005080508 0.004079665 -0.006187704 0.005068845 -0.008302548 -0.004337428 0.0054451143 -0.008138278 0.0057303836 -0.0035000562 3.2026637e-05 -0.0073445626 -0.006259993 -0.0033163277 0.008604484 0.005343154 -0.009685374 -0.0065734494 0.0034493252 -0.008529248 0.0066520153 0.006163973 -0.009307083 0.008648819 0.007840867 -0.0018088865 0.0017812218 -0.005701367 0.006223903 0.0077042477 0.0040604547 -0.008863421 0.0049431096 -0.003060502 -0.0022054354 0.006104499 0.0018440917 0.004631458 -0.006284583 0.005248568 -0.003527999 -0.0003869085 0.006224764 0.004074616 0.007475355 -0.003909572 0.0035534396 0.0073078307 -0.003274328 0.0057748617 -0.009416626 0.008849724 0.0037538577 0.005317026 0.0046348153 0.004577356 -0.0033044887 -0.006217314 -0.002266712 0.0013935493 -0.002929382 -0.0084907785 -0.006294879 0.008344258 0.009337249 0.005943738 -0.004102115 0.00069054734 -0.008589988 0.0066659534 0.00047587274 0.007384341 -0.00536213 -0.0028392014 0.0028680435 0.0034658825 -0.0065364377 -0.00736237 0.0020331014 -0.00900083 0.0057992977 0.0054740896 -0.0038218931 -0.0056387163 -0.0083177565 -0.0019033613
school 0.006977463 -0.00020828402 -0.007949601 0.008889919 -0.008544846 0.0055480534 0.0064668898 0.0009868301 -0.008695713 0.00616822 -0.0078460965 -0.0050253887 0.009624873 -0.008276614 -0.0076234406 -0.004894493 0.0034616839 0.0019143196 -0.005557096 -0.0032912337 0.008580319 0.009774947 0.009911357 0.0010404857 0.0040344493 0.0013659159 0.0016627433 0.004835497 0.0022015173 0.00029964503 -0.0031410628 -0.0065259566 0.008000483 -0.0059800046 0.0027801944 -0.0009163399 -0.0036484636 -0.0049427813 0.0032199507 -0.005867919 -0.007489762 -0.0026448967 0.004688373 0.0060438984 -0.0014463785 0.007298016 -0.007596918 -0.004731964 -0.007858938 -0.0060490686 0.007303372 -0.009280308 -0.008650619 -0.009808511 0.009207999 -0.002662606 0.00099843 -0.0061305854 -0.0025317834 7.597983e-05 -0.0024964544 -0.007371545 -0.006190192 0.002541169 -0.009495525 0.00115147 -0.0019876736 0.008280633 -0.000407774 0.006219367 -0.007086783 -0.0075697564 0.0055586766 0.0009449448 -0.005083234 -0.0026611383 0.008768975 -0.009178465 -0.0036794988 0.0009908911 -0.00021779572 0.009513627 -0.0019500396 -0.0070857042 -0.0076817744 -0.009894855 -0.007818694 -0.006027362 -0.0059393025 -0.0013982906 -0.0005331826 -0.004711152 0.0021386547 0.0038735594 0.009036388 -0.0046516582 0.0051227547 0.0072542327 -0.0037485529 -0.007438637
athletic -0.0033415149 -0.006884907 0.006489349 0.009383815 0.008293868 -0.008573949 0.005043471 0.0051382864 0.005630439 -0.008344725 3.1726893e-05 -0.0068479413 -0.0089191925 0.0025104203 0.009947442 0.006519112 -0.0070695844 0.0023307442 -0.0038970448 0.009878019 -0.008805184 0.009755975 -0.006536182 -0.0070225666 0.0016193315 -0.0006643389 -0.008538783 -0.000619939 -0.00036046517 -0.0062706177 0.00576088 0.0031620618 0.008440276 0.007375335 -0.006651483 0.004811188 0.0056973468 0.005766973 0.005205255 -0.0048096497 0.0043299072 0.0013079297 7.1107694e-05 -0.0064465427 0.0015620369 0.005268495 -0.009217415 0.008610964 0.0029960717 -4.9118484e-05 -0.00334977 0.0003679776 0.006078627 0.0047918847 -0.005935006 0.007879079 -0.00062553125 -0.008172658 0.00888385 0.00507762 0.0036329306 0.007906472 -0.0075112293 -0.0058105704 -0.0020075773 -0.0040691597 -0.0015951677 -0.00057517795 -0.008422173 0.0019225675 0.002560126 -0.00084908016 0.0049160137 0.0014767087 0.0060139764 -0.0022373619 0.008517867 -0.0015656571 0.0030605996 -0.003830492 0.0061169956 0.0030737584 0.0005099683 0.008778647 -0.007830438 0.009735689 0.0007965373 -0.0023414143 -0.0040990105 -0.009085001 -0.0021902854 0.0027049843 0.0065728202 0.00909509 -0.008719839 0.009065518 -0.008857679 0.0037411929 0.0080441795 -0.0025139565
association -0.007856059 -0.00832002 0.001154721 -0.0007785628 -0.009491309 0.0030870016 0.0022549694 0.004462985 0.004428624 0.003226972 -0.009813196 0.005725576 0.004253958 -0.00774609 -0.0021221514 0.00036232485 -0.0006427782 -0.0009606539 -0.0055473517 2.756079e-06 0.004417011 -0.0006591827 0.00078937714 0.0020946653 -0.0039856494 -0.007860097 0.009161112 -0.009795985 -0.0024849635 -0.0012646721 -0.007675978 0.0017629092 0.007955249 -0.0015304586 0.008100781 0.00030656808 -0.005772394 -0.001985906 -0.0007244751 0.006243449 0.007125541 0.006206656 -0.005995745 -0.0069742985 0.0061131036 0.0024800284 0.0053470093 0.00046325853 0.007873211 -0.008885745 0.009881378 -0.008237067 -0.0017055676 0.0062889094 -0.009227378 0.004317996 -0.0069775577 -0.0068509546 0.0023088409 0.0017289002 -0.0027871463 0.007865149 -0.007017531 0.00047081083 0.008738582 0.0020386162 -0.006841576 0.003535375 -0.005047641 0.000598075 0.0028567764 0.0075892634 0.007401588 -0.0048874947 0.009527365 -0.0054744184 0.0076246723 -0.007987191 -0.007832193 -0.0011390051 -0.0081531415 -0.0034619195 -0.00053242146 3.524538e-06 -0.009967374 -0.006499457 -0.007408444 -0.0003799286 0.0051958216 -6.394029e-05 0.009974393 -0.003875099 0.008060359 0.006093802 0.00827858 0.000107290456 -0.0004313499 0.0018908774 -0.009918761 0.009040532
offered -0.0023980495 0.0075456924 0.002037562 0.0029056214 -0.0012451651 -0.0099163065 0.0013931174 0.0029009872 -0.009803406 -0.003914601 -0.0023394 -0.005082622 0.0039520734 0.0021086377 0.004351938 -0.0064644082 -0.006004084 0.0046977634 0.0067882454 0.0055013946 0.00479806 -0.0072219134 0.008163537 -0.0069612716 -0.0076800277 0.008513954 -0.0024918958 -0.0094003985 -0.0030799124 0.005957096 -0.0028733101 0.004926301 0.00013186558 0.0040534525 0.0011742798 -0.009303191 -0.0036455488 0.008838386 0.0015312413 -0.0059034256 0.0070295813 0.007446305 0.0072459793 2.0854375e-05 -0.00913007 -0.0034813744 0.0051256893 -0.0065047964 0.009746058 -0.00976734 -0.008123402 -0.0053128605 0.00601314 -0.0076573356 0.008646962 -0.009866599 0.003504307 0.0032801924 5.7603855e-05 0.009544597 0.005114134 0.00030065796 0.0048331404 0.006419452 0.0030143785 0.009413037 -0.0013364352 -0.008372889 -0.0044943425 -0.0014830278 -0.0072672763 -0.0015723875 0.007956517 -0.0050257184 0.0051234537 0.004348411 -0.0007102098 0.0010815891 0.005722684 -0.006662976 0.0038926208 0.008902837 -0.0035282404 -0.007601021 -0.009199724 -0.008998183 0.00387248 0.0051344503 0.007049127 -0.0014479553 0.0009858743 0.003063907 -0.009886144 -0.009395781 0.004602803 -0.008397124 -0.0031944772 -0.0042978195 0.0059177587 -0.0034433287
opportunity 0.009977958 0.0005599177 -0.0051520513 -0.003633461 0.0012584332 -0.005375757 0.0073958593 0.009033388 0.0042914194 -0.007352489 -0.0059439726 4.227992e-05 -0.0010191427 -0.0055224122 0.007944249 0.0062417695 -0.004180749 0.002375817 0.0051341094 0.0023952646 0.008568397 -0.001281936 -0.006529116 -0.0008377102 -0.00832412 0.009846095 -0.008628093 -0.0015084519 -0.0028481367 0.003144415 0.0049792835 -0.008243702 -0.00439217 0.00048474837 0.0039965278 0.0051248483 -0.0013861709 -0.0006262487 -0.007827386 0.0045389617 -0.007647205 0.0032819987 -0.0034265078 -0.007800034 0.00689483 -0.00045597152 -0.009546981 -0.009380338 0.0005933245 -0.008181372 0.0037378801 0.0034663128 0.003347521 -0.0055929557 0.00799056 -0.0089867255 0.0074585225 -0.00063656346 -0.0014671314 0.003967397 -0.002488183 -0.004395905 -0.002410252 -0.006180295 -0.00035240245 -0.005379204 0.004602927 -0.009532415 -0.0043649985 -0.009155239 -0.0096133305 -0.0007522987 -0.008068497 -0.0056916536 0.002786207 -0.0014449871 0.0031027803 0.008267128 -0.009635329 0.006071836 -0.007954134 0.0065262634 0.0074594426 0.008590044 -0.007949192 0.0033429305 -0.00784021 -0.0012433581 -0.005212802 -0.0085309455 0.0049385782 0.0044360063 -0.004055073 -0.007769266 0.0035635915 -0.0039316267 -0.008872537 -0.00438195 -0.0021650253 0.008757644
investigate -0.006456466 0.0073323892 0.006122913 -0.0049081375 -0.001758852 -0.0025048994 0.0031226445 -0.00045303107 -0.0027636099 -0.009045644 0.0064344313 -0.009615391 -0.008650446 0.0013819766 0.0029734327 4.7421454e-06 0.00037009956 0.0025892712 0.0018025708 0.007568312 -0.003446393 -0.0072333906 -0.00788418 0.007919614 0.0019462728 -0.0058078575 0.0063911914 0.008453579 0.007946606 -0.0068279817 -0.0051414394 -0.0020103382 -0.0066176723 0.0047288225 0.0056644366 -0.0059959223 0.007199256 -0.007656555 0.0062029026 -0.0046253297 0.0019614554 -0.0032713367 0.0033896612 0.00771847 -0.0013945032 -0.004985187 -0.008561652 0.0036374521 0.0042310166 0.006697223 -0.004289763 -0.0097329905 0.0068215155 -0.0045247437 0.00441977 0.008054533 -0.0039428137 0.0016341734 -0.0035891556 -0.006613748 -0.00568434 -0.00013659001 -0.0075132754 -0.0019958066 -0.002487917 0.0067084385 0.0013637447 0.0058521964 0.0038193201 -0.0035164428 -0.005091474 0.009661293 0.007070396 -0.009044233 0.0052457834 0.008193033 0.0091923 -0.00805466 -0.0020131755 0.0010854984 0.0029083753 -0.0016219593 -0.004704926 0.0064684176 0.006932578 -0.00038987875 -0.005843141 -0.0043717623 -0.0051488755 0.0042562988 0.0005137396 -0.002359662 -0.009084906 -0.0014964581 0.006431346 0.006324997 0.0042235423 -0.0028758978 0.009051609 0.00060097454
whether 0.001134004 0.006171192 -0.006603076 0.006537598 0.009797287 0.0036488168 0.0034305747 0.004213736 -0.0019536943 -0.008111211 0.0014863982 0.0008882538 -0.0067956983 0.001976146 0.0054585556 -0.0071693156 0.0025095313 0.0077519645 -0.008610962 0.0034926892 -0.008557146 -0.007924246 0.0070959865 -0.007567161 -0.0013719402 -0.007924796 -0.007889717 -0.0071090483 0.00040763905 0.0017920027 -0.007887295 -0.0080459025 -0.0031583773 -0.0018403825 -0.0061742687 -0.0042075333 0.0036089413 0.0030768707 0.0065880707 0.004228132 -0.000882597 0.0027587193 0.009054788 0.0019094547 0.001834871 0.0011221413 -0.009291719 0.005353397 0.005047208 2.5066058e-05 0.009213706 -0.0057152444 0.0032508217 -0.007803515 -0.008920696 0.0019997626 0.004742693 0.0060938788 -0.008686481 0.0043576253 0.0024046164 0.004158114 -0.0006617512 0.00555887 0.007289928 -0.008381553 -0.009936213 0.007021954 -0.00097135786 -0.00935917 -0.0040869163 0.0011835232 0.008446366 -0.0016844091 -0.0010066621 -0.0073702005 -0.0076684332 0.0014688494 -0.00047683786 -0.0077181733 0.0008810757 -0.0089984555 -0.0024989236 0.004230472 0.0011167343 0.007838211 0.0065941443 -0.0011762638 0.004967713 0.0061398093 0.00874636 0.009081665 0.0049219755 0.0046231477 0.0071984944 -0.0015648812 -0.0056666182 0.008873589 0.0012201901 -0.0050625512
glasgow -0.0008842396 -0.005209446 0.009117921 0.0033800537 0.0042972066 0.0064771026 0.008170305 -0.0047650705 -0.006346345 -0.0037412397 -0.0037101856 -0.009451474 -0.00063313235 -0.008109628 0.00978389 -0.0033946773 -0.006317781 -0.008101198 -0.0035671038 -0.009590601 0.0007849377 0.005438198 -0.002879157 0.0076842248 -0.0018767361 -0.0072516473 -0.0031456351 -0.0031481918 -0.007099854 -0.009673861 -0.0040596626 -0.0015934845 0.0050317515 -0.007635884 -0.004979156 0.0013771027 -0.0016751536 0.0035469218 -0.0018722903 0.0043057273 0.00800455 -0.007925672 0.003771932 0.005990652 -0.00055493147 0.0067581767 -0.005418384 -0.004579025 -0.007841195 0.00946301 -0.009399605 -0.0032490704 -0.0004420605 -0.004836157 0.009478168 -0.0068384446 -0.0080139935 0.0092346985 -0.008293839 0.009696788 -0.0040874905 0.0056708595 -0.0004012578 -0.0039911014 -0.007494468 -0.0062579666 0.0068795774 0.006332703 0.00013650153 0.0064047743 0.003846196 0.0038376518 0.0026946985 -0.009709146 0.009285792 -0.008179418 -0.003025119 0.0014351218 0.005237602 -0.009248455 0.001689669 0.0063562966 -0.008778643 0.009581901 -0.0052259653 0.0095738955 -0.006506717 0.0066066384 0.009373863 -0.0092164 0.00031678542 -0.007713204 0.008134824 0.009582728 -0.006030208 0.0008388022 -0.0022324102 -0.0077614123 0.00082415645 -0.009903994
stewart 0.0025975807 -0.007684604 0.0056916685 0.0075622224 -0.002539711 -0.0040505715 -0.009615411 0.0049466244 0.002916043 0.008724717 0.0033101079 -0.002918135 0.0035448573 0.008627064 0.009244604 0.0076674256 -0.008559235 -0.007571291 0.007266978 -0.0074977768 0.0032500364 0.0080523 -0.003221031 0.00677029 -0.008153954 0.0065064766 0.0055690263 0.0033361216 -0.008125338 0.009164812 0.00824156 -0.0015704327 0.004147222 0.0063464832 -0.0017497905 0.0055071246 -0.0040329625 -0.0012821845 -0.0012118877 -0.0041791243 -0.00068653945 -0.0077173794 0.0036432801 0.009066602 0.0048078727 0.0063683745 -0.004748267 0.004860841 -0.0066795656 -0.004977592 0.009881307 0.006410392 -0.005001025 -0.0060571753 0.007243138 0.0027024788 0.0066032875 -0.0067709833 -0.00095971144 -0.00093068264 -0.00021407823 0.002220452 -0.0067277295 0.0043952735 -0.0027536126 0.00837128 -0.0009996603 0.009170607 -0.00086518534 0.005230356 -0.007604829 -0.009102506 -0.00031762145 -0.0022528141 0.009998992 0.004540904 -0.005580903 0.007372784 0.0005798079 -0.009592028 0.0057106013 -0.0020157297 -0.009442932 0.008740501 0.0072459267 0.008582092 0.00038137045 0.007702132 0.0052089165 -0.0069251647 0.009316371 -0.0035390607 -0.009738748 0.008578263 -0.0052856435 0.008393936 -0.0078568775 0.009278311 -0.0059047015 0.0040059886
really 0.009784115 0.004204145 -0.0021323143 -0.0049527464 -0.0097226305 0.004201155 0.007430394 -0.0047327257 0.005917785 0.006840318 -0.00901205 0.0020859658 -0.0068421983 -0.0043272395 0.00085394055 -0.0070239725 -0.004137741 -0.007523444 -0.0070198523 -0.0069493507 0.009913209 0.008331278 -0.00018961012 -0.002624529 0.00623945 0.0013402428 -0.008999857 -0.0070600356 0.0010273084 0.007928949 0.0032072521 0.00983442 0.0065614176 0.00029197117 0.0086478805 0.009004062 0.008060496 0.009402435 -0.009385813 0.0035098852 -0.0078073437 -0.007143281 -0.0084289275 0.0032117101 -5.6427443e-06 -0.0063432823 0.005539553 0.007901918 0.0042964746 0.007834832 -0.0042764544 -0.0063834214 0.00398128 -0.0029180676 -0.0071684695 0.0036678975 -0.0033179407 -0.005203269 0.0026272729 0.0068529346 0.006398152 0.00015303548 0.008647478 0.0029493147 0.006571007 -0.00089614675 0.0021094154 0.006164594 -0.009795763 0.0058298633 0.0012824119 0.0060821655 -0.001439047 -0.0027022918 -0.005574181 -0.0028484927 -0.0025722103 -0.005145244 0.00097616017 0.007983026 0.0051306686 -0.0076530096 -0.0074252575 -0.002888191 0.003907779 -0.009315087 0.00612151 0.003122569 -0.0028149334 0.009197542 0.00806405 0.00071867806 0.0048245545 -0.009290761 -0.008789476 -0.0029477635 0.009266277 0.0032460268 0.0056142635 -0.0067638718
willie 0.0042335163 0.0004023791 -0.00090244185 -0.0032540057 0.0049705375 -0.00911491 0.005120309 0.005672278 -0.0024318162 -0.0042052614 -0.007391509 -0.0063863625 -0.0051166546 0.0031487637 -0.004785958 -0.0011894356 -0.008934448 -0.0035088726 -0.0007884813 -0.00796929 0.0032487956 0.0097754095 0.004385327 0.0018823372 -0.0048790216 -0.0011269501 0.0022383367 0.0017251162 0.008806925 -0.0009339323 0.0069991015 0.005781144 0.0030636045 0.0073146955 -0.0049499427 -0.0039407196 0.00697804 0.008612171 0.003152198 -0.0041049854 0.0076531773 0.0027146426 -0.00022611783 0.008866722 0.0043177963 0.0039495234 -1.2764973e-05 -0.008926803 -0.0031212291 0.0024304145 -0.0056073912 0.007122136 0.007443764 -0.008938693 -0.005374804 -0.00598214 -0.0006488141 -0.0018078221 -0.002040159 -0.0022038484 0.0035787977 0.009613515 -0.00459051 -0.008283542 0.0037415028 -0.006455502 0.006696942 0.0026712716 -0.007879188 -0.0077431253 -0.009258072 0.0023484933 0.0027522156 0.0026251364 0.00019285078 0.0010545496 0.0030600275 -0.0015560194 -0.008044069 -0.00064897357 0.003708894 -0.0025915396 -0.0021479696 -0.002231634 0.007263199 -0.003022319 0.009449014 -0.003868897 -0.009963931 -0.0065524504 -0.004359578 0.0012509216 0.0051199263 0.0021386738 0.009051399 0.0009053923 0.0056304564 0.00015595563 -0.0021173733 0.0062187104
27 0.0020110293 0.008272559 -0.008312164 -0.0087466305 -0.0005342608 -0.0019127185 -0.0023509543 -0.0005752017 -0.005079118 -0.008036831 0.008256313 -0.0033603364 -0.002850541 -0.0016417564 -0.0012200736 -0.0091761565 -0.001781368 -0.001365226 0.008658984 -0.007981636 -0.0047538513 -0.0018675668 0.0028803134 -0.00602529 -0.0055550556 -0.007964524 0.005500604 -0.008730564 -0.0032472475 0.00028676653 0.0014736566 -0.009946671 0.008676985 -0.0020764524 0.00034167024 -0.0087767355 -0.008157139 0.0037686815 0.004013266 0.002968527 0.0058539906 -0.006922994 -0.0012416815 -0.0027180922 -0.0013847449 0.004492705 0.0013610361 -0.007440786 0.0032539954 0.006257989 -0.00610128 0.0032353902 -0.004315684 0.008842334 0.0041408082 0.0020371545 -0.0010124529 -0.009107752 0.00866144 -0.0018138607 0.0073749213 0.003782514 -0.0082499795 -0.000599223 0.0027587055 -0.0025555722 0.009727073 -0.0049951565 -0.007180135 0.0038034422 -0.003571446 -0.006891739 0.0020587465 0.005272262 -0.0054809656 -0.004386502 -0.0071792034 0.0015516162 -0.004753687 0.008412239 0.00070981326 0.001857496 -0.0033529343 0.0073857843 -0.00066270016 -0.008213116 -0.0073324605 0.0002192127 0.0077513456 0.0030956673 -0.0053051524 -0.0067424206 -0.009860976 0.0039465446 -0.00950554 0.0031792386 0.0016506353 -0.0008084682 -0.009937023 0.005883017
april -9.1987495e-05 -0.009934165 -0.0075339917 0.008567544 0.0018920213 -0.008182601 -0.000819217 0.0054078996 -0.009319928 -0.0068748216 -0.0010254711 -0.009765928 0.00047782843 0.0019461346 0.0085415095 0.0009855982 0.0013037365 0.004879376 -0.0042914897 0.0072244583 0.00016096616 -0.0006748852 -0.009698567 0.000508275 0.006787879 0.0017620362 -0.00809343 -0.0033305779 -0.006039789 0.006020612 -0.0064663193 0.005256411 -0.0052537457 -0.006828375 -0.007587848 0.0038133236 -0.008800848 -0.0057114772 -0.0070624216 -0.0043192017 -0.004031926 0.0014857651 0.006485496 -0.001193833 -0.0054834345 0.0015588892 0.005633994 -0.005273826 -0.0053379317 0.005170066 0.006265609 -0.0077705523 0.008211444 -0.009845265 -0.007416686 -0.0058799065 0.0018141404 5.4753604e-05 0.003469127 0.007014067 0.004793309 -0.0032026342 -0.006433319 -0.008248756 -0.00047927065 0.00973228 -0.007671071 0.0036509477 0.0043817977 -0.0043366593 -0.006966781 -0.005442834 -0.005035676 -0.0069988626 0.0059404843 -0.00776788 -0.0029351723 0.0043798853 0.00017770554 -0.0076898946 -0.004690349 0.0035925873 0.0025382296 -0.001953703 -0.0007268174 0.0025510422 0.0014264989 -0.0026427787 0.0053428984 -0.0076590134 0.006370352 -0.009989643 -0.0022537091 0.0066848514 -0.003601701 0.0065343673 0.0054327194 -0.0073960074 -0.00024242682 -0.004492102
jama -0.00806013 -0.0008847896 0.0063872556 0.008734699 -0.0050385697 -0.00266696 -0.0060362997 0.001167719 0.0026646145 -0.00984548 0.002416835 -0.008819325 0.00038660315 0.0047605583 -0.0052540298 0.00026842515 -0.0021711325 -0.00868519 -0.0024090258 0.0044432627 -0.008573445 -0.0059273904 -0.0005474528 0.008042202 0.001405148 0.009767758 -0.007682594 0.00899003 -0.004727083 -0.0063555506 -0.007831742 0.0018452951 -0.002742633 0.0075433273 -0.00052218925 0.0025132624 0.0059642405 -0.0086515425 -0.002063251 -0.004782529 -0.008663589 0.0034143787 0.0024222948 -0.0023980015 -0.0019043855 -0.0067281243 -0.003267809 0.0013029646 0.007743791 0.007070791 -0.0035940425 0.0036107826 -0.0025890616 -0.004719679 -0.0036195014 -0.0061516 0.0035084167 -0.007792285 -0.0075039943 -0.004499929 0.0073940954 0.0018265168 0.005463183 0.008222846 -0.006232489 -0.0046172505 0.0076893824 0.004940202 0.004652404 0.0090006245 0.008803068 -0.0026808162 0.0010458634 0.0054829447 0.008904014 0.009849534 -0.008265501 -0.0051187035 0.004987799 0.0009424044 0.00015630679 0.0075030564 0.0063952594 -0.0072246394 -0.002593857 -0.00847727 0.00705539 0.0027678213 -0.0022244665 0.0018785284 0.0076692807 0.008136395 0.006176349 0.0031698444 0.0015503112 0.008132901 0.0013213626 0.00044994196 -0.009552771 0.0025322866
network -0.008459122 0.006475926 -0.0058102193 -0.001749826 0.0009794638 -0.0018860161 -0.009134632 0.003987178 -0.0065821167 -0.008790342 0.003917057 -0.0007674583 0.0065003065 -0.00700694 0.00078458234 -0.00068059243 0.005760012 -0.009739836 0.005945283 -0.008990429 -0.0077849906 0.00073564705 -0.0026611253 -0.0038895705 -0.005304274 0.004110438 -0.009346342 0.0011797511 0.0042059165 -0.00028501864 -0.00048100812 0.0071617626 -0.009557722 -0.0090256035 0.0044426294 0.008722928 -0.0077981525 -0.00831285 -0.00064251723 -0.009046827 0.0021158042 0.009235194 -0.006113347 -0.0067485673 0.008920957 -0.0007484486 -0.0037450166 -0.002716073 -0.00874737 -0.0046228063 -0.004154612 0.0002555658 0.00068797916 0.007639797 0.006845716 -0.0015215434 -0.009978236 0.002595917 -0.006117762 0.009106126 0.0037987125 -0.001000676 0.0066017793 -0.0034762563 -0.0036767798 -0.0003260326 0.008416592 0.0059304005 0.0015672419 0.0037773522 -0.00298159 0.009252074 -0.007120715 -0.0032389234 -0.0052903923 0.0087207155 -0.0031332972 -0.0023814398 0.007151776 -0.009723908 -0.0029128147 0.0028841135 -0.0062756226 0.008766562 0.0011695293 -0.005226992 0.0049393694 0.007988547 0.0009384649 0.0068251938 -0.006824787 -0.003615482 0.009930993 0.005683473 0.0015961479 -0.0034968238 0.0044133826 0.0025426147 0.008366708 -1.7180519e-06
open1 0.00859622 -0.005845508 -0.0076229386 -0.0013970311 0.0029797778 -0.0019971987 0.005881991 -0.008400388 -0.009020455 0.0075682164 0.00634498 -0.0041032457 -0.0040295646 -0.003545693 -3.976321e-05 0.009082697 0.00096950866 -0.0020618362 -0.0034017193 -0.0021019373 -0.009195895 0.0068400507 -0.0090327505 -0.0030921116 -0.007125971 0.009064181 0.005761931 -0.0004904011 0.003920856 -0.0024380663 0.009828743 -0.0036326933 0.0048752786 -0.0038117047 0.00954522 0.009512875 0.00623558 -0.00024957195 -0.0016873009 -0.008674158 0.0093343565 -0.008444448 -0.006548233 0.0055904663 -0.0022685397 0.0079884855 -0.007872674 0.009188599 0.0022592412 -0.008553867 0.003940838 -0.004946058 0.0063791242 0.00659884 -0.008737514 0.006456315 0.005267181 0.00648234 -0.0070574386 -0.006555866 -0.008865631 0.0052694455 -0.0040174653 0.0048168404 0.004801967 0.00809385 0.0022446965 -0.0010886512 0.0014520158 0.0029904305 -0.008773019 -0.0059860055 -0.00093067053 0.004892349 -0.00014819429 -0.009667797 -0.0006380405 0.0071554314 0.0063381 0.0034435533 -0.0046095224 -0.0037269704 -0.0020934052 -0.0059969793 -0.008592941 -0.00055702176 0.0018125027 0.0048403153 0.0036065008 0.008563072 -0.006757759 0.009279472 -0.0033484353 0.00082435977 -0.004256785 -0.0040506013 -0.0014985155 -0.007496025 0.008979755 0.004554565
scientists -0.002269026 0.0019313779 0.007805652 -0.005625125 0.0038118665 0.0006918139 0.00288355 -0.0021437164 -0.0098889945 0.0058770473 -0.0014200951 -0.0083273 0.0006997805 -0.0061689513 0.007687863 -0.0063953344 -0.0016384905 -0.00040070864 -0.0042855297 -0.0034297814 0.0073500746 0.0018704612 -0.009373477 -0.00027154916 -0.009537727 -0.0031433555 0.0049374113 0.0036897156 -0.0057350034 0.0014655845 0.0058193435 -0.0075028455 -0.0033648624 -0.0024776608 -0.008895242 0.0021160885 0.0064984425 0.0024531544 0.0023739506 -0.00082248787 -0.0008073398 -0.006273124 -0.0004881396 0.0066069486 0.002974524 0.00054620916 0.007829469 0.0027920578 -0.007417512 0.0072971466 0.0095518725 -0.00907511 0.007225765 -0.0075826803 -0.00034943986 0.0046101464 -0.0057472372 -0.007962948 -0.0072856164 -0.00989689 -0.0066560516 0.009557503 0.0029290358 -0.009049072 0.008517235 0.007215662 0.00787803 0.009614146 -0.008678432 -0.002183718 0.002091904 0.0024162026 0.004835815 -0.007729185 0.004830727 0.009958847 -0.008976083 0.007905056 0.0032069802 -0.0041815448 -0.0015421637 -0.008521473 -0.0074894796 0.005526695 -0.003130784 0.009996867 -0.008013654 -0.007035846 0.0061475574 0.007884479 0.0036991108 0.00724695 0.006487536 -0.0057752505 0.008708327 -0.0063442937 -0.0028816995 -0.0059763454 0.006090754 -0.004382233
already 0.0030697563 -0.0015671677 -0.0012061878 -0.005855439 -0.0057634134 -0.0036114438 0.0003007593 0.0014726545 -0.0033077877 0.0019210826 -0.0056619816 0.0099709695 -0.00084188546 -0.0069402275 -0.0018521588 0.007956983 -0.0010905095 -0.005154341 -0.008036341 -0.005892657 -0.0031903714 0.0077467146 -0.0072236755 0.0014488271 -7.61576e-05 0.00396657 -0.007975202 0.007950751 -0.0027828626 0.0053117475 -0.009491825 0.0050804648 -0.0082175415 -0.0032776026 -0.0011881278 -0.0036246767 -0.0007405233 2.8153363e-05 0.0045076194 -0.0022551522 -0.0039967275 -0.006183703 0.008323422 0.0046281554 0.009119101 0.005482433 -0.0046161064 0.0082681 -0.006944324 0.0030315188 -0.0033487019 0.00027179718 0.003756746 -0.0028023045 -0.0044124764 -0.0019465906 0.00051612424 0.0064454474 -0.0058482867 0.004672311 -0.00370122 -0.007943258 -0.005593456 0.0018823113 0.008804589 0.007881393 0.009203731 0.0068959408 -0.0029802325 -0.0024027186 0.008806279 0.0064815404 0.00602442 0.006874188 0.0016487447 0.002418467 -0.008222796 0.0075452174 0.00944489 -0.0071115904 0.0011483777 0.008730638 0.0036457658 0.006967686 0.0076260627 -0.0019065388 0.008880164 0.0059984475 -0.0018900622 6.8708505e-05 0.009727013 0.005842308 -0.006677456 -0.0034832265 -0.0034782025 0.0031021354 0.0011049968 -0.008589582 0.0021758648 0.0096333735
suspected 0.002348043 0.0043004146 0.0019537203 0.008113301 0.008881747 0.0031384556 -0.0024577843 0.0036026898 -0.0077191037 0.007999375 -0.0040007187 0.009905736 -0.00959635 -0.0025553002 0.008889605 -0.004063997 -0.0019461546 0.005032193 0.009294828 -0.00038086914 -0.006798167 0.010005976 -0.009529257 0.001245246 0.005567183 -0.0078110453 -0.005654469 -0.009122524 -6.2564955e-05 0.005007759 -0.00821293 -0.0030888352 0.008410631 -0.004471802 0.0031753706 0.0035254369 -0.0035834352 -0.0051693777 0.008329761 -0.0025313776 0.008967958 -0.0024211782 0.0030514598 0.0056048296 0.00057124434 0.004397616 -0.005967103 0.008408515 -0.0016361957 -0.004426327 0.0051165787 0.009929778 -0.0056612813 0.00086285936 0.0043361844 -0.0027465462 0.00063388364 0.0088151535 0.007726001 -0.006452366 -0.0031939938 0.0092285685 -0.00031204018 -0.009534463 -0.0007002463 -0.0068049226 0.00094429747 0.0008207615 -0.004401358 -0.004577442 0.008796141 0.0045891046 0.0025829202 0.0018335265 0.008247808 -0.0049772956 0.0060982425 -0.0009830027 -0.007649848 -0.0097137205 -0.0016861301 0.008106844 0.002202763 -0.008969353 0.0012252218 -0.0036167293 -0.0040543787 0.008139216 0.005830724 0.0003657166 0.0024654602 0.00091697316 -0.009915828 0.0030014801 0.007192737 0.0039739027 0.002464945 -0.0035402938 0.0023433275 -0.0076228543
common 0.004210008 0.0023944962 -0.0004125516 -0.0005976188 0.002638263 0.0022167321 0.0014758408 0.009139281 0.003531327 0.0013849994 -0.0029313737 -0.00607436 -0.009315735 -0.0032582064 0.004349262 0.007580387 0.00063513435 -0.004781696 0.0036072081 -0.0039111655 -0.0007629258 0.008865543 0.008162915 -0.00042221436 -0.0059092585 0.0036933436 0.009809449 0.008673236 -0.0019082637 0.0071458477 0.009272039 -0.009558461 0.00889012 1.7211989e-05 -0.005193721 0.0036829622 0.008965081 -0.0072448007 0.0068737986 -0.0064310757 -0.00777775 0.005501473 -0.0045762598 0.0047622006 0.00737638 0.009654677 0.0057067014 -0.008863724 0.0032428803 -0.008992603 -0.0003675871 0.009785281 -0.0051118094 0.004106519 -0.005730898 -0.008047946 0.008012458 0.0032431087 0.007378056 0.0029384594 0.001166822 0.0037251182 -0.008417061 0.0065940404 -0.0044883885 0.004612117 -0.005458369 0.0010462943 0.004016007 -0.0024756345 -0.007528247 -0.0060321935 -0.00993593 0.009680788 -0.0043840175 -0.0010568133 -0.00902155 -0.004576983 -0.004885112 0.0030109263 0.0056522964 0.0035003424 0.009851773 0.0018988255 0.009876734 0.0075551625 0.002762517 0.0021471933 -0.007507125 -0.0023614138 0.0056407326 -0.0081345895 0.0022682797 -0.00757915 0.009654191 -0.00012360433 0.00091340055 -0.0047784983 0.00612245 -0.0071247765
required -0.0074118795 0.006634553 -0.0033758618 -0.0009254891 0.0053646117 0.0045476775 0.006196222 0.0070242914 0.0056208572 -0.008934584 0.005150951 0.009110549 -0.004017765 0.001083544 -0.0032793917 -0.0033855648 0.008701176 -0.0002774473 0.003409134 -0.0055449954 0.0057762573 -0.0033400666 -0.004964092 0.0021947357 0.009719415 -0.006106308 0.003555109 -0.0009977681 -0.007182228 -0.0043209335 -0.0082057305 0.005579065 -0.0027327407 -0.0052116867 0.0009965403 0.00459539 0.009493006 -0.009725777 -0.0002734301 -0.0012390236 -0.0026943216 -0.0005316288 0.008130317 -0.0018691905 0.009341054 0.0003754244 -0.0010674414 0.0068979994 0.006956498 0.0004498237 -0.00029552187 0.006342764 -0.0038462484 0.004607225 -8.960934e-05 -0.0060717217 0.0064454935 -0.004039665 0.0022223322 -0.0068415557 0.0026948529 0.005576614 0.0051197675 -0.008044563 -0.0058898367 0.00713499 0.0031325277 0.0010957132 -0.006190841 -0.001375982 -0.009231928 0.0012571729 -0.004560668 0.000750661 0.004499492 0.0024080642 -0.0071244356 0.0008523776 -0.0067165834 -0.0038948702 0.0018910869 0.007961162 -0.0065113385 0.0023436956 0.0081428755 0.009915527 0.0061779567 -0.007380184 0.0038609935 0.008830662 0.0041643837 0.0025332766 -0.001585512 0.003584577 0.0041616503 0.008809041 -0.0038117191 -0.0087415725 0.00650115 -0.0062093083
longer -0.00060429296 0.0014233303 -0.0011964679 -0.004050689 0.0008631227 -0.009696068 0.0013854057 -0.0041750446 -0.0057946392 0.0037914456 0.0014588366 0.0036357746 0.0008849922 -0.009506468 0.009985469 -0.0035122759 -0.0021846585 0.0071406076 8.531816e-05 0.00304005 0.002264081 0.002399455 0.006769552 0.009480248 -0.0005563283 -0.0034018054 0.004533524 -0.008336544 0.008477598 0.0024141585 0.0060147326 0.0027984607 -0.0013064635 0.0009426376 -0.0047974 0.009097902 0.005024313 0.0036225999 -0.005007407 -0.00865417 0.007942869 0.0029462927 -0.0042479374 -0.008663149 -0.0039531295 0.0014070793 -0.009193339 4.4770157e-05 0.0028137881 -0.009951652 -0.00014507414 -0.0060712225 -0.0036098144 -0.0016174931 -0.009975233 -0.0036085541 -0.0070292843 -0.007345058 0.0015970579 0.0023473802 0.009296499 0.008865027 -0.006404913 -0.00918939 0.007904952 0.0054169954 0.0069506657 -0.002939383 -0.005234312 -0.004554622 -0.008341837 0.00587505 -0.0034502512 0.008629045 -0.005666501 0.009647167 -0.0045133536 0.008667514 -0.005404537 -0.0075228787 0.0076586893 -0.0097866915 -0.008784988 0.0049618366 -0.009752769 0.0052872053 0.003666309 -0.007009839 0.0031490522 0.001455458 0.00865762 0.0028954374 -0.0051133 -0.0023450414 0.0068557803 -0.006636546 0.009296463 -0.0031939794 -0.004646282 -0.0043562385
recovery 0.0030795021 -0.009826652 0.003217564 -0.0045002154 0.009676128 -0.005044941 -0.008024341 0.00350537 0.008962368 0.0027361093 -0.0022637888 0.003497788 -0.008929814 -0.0041383724 -0.004379935 0.0019029286 -0.006298442 -0.0075877216 -0.006531124 0.0052796975 0.0027533616 0.008816119 0.002327979 0.0053048558 0.004333857 0.0046499236 -0.0049760407 0.0014233979 0.00030110168 0.005260936 -0.006592663 -0.0007263387 0.0040338496 -0.004860216 -0.008509791 0.005582402 -0.00086493365 0.00035569188 -0.0060694264 0.008490006 0.00090450404 0.0017333778 -0.00039267598 0.0006880168 0.0057957238 -0.009225004 0.0023533478 -0.0055821883 0.009457669 0.0043627024 -0.005496271 -0.0012236927 -0.005542471 0.008525397 0.009086263 0.0023069032 0.009641129 -0.004728686 0.0028139143 -0.005100716 -0.0087650865 -0.0041669477 -0.0013756619 -0.0056326366 -0.004528221 0.0006386041 -0.000111381916 -0.008312893 0.0069199535 0.0015753697 -0.009506843 -0.001419887 -0.007591261 0.0075747045 -0.0010356975 0.007833754 0.0050192755 -0.0040526185 -0.009068689 -0.006202183 0.00887737 -0.0015738496 -0.00030953792 0.00013093633 -0.008243359 0.004226331 -0.0081983395 0.009424347 -0.008122566 0.007904088 -0.0019646098 -0.0020459113 -0.002282629 0.000984158 0.0024693203 0.0016103458 -0.0005872113 0.0075874347 -0.0064278115 -0.007886014
concrete -0.007192811 0.0063176304 -0.0019777347 -0.004747718 0.004952542 -0.007853879 0.0029006158 0.009607364 0.006934634 -0.00305461 0.0024120456 0.004960866 0.009599756 -0.0027337635 0.0013254206 -0.0041863997 -0.0031659817 0.0008688169 0.0022004142 -0.0053457175 0.004236173 -0.005111757 -0.0045988383 -0.00898346 0.0076596183 0.004294499 -0.0021993825 0.0084336 0.0019707973 -0.009900494 -0.0077585457 -0.004235019 -0.0072806193 0.007389683 0.005065107 0.002016709 -0.0006432507 -0.007436531 0.0061255377 -0.005195314 -0.0026868598 -0.0058522457 -0.0021780839 -0.009323675 0.0032854124 -0.007431183 0.006753437 -0.0074585616 -0.005885799 7.391891e-05 -0.007951477 0.005369337 -0.0042391694 0.00038420272 0.007806873 0.0031219705 -0.00018797172 0.0076742703 -0.00014407851 0.0056158616 0.0059864805 -0.008002521 0.001926217 -0.009462957 -0.0013965146 0.008602455 -0.0024554403 -0.0047826995 0.0027887968 0.007267957 0.006575433 -0.0065050125 0.0070302235 0.007587199 -0.0053614522 -0.0011911581 -0.0005935912 -0.00942326 -0.0023832524 0.009778886 -0.0026104338 -0.0076638674 -0.004274159 -0.009523703 0.0019958548 0.0060184337 0.0007440731 -0.0034795862 0.0094768405 -0.009361907 -0.0045536556 -0.0097549725 0.009590659 -0.0018570748 -0.0053410684 -0.007897216 0.008210734 -0.0029524772 -0.005810049 0.0037309267
